{
  "layers": [
    "RELU",
    "SOFTMAX"
  ],
  "inputsByLayer": [
    89,
    20
  ],
  "outputsByLayer": [
    20,
    11
  ],
  "weightsByLayerNeuronAndInput": [
    [
      [
        0.023547472432255745,
        -0.07280340790748596,
        -0.11265170574188232,
        -0.0500483401119709,
        0.017387228086590767,
        -0.038210272789001465,
        -0.0010795718990266323,
        -6.912856770213693E-5,
        -0.08124925941228867,
        -0.07006824761629105,
        -0.11192742735147476,
        -0.2931574881076813,
        -0.03424574434757233,
        -0.002866532653570175,
        -0.02438545413315296,
        0.1735449880361557,
        -0.041774339973926544,
        -0.013643907383084297,
        -2.917543752118945E-4,
        0.010706598870456219,
        1.4633506361860782E-4,
        -5.68247378396336E-5,
        0.0015266534173861146,
        -0.018240883946418762,
        0.016959447413682938,
        0.0015909733483567834,
        -0.002889906754717231,
        3.4169008722528815E-4,
        -0.002010187366977334,
        -0.012785155326128006,
        7.523623062297702E-4,
        6.188993575051427E-5,
        -0.028873618692159653,
        -0.03709840402007103,
        -0.02199876867234707,
        -0.0013095989124849439,
        0.0015418013790622354,
        -0.3172229826450348,
        5.764398736118892E-8,
        5.3162018787134E-8,
        -0.034243904054164886,
        -6.12487554008112E-8,
        5.442071682182359E-8,
        -5.505147271378519E-8,
        2.624361077323556E-4,
        -0.007517872843891382,
        -0.002732835942879319,
        -0.042336758226156235,
        -0.024263514205813408,
        -0.013311706483364105,
        -1.275490467378404E-5,
        -0.0010552352759987116,
        -0.024385524913668633,
        0.08164937049150467,
        -0.1211910992860794,
        1.1522572040557861,
        -0.01971820369362831,
        5.601160228252411E-4,
        1.4625706535298377E-4,
        -0.0012831565691158175,
        -5.624457262456417E-4,
        -2.231581456726417E-4,
        0.016959533095359802,
        0.004397831857204437,
        -6.65919971652329E-4,
        4.4841456110589206E-4,
        -0.041246652603149414,
        -5.501852720044553E-4,
        3.0060429708100855E-4,
        4.6526762162102386E-5,
        7.57729503675364E-5,
        -0.021035706624388695,
        -0.01868698000907898,
        -0.01180518139153719,
        0.0015418027760460973,
        -6.12487554008112E-8,
        -5.6887287769313843E-8,
        5.027300176152494E-8,
        8.107027582582305E-8,
        4.9862357798247103E-8,
        6.109598160719543E-8,
        -5.781861034392932E-8,
        2.624861663207412E-4,
        -0.007517846766859293,
        -0.0027327730786055326,
        -0.01015466544777155,
        -0.05777309834957123,
        -0.004926781170070171,
        0.014781609177589417
      ],
      [
        0.018387211486697197,
        -0.10600823909044266,
        0.09076647460460663,
        -2.1348496375139803E-4,
        0.1201038807630539,
        -0.12044910341501236,
        -0.020348547026515007,
        -0.02098965458571911,
        0.009011009708046913,
        0.08154094219207764,
        -0.30102023482322693,
        -0.21192145347595215,
        0.040480468422174454,
        -0.019825927913188934,
        -0.2550867795944214,
        0.10616683959960938,
        -0.2831581234931946,
        -0.032968685030937195,
        -2.144123282050714E-4,
        0.04119694605469704,
        -0.001807759515941143,
        -6.15399912931025E-4,
        -0.010930921882390976,
        -0.01804647408425808,
        0.15173371136188507,
        0.018960971385240555,
        -3.7472735857591033E-4,
        -4.420145705807954E-4,
        -0.05614706128835678,
        0.027742838487029076,
        -6.817675312049687E-4,
        -0.022029001265764236,
        -0.005557448603212833,
        0.08438494056463242,
        0.026131076738238335,
        -1.5593187708873302E-4,
        -0.010261318646371365,
        -0.2120441198348999,
        5.773538447328974E-8,
        5.391871837900908E-8,
        0.1432841271162033,
        -4.972727651875175E-8,
        -5.549936332727157E-8,
        5.468859143320515E-8,
        -0.00986848771572113,
        0.015735970810055733,
        0.001389636774547398,
        -0.002068903762847185,
        -0.0169463399797678,
        -5.636711721308529E-4,
        -0.09723462909460068,
        -0.019825927913188934,
        -0.2220541536808014,
        0.04543853551149368,
        -0.12528175115585327,
        -0.2161540389060974,
        0.036732662469148636,
        0.11060963571071625,
        -0.001807724591344595,
        -0.009121869690716267,
        -5.075175431557E-4,
        -3.983716305810958E-4,
        5.799836362712085E-4,
        -4.194712673779577E-4,
        0.0030379535164684057,
        -4.6182775986380875E-4,
        -0.003476476762443781,
        3.4123248769901693E-4,
        0.013784579932689667,
        -2.8737058164551854E-4,
        -0.008036966435611248,
        0.007555481977760792,
        0.05479641258716583,
        0.007921759970486164,
        -0.031660113483667374,
        -5.188645957332483E-8,
        -5.612192666148985E-8,
        -5.616558240717495E-8,
        5.498918653756846E-8,
        -5.4370701718653436E-8,
        5.853117102105898E-8,
        5.6511638035772194E-8,
        -0.009868467226624489,
        0.015736011788249016,
        0.0013895464362576604,
        -0.002068909350782633,
        -0.0677926316857338,
        -0.07028395682573318,
        -0.09673083573579788
      ],
      [
        -0.052721425890922546,
        -0.025548022240400314,
        0.024769194424152374,
        -2.750687999650836E-4,
        -0.0763043761253357,
        -0.06895968317985535,
        2.1688391279894859E-4,
        0.12665677070617676,
        -3.5521999234333634E-4,
        0.011976039037108421,
        0.09259045869112015,
        -0.2645288109779358,
        -0.2586958110332489,
        -0.16966493427753448,
        -0.0011591818183660507,
        0.0015221155481413007,
        8.478540694341063E-4,
        0.009718066081404686,
        -0.007640918716788292,
        -7.383275078609586E-4,
        -0.03590814396739006,
        -2.9842130606994033E-4,
        0.03587726131081581,
        -0.001108478638343513,
        -2.3722820333205163E-4,
        4.1023624362424016E-4,
        0.001302399905398488,
        0.07715531438589096,
        -0.012293724343180656,
        0.036023300141096115,
        5.781323416158557E-4,
        0.023860899731516838,
        -0.01407187432050705,
        0.023340458050370216,
        0.010147914290428162,
        -9.660078794695437E-4,
        -0.0839671939611435,
        -0.24101522564888,
        4.8717275547005556E-8,
        5.329250285512899E-8,
        -0.029639465734362602,
        5.7639880424176226E-8,
        4.972000056113757E-8,
        -6.074351688312163E-8,
        -0.002787127858027816,
        -0.045578483492136,
        -0.042408350855112076,
        -0.11138808727264404,
        -0.020709052681922913,
        -0.049028873443603516,
        -4.7901549260132015E-4,
        -6.337244412861764E-4,
        -0.0337882861495018,
        0.08372548967599869,
        -0.09555752575397491,
        0.2790940999984741,
        -0.023417094722390175,
        -6.204109522514045E-4,
        -0.16232876479625702,
        -0.0191138107329607,
        0.010250271297991276,
        -0.027562614530324936,
        0.05440571531653404,
        0.12446752190589905,
        0.022379931062459946,
        0.01097737904638052,
        -0.11024433374404907,
        0.03398759290575981,
        9.857571421889588E-5,
        0.02923751063644886,
        -0.010481011122465134,
        0.028009634464979172,
        7.963086245581508E-4,
        -8.964694570749998E-4,
        -0.037625547498464584,
        5.674584713233344E-8,
        6.119054773989774E-8,
        -0.03564898669719696,
        -5.3933270294237445E-8,
        6.074351688312163E-8,
        -5.787681800484279E-8,
        -5.939927660847388E-8,
        -0.0027870701160281897,
        -0.07487659156322479,
        -0.002409928012639284,
        -0.0035766749642789364,
        -9.668721468187869E-4,
        -5.118072149343789E-4,
        -4.790724196936935E-4
      ],
      [
        -0.001466252258978784,
        -0.2713839113712311,
        -0.4114460349082947,
        0.02397126518189907,
        -0.07819225639104843,
        -0.4233885407447815,
        0.0486595593392849,
        -5.774943856522441E-4,
        -0.4496859312057495,
        -0.08351100981235504,
        -0.14865659177303314,
        -2.6218994753435254E-4,
        0.004985913634300232,
        -0.03821772336959839,
        -1.9283121218904853E-4,
        -0.16012507677078247,
        -0.031024396419525146,
        -0.23899129033088684,
        -0.001238378114067018,
        -4.940301878377795E-4,
        -0.05395502224564552,
        0.028653623536229134,
        -0.017413858324289322,
        0.001246486441232264,
        0.0073040081188082695,
        0.02411607652902603,
        0.049712035804986954,
        0.018655579537153244,
        0.0011320527410134673,
        -0.028643710538744926,
        0.03650585934519768,
        0.04164530709385872,
        0.003317345632240176,
        -0.02117094025015831,
        -0.003193648299202323,
        0.026414167135953903,
        -0.0012549590319395065,
        -0.01612921990454197,
        -5.571541805693414E-8,
        -6.167667976342273E-8,
        0.004985843785107136,
        -5.379908429858915E-8,
        4.979595757959032E-8,
        -0.12091948091983795,
        -5.773974116891623E-4,
        5.504736327566206E-4,
        2.495253866072744E-4,
        -6.755274953320622E-4,
        -0.07665827125310898,
        -0.14525513350963593,
        -0.041136372834444046,
        -0.18856693804264069,
        -1.9290944328531623E-4,
        -0.11597467213869095,
        -0.25598573684692383,
        0.24908924102783203,
        -0.004047655500471592,
        -0.061332184821367264,
        -0.05395500734448433,
        -0.06584874540567398,
        -0.02194002829492092,
        9.960024617612362E-4,
        0.012173227034509182,
        9.84278623946011E-4,
        0.057110875844955444,
        0.12683604657649994,
        0.10700158774852753,
        -0.02622941881418228,
        0.025515645742416382,
        0.02417968027293682,
        0.010031155310571194,
        -0.06857754290103912,
        -0.0028231653850525618,
        0.01551397331058979,
        -0.001254943199455738,
        5.549533454995981E-8,
        -6.140882646832324E-8,
        5.0098378778784536E-8,
        -5.087462540132037E-8,
        5.4304301499996654E-8,
        -6.023693543966147E-8,
        4.9316639660901274E-8,
        -0.009906433522701263,
        5.505541921593249E-4,
        2.4947963538579643E-4,
        -0.11847758293151855,
        -0.07649543136358261,
        -0.06334187090396881,
        -0.22709397971630096
      ],
      [
        -0.658211350440979,
        -0.6106564998626709,
        -0.046938471496105194,
        -0.24578239023685455,
        -0.7251589894294739,
        -0.6434699296951294,
        -0.21620912849903107,
        -0.37949663400650024,
        -0.42549753189086914,
        -0.04474888741970062,
        -0.8995692133903503,
        -0.18017426133155823,
        0.01306118443608284,
        -0.04278191551566124,
        -0.08539531379938126,
        0.04508431628346443,
        -0.08491679280996323,
        0.28501683473587036,
        0.02110362984240055,
        0.004179344512522221,
        -0.0667889267206192,
        -0.014303300529718399,
        -0.018091192469000816,
        -0.001930237514898181,
        -2.3802972282283008E-4,
        -0.007711600512266159,
        -0.014051350764930248,
        -0.027955256402492523,
        -0.01755332015454769,
        -0.005456081125885248,
        -0.004217478446662426,
        -8.788191189523786E-5,
        -0.0011308687971904874,
        -0.037385016679763794,
        -0.04131957143545151,
        -0.04148087278008461,
        -0.05944919213652611,
        -0.0663980096578598,
        -5.618013432240332E-8,
        -4.923568042158877E-8,
        0.12827438116073608,
        5.695956417639536E-8,
        4.950899779032625E-8,
        -5.6573064455278654E-8,
        -3.457568527664989E-4,
        -0.008211362175643444,
        -0.01568656601011753,
        5.642910255119205E-4,
        -0.0642443597316742,
        -0.034910935908555984,
        -0.02573687583208084,
        -0.09162664413452148,
        -0.06174951791763306,
        0.0194306131452322,
        -0.26179394125938416,
        0.013288980349898338,
        0.0029729516245424747,
        0.06824696063995361,
        -0.032813411206007004,
        0.0010207676095888019,
        2.3613662051502615E-4,
        -0.013062914833426476,
        -0.044524338096380234,
        -0.04429638758301735,
        -3.4614233300089836E-4,
        -8.976332028396428E-4,
        -1.0694783122744411E-4,
        -0.044726040214300156,
        -0.018996773287653923,
        -0.028163209557533264,
        -0.008360658772289753,
        -0.006553941871970892,
        -0.003348119091242552,
        -0.0013908838154748082,
        -0.00306900916621089,
        5.121612645098139E-8,
        5.0970577092357416E-8,
        5.4259281512258895E-8,
        -4.972727651875175E-8,
        -6.101273442027377E-8,
        -5.7275642006970884E-8,
        -0.14805488288402557,
        -3.457242564763874E-4,
        -0.008211384527385235,
        -0.0028028388042002916,
        -0.04003112018108368,
        0.0011096500093117356,
        -3.0967540806159377E-4,
        -0.03591834008693695
      ],
      [
        -0.0011457327054813504,
        -0.44417890906333923,
        -0.7616190314292908,
        -0.08693928271532059,
        -0.39839914441108704,
        -0.42492416501045227,
        -0.20417512953281403,
        -0.1928432434797287,
        -7.767682545818388E-4,
        -0.01253531314432621,
        -0.5270369648933411,
        -0.0026066573336720467,
        0.017954081296920776,
        0.06946221739053726,
        0.0477369949221611,
        0.027597693726420403,
        0.026008954271674156,
        0.01862967573106289,
        0.01213869359344244,
        5.099314148537815E-4,
        0.007593576330691576,
        0.06890978664159775,
        0.011337597854435444,
        -5.972342332825065E-4,
        0.08800447732210159,
        0.07558642327785492,
        7.830667891539633E-4,
        -0.0011192022357136011,
        -0.016673406586050987,
        7.830019458197057E-4,
        0.003493602154776454,
        -0.007378443609923124,
        -1.1399327195249498E-4,
        -3.010314248967916E-4,
        -0.03178825601935387,
        -0.0101767648011446,
        0.0024398318491876125,
        -0.08578523993492126,
        6.199590529831767E-8,
        -6.086315096354156E-8,
        -5.321468779584393E-5,
        -4.9357595344190486E-8,
        -5.832476546174803E-8,
        -5.6594892328121205E-8,
        0.012293432839214802,
        -0.004731191787868738,
        -0.0069120884872972965,
        -5.898730596527457E-4,
        0.008865337818861008,
        0.0851292833685875,
        0.011543944478034973,
        0.0011225168127566576,
        0.001171223702840507,
        0.06340426206588745,
        0.02600780688226223,
        -0.31438860297203064,
        0.076335608959198,
        0.014608051627874374,
        0.007593641523271799,
        -0.052159495651721954,
        0.005483377259224653,
        -0.022751005366444588,
        0.006588366813957691,
        0.019883325323462486,
        6.394308875314891E-4,
        -0.004980631172657013,
        -0.001665178220719099,
        0.014994015917181969,
        0.003729504533112049,
        -0.001214133109897375,
        -1.1400700896047056E-4,
        -0.008007057011127472,
        -0.05044285207986832,
        -0.002644551219418645,
        0.0024397349916398525,
        -5.104150346824099E-8,
        -5.516380952030886E-8,
        5.516380952030886E-8,
        0.06306860595941544,
        0.15603455901145935,
        -5.379908429858915E-8,
        4.950899779032625E-8,
        0.017335763201117516,
        -0.0047311861999332905,
        -0.0032765138894319534,
        -5.897866794839501E-4,
        0.00886530801653862,
        0.014096138067543507,
        0.08849010616540909
      ],
      [
        -0.09525575488805771,
        -0.09621665626764297,
        -0.2677781283855438,
        2.4588429369032383E-4,
        -0.05702904611825943,
        4.579094529617578E-4,
        -0.09670866280794144,
        -5.479634855873883E-4,
        -0.1098305881023407,
        -0.015224356204271317,
        -0.6125386953353882,
        0.5845392942428589,
        -0.11989489197731018,
        5.922337877564132E-4,
        -0.020821044221520424,
        -0.09932844340801239,
        0.4667905569076538,
        -0.21470187604427338,
        6.140695768408477E-4,
        0.11134245246648788,
        -0.005624346435070038,
        0.038482654839754105,
        0.03310732543468475,
        -0.029724804684519768,
        -0.002127228770405054,
        0.04415842518210411,
        0.05282048508524895,
        -9.239061910193413E-5,
        7.918864721432328E-4,
        2.936713572125882E-4,
        -6.961019244045019E-4,
        7.329056097660214E-5,
        9.002364240586758E-4,
        -0.021933354437351227,
        -0.031386177986860275,
        -0.0017185431206598878,
        3.6403830745257437E-4,
        0.594563364982605,
        -5.516380952030886E-8,
        -6.228786020301413E-8,
        7.851172122173011E-4,
        -5.615830644956077E-8,
        -5.064088526296473E-8,
        5.56157786490985E-8,
        5.215934361331165E-4,
        -0.00310043734498322,
        -4.341158492024988E-4,
        -0.04362111538648605,
        7.925685495138168E-4,
        0.11851905286312103,
        0.002177964197471738,
        5.921539268456399E-4,
        -0.03106929548084736,
        -0.11276522278785706,
        0.10881388932466507,
        -1.170108675956726,
        0.015040989965200424,
        0.22719670832157135,
        -0.025314772501587868,
        7.222479907795787E-4,
        0.019498849287629128,
        -0.03485921397805214,
        -0.00212714821100235,
        -0.036934662610292435,
        0.006094480864703655,
        0.02083931304514408,
        0.04543295130133629,
        -0.05134684219956398,
        -5.26576186530292E-4,
        3.180127532687038E-5,
        0.09266985207796097,
        -0.017773548141121864,
        -0.0031590480357408524,
        -0.03864683583378792,
        0.05107720568776131,
        5.4304301499996654E-8,
        5.7137405917728756E-8,
        6.199590529831767E-8,
        -0.02841562032699585,
        6.136517072263814E-8,
        5.56157786490985E-8,
        -5.695956417639536E-8,
        0.028735607862472534,
        -0.05322565138339996,
        -0.011532717384397984,
        -0.01592537946999073,
        0.016980670392513275,
        0.0013306360924616456,
        0.1343017965555191
      ],
      [
        0.04967698082327843,
        -0.014223785139620304,
        0.46380704641342163,
        0.189633309841156,
        0.05047579109668732,
        -0.2442331463098526,
        -0.20063140988349915,
        0.10310366749763489,
        1.3880293408874422E-4,
        -0.003850257256999612,
        -0.1708935648202896,
        0.0018697627820074558,
        0.11475381255149841,
        -0.03183858469128609,
        0.026251167058944702,
        0.014671793207526207,
        -3.7741329288110137E-4,
        0.07447917014360428,
        -0.007894442416727543,
        0.04645060375332832,
        -0.05896684527397156,
        2.0651149679906666E-4,
        0.07161266356706619,
        0.007110172417014837,
        -0.172116219997406,
        1.938974019140005E-4,
        0.0012342672562226653,
        0.006146606523543596,
        -0.025677969679236412,
        -1.5428676852025092E-4,
        -0.002650636248290539,
        3.37539502652362E-4,
        -0.03512880578637123,
        0.01804467663168907,
        -0.004683013539761305,
        5.456711514852941E-4,
        4.234196385368705E-4,
        0.0018697031773626804,
        -4.992056545916057E-8,
        5.7217434346057416E-8,
        0.13347263634204865,
        5.612192666148985E-8,
        -5.6045088570044754E-8,
        -5.615830644956077E-8,
        0.013801289722323418,
        -0.029419468715786934,
        -8.414275944232941E-4,
        -0.11541551351547241,
        -0.0016068557742983103,
        -0.047318268567323685,
        0.03962963819503784,
        -2.4843451683409512E-5,
        0.04751202091574669,
        0.014671813696622849,
        -0.06502626091241837,
        0.06752073019742966,
        -0.008490627631545067,
        0.10568515211343765,
        6.871244841022417E-5,
        0.2492489218711853,
        0.11900446563959122,
        0.06329123675823212,
        -0.21554836630821228,
        0.016562355682253838,
        0.0013356460258364677,
        0.00970457587391138,
        -0.025654567405581474,
        0.0782872885465622,
        -0.0025901838671416044,
        1.7481505346950144E-4,
        -0.02973060868680477,
        0.07989311963319778,
        -0.001148051698692143,
        7.078111520968378E-4,
        4.233786603435874E-4,
        -6.107185868131637E-8,
        5.664674063154962E-8,
        -4.979595757959032E-8,
        5.493505739195825E-8,
        -5.069955477665644E-8,
        0.06335526704788208,
        -5.110654655027247E-8,
        0.0024133233819156885,
        -0.029419319704174995,
        -8.413903415203094E-4,
        -0.03463764116168022,
        -0.09887520968914032,
        -0.04731816425919533,
        0.0015651625581085682
      ],
      [
        -0.05372831970453262,
        0.0597807876765728,
        4.8018345842137933E-4,
        0.03382633253931999,
        -0.11365748196840286,
        -0.04380585998296738,
        -0.0010917691979557276,
        0.028106559067964554,
        0.08449358493089676,
        1.1882602120749652E-4,
        0.17078326642513275,
        -0.2566412389278412,
        -4.713306261692196E-4,
        0.0031887374352663755,
        -0.1499914824962616,
        -0.06477827578783035,
        -0.005986476317048073,
        0.017053954303264618,
        0.06222430616617203,
        -0.32769230008125305,
        -5.136463441886008E-4,
        -0.0027821301482617855,
        -0.006417193915694952,
        -3.4282865817658603E-4,
        0.13188156485557556,
        -7.139364024624228E-4,
        6.969904061406851E-4,
        -4.6617842599516734E-5,
        0.058891378343105316,
        -4.8410383169539273E-4,
        0.003274001879617572,
        3.174796001985669E-4,
        -2.5648016162449494E-5,
        0.002029149793088436,
        0.07906565815210342,
        0.05204411596059799,
        0.053543608635663986,
        -0.1974208652973175,
        -4.9144311731197377E-8,
        5.758986532100607E-8,
        -4.713136295322329E-4,
        -0.040726445615291595,
        5.634976218971133E-8,
        -5.3933270294237445E-8,
        3.8606204907409847E-4,
        0.15512670576572418,
        0.020660704001784325,
        0.028911510482430458,
        0.0013623208506032825,
        6.658799829892814E-4,
        0.08887730538845062,
        0.02133162133395672,
        -0.13079962134361267,
        -0.07137643545866013,
        -0.005986449308693409,
        -0.21849089860916138,
        0.0058484808541834354,
        -0.09131691604852676,
        -5.135764949955046E-4,
        5.682687042281032E-4,
        -0.029101235792040825,
        -7.498300401493907E-4,
        0.06990445405244827,
        -5.245186621323228E-4,
        0.03633706644177437,
        -7.598001684527844E-5,
        0.0400688573718071,
        0.027533847838640213,
        0.0029235058464109898,
        1.8440108397044241E-4,
        0.02291226200759411,
        0.06403731554746628,
        0.02144312486052513,
        0.030155247077345848,
        0.0018864009762182832,
        5.409334136174948E-8,
        -4.968362077306665E-8,
        -5.0098378778784536E-8,
        7.692208470189144E-8,
        5.2902763059137214E-8,
        6.187948997649073E-8,
        5.268267955216288E-8,
        3.860500582959503E-4,
        0.047355763614177704,
        0.020660677924752235,
        0.028911499306559563,
        0.04650481790304184,
        6.658371421508491E-4,
        0.01715727709233761
      ],
      [
        -0.012256641872227192,
        -0.052626579999923706,
        -0.7274814248085022,
        0.023570654913783073,
        -0.08548688888549805,
        0.06938203424215317,
        -0.09385424852371216,
        -0.09904590249061584,
        -0.1281576156616211,
        0.0063849762082099915,
        -0.1560155600309372,
        -0.46190544962882996,
        -0.03086096979677677,
        -0.10422584414482117,
        0.002070144284516573,
        5.568338674493134E-4,
        -0.08053586632013321,
        -0.11246597766876221,
        -0.009530461393296719,
        0.026055295020341873,
        0.04667935147881508,
        0.07401719689369202,
        -2.0750027033500373E-4,
        -0.013448712415993214,
        -0.16226604580879211,
        0.0022980011999607086,
        3.3731787698343396E-4,
        0.006365260109305382,
        0.010238826274871826,
        0.03644118085503578,
        0.0022296439856290817,
        2.8553917218232527E-5,
        0.0022863796912133694,
        0.018354931846261024,
        0.05750107392668724,
        0.027503902092576027,
        0.012896576896309853,
        -0.5682833790779114,
        -5.594730367874945E-8,
        5.7177842904820864E-8,
        -0.23790201544761658,
        5.0189754574603285E-8,
        5.7275642006970884E-8,
        5.611784814618659E-8,
        -0.01049101073294878,
        -6.432691006921232E-4,
        -0.05943154916167259,
        -8.468810701742768E-4,
        -8.377300691790879E-4,
        -0.02534007467329502,
        -0.0739622563123703,
        -5.878799711354077E-4,
        0.0020702346228063107,
        5.568315391428769E-4,
        -0.083220474421978,
        0.4753240644931793,
        -0.050074245780706406,
        -3.692976897582412E-4,
        0.046321745961904526,
        0.037993691861629486,
        -0.011178478598594666,
        -0.005978904664516449,
        -0.001252589630894363,
        0.10923797637224197,
        0.09436407685279846,
        0.035471539944410324,
        6.347702583298087E-4,
        0.08287317305803299,
        0.06544958800077438,
        -3.0764611437916756E-5,
        0.011320734396576881,
        0.0698883980512619,
        0.09639706462621689,
        4.7166069271042943E-4,
        0.07426604628562927,
        5.0695426523361675E-8,
        5.7513915407980676E-8,
        5.329250285512899E-8,
        -5.781861034392932E-8,
        -5.667170910328423E-8,
        6.210826342112341E-8,
        -5.165860272882128E-8,
        -0.010491096414625645,
        -6.431742222048342E-4,
        -2.4649323313497007E-4,
        -8.46816343255341E-4,
        -8.377028279937804E-4,
        -0.0035237891133874655,
        -2.179264702135697E-4
      ],
      [
        -0.0951988622546196,
        -0.13590265810489655,
        -0.7010112404823303,
        -0.07261018455028534,
        0.2633739411830902,
        -0.10770167410373688,
        0.11114617437124252,
        -0.08512260764837265,
        -0.08443393558263779,
        -0.013726887293159962,
        -0.4316715896129608,
        -0.06189757585525513,
        0.00110054318793118,
        0.09102728962898254,
        -0.23416940867900848,
        -0.03010649047791958,
        -0.0011677033035084605,
        0.003741099964827299,
        0.03755556419491768,
        -0.018942994996905327,
        0.02003881335258484,
        0.00544275576248765,
        0.008657475933432579,
        1.2554683780763298E-4,
        -0.01671215519309044,
        0.0011142889270558953,
        3.135661536362022E-4,
        2.6315925060771406E-4,
        -0.03861957788467407,
        1.3151649909559637E-5,
        -0.01572270318865776,
        -0.03688744083046913,
        -9.650223073549569E-4,
        -1.2031002552248538E-4,
        4.205128352623433E-4,
        -0.021056687459349632,
        -1.777759644028265E-5,
        -0.14125555753707886,
        -5.516380952030886E-8,
        -6.09545267593603E-8,
        -0.06083297356963158,
        4.962133459684992E-8,
        -5.498918653756846E-8,
        -0.14053191244602203,
        8.454279159195721E-4,
        -0.02348555438220501,
        -0.05136987194418907,
        -0.010497023351490498,
        0.0021358116064220667,
        0.06243922933936119,
        6.691600428894162E-4,
        3.483959590084851E-4,
        -0.07028486579656601,
        -0.03010649047791958,
        -0.0011677247239276767,
        -0.23663562536239624,
        0.021400341764092445,
        8.305195951834321E-4,
        0.0015916555421426892,
        0.03541197255253792,
        0.020781222730875015,
        0.00869173463433981,
        -0.016712158918380737,
        0.005385097116231918,
        1.8066282791551203E-4,
        2.0399385539349169E-4,
        -0.00721617741510272,
        -6.722339894622564E-4,
        -0.0012101855827495456,
        -2.80905922409147E-4,
        -0.036050017923116684,
        -0.017297105863690376,
        -0.0052629862911999226,
        2.286619710503146E-4,
        -0.013984872959554195,
        -5.001513159186288E-8,
        5.586729656670286E-8,
        4.950899779032625E-8,
        5.510560185939539E-8,
        -4.9947836089359043E-8,
        5.4304301499996654E-8,
        -5.409334136174948E-8,
        8.45352013129741E-4,
        -0.023485573008656502,
        -0.0025278700049966574,
        -0.06529884785413742,
        0.0021358525846153498,
        0.05398085340857506,
        0.12381356209516525
      ],
      [
        0.00917704589664936,
        -0.03538979962468147,
        3.949624951928854E-4,
        0.005710485391318798,
        -0.03372562676668167,
        -0.07259489595890045,
        0.023060930892825127,
        0.12905937433242798,
        0.08245457708835602,
        -4.7768637887202203E-4,
        0.05699392408132553,
        0.08927924931049347,
        7.072627195157111E-4,
        0.050982244312763214,
        0.0636996179819107,
        -0.0010817005531862378,
        0.4244414269924164,
        9.78441967163235E-5,
        -3.0991886160336435E-4,
        -0.0037400401197373867,
        9.481089073233306E-4,
        0.13850422203540802,
        -0.10532797127962112,
        0.006779469083994627,
        -0.3438648581504822,
        0.09006897360086441,
        0.03357623144984245,
        0.06515778601169586,
        -0.007201917469501495,
        0.05130652338266373,
        0.001331886276602745,
        0.0012294912012293935,
        2.736818278208375E-4,
        -8.235450368374586E-4,
        -0.0022801165468990803,
        -0.006602704059332609,
        -0.0012442712904885411,
        0.23597437143325806,
        -6.079220327137591E-8,
        -5.7275642006970884E-8,
        7.072727312333882E-4,
        -6.052390943978025E-8,
        5.442071682182359E-8,
        4.972727651875175E-8,
        0.0044807689264416695,
        -0.03242848068475723,
        0.0037818995770066977,
        0.06701549142599106,
        0.04300309717655182,
        0.011086400598287582,
        0.00332471146248281,
        0.032276324927806854,
        0.10120616853237152,
        -0.001081631169654429,
        0.23597177863121033,
        -0.034314028918743134,
        7.199004176072776E-4,
        -6.121338228695095E-4,
        9.481117012910545E-4,
        0.07138996571302414,
        -0.08126607537269592,
        0.10308561474084854,
        -0.3661617040634155,
        -1.9044727378059179E-4,
        0.025344187393784523,
        0.09040650725364685,
        -6.26309949439019E-4,
        6.362526910379529E-4,
        0.03690620884299278,
        0.024090785533189774,
        2.736529568210244E-4,
        -0.001283664838410914,
        -0.005737816449254751,
        -0.0331028513610363,
        -0.006349198054522276,
        5.0156586439698E-8,
        5.731202890046916E-8,
        -0.03150995448231697,
        -5.4068301835741295E-8,
        4.872550363188566E-8,
        -4.9650438427306653E-8,
        5.4516220870937104E-8,
        0.0044808899983763695,
        -0.13981279730796814,
        0.060181256383657455,
        0.03504883870482445,
        0.09612005949020386,
        0.20339077711105347,
        0.1661306470632553
      ],
      [
        -0.03075665794312954,
        -0.13574713468551636,
        0.007673109881579876,
        0.024688424542546272,
        -0.08013325184583664,
        -0.1986234337091446,
        0.023649053648114204,
        -1.575275819050148E-4,
        -0.2475506067276001,
        -0.001231154426932335,
        0.13103921711444855,
        0.07537519931793213,
        -0.019670255482196808,
        0.014313917607069016,
        -0.6746177077293396,
        0.006170225329697132,
        -0.07857488095760345,
        -0.0017667668871581554,
        0.025552788749337196,
        -0.05417288467288017,
        0.0014958643587306142,
        4.984581028111279E-5,
        0.06092248111963272,
        -0.06788960844278336,
        0.16835030913352966,
        4.210319311823696E-4,
        -0.009774998761713505,
        -0.0035743825137615204,
        -7.413022685796022E-4,
        -0.0014921935508027673,
        0.002240395173430443,
        -0.0011998062254860997,
        0.002291616750881076,
        -0.05004730820655823,
        -0.007575204595923424,
        -0.03069351427257061,
        0.05949223041534424,
        0.07537521421909332,
        5.454532470139384E-8,
        4.950899779032625E-8,
        -0.16859588027000427,
        -5.981403461419177E-8,
        6.14825026445942E-8,
        -5.922465362573348E-8,
        0.0139033617451787,
        0.14394772052764893,
        -4.497072077356279E-4,
        7.808031659806147E-5,
        0.013124493882060051,
        0.037887923419475555,
        0.023882092908024788,
        0.014288652688264847,
        -0.45452624559402466,
        0.006170238368213177,
        -0.07875695824623108,
        1.3532973753171973E-5,
        0.023075051605701447,
        -0.08147703111171722,
        0.007141720503568649,
        -0.1007399782538414,
        0.00122845359146595,
        -0.021540449932217598,
        0.12860175967216492,
        4.7398474998772144E-4,
        -0.008452784270048141,
        -0.015074401162564754,
        -7.413618732243776E-4,
        -0.03290645405650139,
        0.02648383565247059,
        -0.008422799408435822,
        0.0022915515583008528,
        -0.06626633554697037,
        -0.0028359629213809967,
        -0.008618513122200966,
        0.021517492830753326,
        6.085993220494856E-8,
        5.56157786490985E-8,
        -0.053676098585128784,
        -5.567398631001197E-8,
        5.54411556663581E-8,
        5.431249405773997E-8,
        -5.024796223551675E-8,
        0.013903395272791386,
        0.0010854520369321108,
        -4.4967065332457423E-4,
        7.805773202562705E-5,
        0.06011229380965233,
        0.03788776695728302,
        0.005991390440613031
      ],
      [
        1.7694791313260794E-4,
        -0.005251032765954733,
        -4.000239132437855E-4,
        -0.009758220985531807,
        -0.13072456419467926,
        0.07032839208841324,
        -0.018556630238890648,
        -0.02666599676012993,
        5.510440678335726E-4,
        -0.054930903017520905,
        -0.39199915528297424,
        0.40585857629776,
        0.014138860628008842,
        3.739898093044758E-4,
        -0.15958744287490845,
        0.28330621123313904,
        -0.15371941030025482,
        -0.12382609397172928,
        9.052978712134063E-4,
        0.09175803512334824,
        0.07685493677854538,
        0.05724037438631058,
        0.09018489718437195,
        -0.025244498625397682,
        -0.03254231438040733,
        -0.06655491888523102,
        0.0019175950437784195,
        4.1173328645527363E-4,
        0.008238112553954124,
        -0.09811947494745255,
        9.194729500450194E-4,
        -0.04615544155240059,
        0.02012774720788002,
        -0.11450229585170746,
        -0.043724436312913895,
        -0.0924597680568695,
        0.0215581264346838,
        0.26569241285324097,
        5.499326505287172E-8,
        -4.962133459684992E-8,
        0.014138871803879738,
        -4.8715001810251124E-8,
        -5.3835471192087425E-8,
        -5.656578849766447E-8,
        -0.0039774407632648945,
        -2.3878457432147115E-4,
        -5.49786927876994E-5,
        0.028158411383628845,
        0.03522060438990593,
        -6.440953584387898E-4,
        0.04188217222690582,
        3.7398096174001694E-4,
        -0.00227149180136621,
        0.18267621099948883,
        -0.2575052082538605,
        -0.21841450035572052,
        0.03794761002063751,
        0.00621108990162611,
        0.019775858148932457,
        0.026665575802326202,
        -1.3660437252838165E-4,
        -0.017840934917330742,
        -0.05271342769265175,
        0.020823664963245392,
        9.628196130506694E-4,
        8.234114648075774E-5,
        0.008238235488533974,
        -4.0786105091683567E-4,
        -0.008341658860445023,
        -0.027250947430729866,
        0.02012782171368599,
        -8.75605910550803E-4,
        -0.017839811742305756,
        -0.09966854006052017,
        0.08607249706983566,
        -6.142337838355161E-8,
        -5.667170910328423E-8,
        -5.686501935997512E-8,
        -5.605964048527312E-8,
        -6.086315096354156E-8,
        -6.196909652089744E-8,
        -4.9011532610165887E-8,
        -0.042399026453495026,
        -2.3884371330495924E-4,
        -5.500011320691556E-5,
        4.087742418050766E-4,
        0.001102855778299272,
        -6.440422730520368E-4,
        6.344181601889431E-4
      ],
      [
        -0.25589802861213684,
        -0.2020021229982376,
        0.016128290444612503,
        -0.031901050359010696,
        -0.25718191266059875,
        -0.23920470476150513,
        -0.09340217709541321,
        -0.1210288256406784,
        -0.1953359991312027,
        3.0527728085871786E-5,
        -0.2706497609615326,
        0.20101268589496613,
        -0.07229048758745193,
        0.01400794181972742,
        6.786574958823621E-4,
        -0.17867222428321838,
        0.33402353525161743,
        -0.4983430504798889,
        0.059291813522577286,
        -3.0344532569870353E-4,
        0.01257628109306097,
        -0.017462238669395447,
        0.0064482479356229305,
        -0.003081672126427293,
        0.08661618083715439,
        0.051665905863046646,
        -0.025978723540902138,
        4.5905279694125056E-4,
        -0.0032027645502239466,
        0.02551702968776226,
        -0.007372864056378603,
        0.0077293855138123035,
        -0.025094687938690186,
        -0.0014959588879719377,
        -0.02775893360376358,
        -0.012372313998639584,
        -1.5295126650016755E-4,
        0.21672971546649933,
        5.4370701718653436E-8,
        6.131515561946799E-8,
        -0.0014818412018939853,
        6.12487554008112E-8,
        5.663218871632125E-8,
        6.243976713449229E-8,
        0.013437540270388126,
        1.7404289974365383E-4,
        -0.007894172333180904,
        2.90680123725906E-4,
        0.05216075852513313,
        0.07423462718725204,
        0.061027709394693375,
        0.16102373600006104,
        0.05067310854792595,
        -0.06231265142560005,
        0.1779881715774536,
        0.0967220589518547,
        0.023132825270295143,
        -0.0633658766746521,
        0.012576197274029255,
        0.06805635243654251,
        0.00483684753999114,
        -0.011600960977375507,
        0.009482511319220066,
        -2.4938557180576026E-4,
        -0.034198664128780365,
        0.007727941032499075,
        -0.0032028325367718935,
        7.05028825905174E-4,
        -0.0016570825828239322,
        0.0011136443354189396,
        -0.015272053889930248,
        -0.00898949708789587,
        -0.05585385859012604,
        -0.007974395528435707,
        -1.5293822798412293E-4,
        4.972000056113757E-8,
        -5.493097887665499E-8,
        4.90028497779349E-8,
        4.992056545916057E-8,
        5.674041148040487E-8,
        6.154887444154156E-8,
        6.140155051070906E-8,
        0.01343755517154932,
        -0.021886667236685753,
        -0.00789414532482624,
        0.08734707534313202,
        0.07731787860393524,
        0.005399046465754509,
        0.02548946440219879
      ],
      [
        -3.8529615267179906E-4,
        -0.09567181766033173,
        -0.07565778493881226,
        9.539382881484926E-4,
        1.381960028083995E-4,
        -0.029806004837155342,
        0.07676023989915848,
        5.545461317524314E-4,
        -0.048341382294893265,
        -0.0013953803572803736,
        -0.6380225419998169,
        0.054986316710710526,
        0.4111190438270569,
        -1.817320880945772E-4,
        0.1012691780924797,
        0.02767978608608246,
        -0.09201113879680634,
        -0.018192654475569725,
        -0.015886588022112846,
        0.0018347749719396234,
        -0.032769910991191864,
        -0.006588745396584272,
        -0.012912415899336338,
        -0.0013638542732223868,
        -0.19350317120552063,
        -0.02644038014113903,
        -1.2288879952393472E-4,
        -0.03498414531350136,
        -0.009687565267086029,
        -0.014657245017588139,
        -0.010227369144558907,
        -0.055450960993766785,
        -0.0021647680550813675,
        -0.037458959966897964,
        -0.02364526130259037,
        -0.0828917995095253,
        5.358909256756306E-4,
        0.002316042548045516,
        6.07799037766199E-8,
        -5.401009417482783E-8,
        0.3686351776123047,
        -5.337572872576857E-8,
        -5.667170910328423E-8,
        -5.618013432240332E-8,
        0.012944923713803291,
        0.023279735818505287,
        -2.936924574896693E-4,
        -0.018160073086619377,
        -0.009206049144268036,
        0.014260231517255306,
        0.07367034256458282,
        -1.817550219129771E-4,
        0.001262689009308815,
        0.06062120571732521,
        -0.10109421610832214,
        4.2537017725408077E-4,
        -0.0017053602496162057,
        0.050730589777231216,
        -0.032766200602054596,
        0.011231732554733753,
        -0.005876882933080196,
        -0.004453363828361034,
        -0.04799005389213562,
        -0.05950035899877548,
        -0.04615361988544464,
        -0.033369217067956924,
        -5.429021548479795E-4,
        -5.698084132745862E-4,
        -0.025157151743769646,
        -0.04565548896789551,
        -0.004105331376194954,
        -0.03969119116663933,
        -0.01937786117196083,
        -0.009519129991531372,
        5.360008217394352E-4,
        -5.656578849766447E-8,
        5.187777674109384E-8,
        -5.272814007639681E-8,
        -5.816055903551387E-8,
        -0.1063884049654007,
        -5.656578849766447E-8,
        -5.338208808325362E-8,
        0.012944921851158142,
        0.023279840126633644,
        -2.9378256294876337E-4,
        -0.06562116742134094,
        -0.009206032380461693,
        2.5319820269942284E-4,
        0.07478059828281403
      ],
      [
        -0.008245506323873997,
        0.0010382648324593902,
        -0.051746271550655365,
        0.025560365989804268,
        -0.07648790627717972,
        0.026779409497976303,
        7.674222579225898E-4,
        0.00525568937882781,
        -0.1624877005815506,
        -0.08246137946844101,
        -0.17834104597568512,
        0.12467078864574432,
        -0.00800145324319601,
        0.27779650688171387,
        0.131539985537529,
        0.04575410857796669,
        0.28125080466270447,
        0.10279079526662827,
        -0.03308016061782837,
        0.005477833095937967,
        0.004778697155416012,
        -0.056450653821229935,
        -7.37218011636287E-4,
        1.410192926414311E-4,
        -0.0036795849446207285,
        -0.017080625519156456,
        -0.004517002962529659,
        -0.024343645200133324,
        -5.87703543715179E-4,
        4.0983123471960425E-4,
        0.0011898785596713424,
        -0.005366326309740543,
        -0.011400027200579643,
        0.0010102727683261037,
        0.02746475301682949,
        0.003486893605440855,
        2.6861616788664833E-6,
        0.20699533820152283,
        -6.199590529831767E-8,
        -6.101273442027377E-8,
        -0.008002526126801968,
        5.695956417639536E-8,
        -4.866729597097219E-8,
        5.3066969485371374E-8,
        0.024653980508446693,
        3.453024837654084E-4,
        0.017586583271622658,
        0.03204290196299553,
        0.03364529088139534,
        0.25431105494499207,
        0.08512069284915924,
        0.10687093436717987,
        0.2261226922273636,
        0.045753370970487595,
        0.5711506009101868,
        0.008603176102042198,
        -0.010333345271646976,
        0.02316468395292759,
        0.016540182754397392,
        0.02333933860063553,
        -6.899715517647564E-4,
        -0.0016191174509003758,
        -0.003679614746943116,
        -0.049245189875364304,
        -9.915251284837723E-4,
        -9.81322955340147E-4,
        -5.876262439414859E-4,
        -0.0032672982197254896,
        0.01616825722157955,
        -0.016998490318655968,
        -9.639056515879929E-4,
        3.707872238010168E-4,
        0.019130876287817955,
        0.0021150168031454086,
        2.7094447432318702E-6,
        5.6176055807100056E-8,
        5.674041148040487E-8,
        -6.023693543966147E-8,
        5.637886602016806E-8,
        5.566995753270021E-8,
        5.5022368883328454E-8,
        5.565215843716942E-8,
        0.00449922913685441,
        3.4539526677690446E-4,
        0.017586542293429375,
        0.0320429764688015,
        0.15864667296409607,
        0.08610156178474426,
        0.204164057970047
      ],
      [
        -0.040792316198349,
        -0.08355415612459183,
        0.0759621113538742,
        -0.004552826751023531,
        -0.010638543404638767,
        0.0011880570091307163,
        0.07414639741182327,
        0.07396876066923141,
        -3.7075529689900577E-4,
        -0.023063646629452705,
        -0.5716028213500977,
        0.002180457580834627,
        0.08042540401220322,
        -0.0011698309099301696,
        -0.2506891191005707,
        -0.05915331840515137,
        -0.035582285374403,
        -2.6807846734300256E-4,
        -0.0066899703815579414,
        0.12040512263774872,
        -0.13761644065380096,
        -6.039897562004626E-4,
        0.0014651408419013023,
        -9.020278812386096E-4,
        0.02037428505718708,
        0.0317806713283062,
        0.044355545192956924,
        0.09656184911727905,
        -0.055614981800317764,
        0.04718130826950073,
        -0.0010309937642887235,
        3.033882239833474E-4,
        -0.0010184738785028458,
        7.237456156872213E-4,
        -9.946719364961609E-5,
        0.06259369850158691,
        -0.04603135958313942,
        0.05494139716029167,
        -5.565215843716942E-8,
        -5.391871837900908E-8,
        0.13757775723934174,
        -4.91774727606753E-8,
        -6.131515561946799E-8,
        -5.052080354062127E-8,
        -0.009524764493107796,
        -0.01003141887485981,
        -0.013344001024961472,
        -0.059800662100315094,
        2.082525024889037E-4,
        -0.0010748890927061439,
        -0.09587869048118591,
        -0.0011697219451889396,
        -0.33734920620918274,
        -0.0019187835277989507,
        -0.013212146237492561,
        -0.06121044233441353,
        -0.06263541430234909,
        0.04223811253905296,
        -0.1520424336194992,
        -0.04592436924576759,
        0.017781516537070274,
        -8.603691821917892E-4,
        0.16881361603736877,
        0.13846546411514282,
        0.025431621819734573,
        0.012431974522769451,
        -0.1175064966082573,
        0.00164644920732826,
        -0.0011534346267580986,
        0.004562139045447111,
        -0.036241400986909866,
        6.163043435662985E-4,
        -7.947770791361108E-5,
        0.01700533553957939,
        -0.022577540948987007,
        5.188645957332483E-8,
        6.103777394628196E-8,
        -5.605964048527312E-8,
        4.872550363188566E-8,
        5.505147271378519E-8,
        5.6806811699061655E-8,
        -5.612192666148985E-8,
        -0.009525667876005173,
        -0.0019882656633853912,
        -0.002285701921209693,
        -0.001228531589731574,
        7.794133853167295E-4,
        -0.001074884901754558,
        -0.0875173956155777
      ],
      [
        0.07423523813486099,
        -0.0038970219902694225,
        -0.0441308319568634,
        -0.026890041306614876,
        4.38901741290465E-4,
        -0.30943477153778076,
        0.003776948433369398,
        -0.023950865492224693,
        0.27910158038139343,
        -0.001491102040745318,
        -0.06286024302244186,
        1.6623735427856445E-4,
        -0.11311326175928116,
        0.005704678129404783,
        -0.1821071356534958,
        0.03763018921017647,
        0.02579999342560768,
        0.04944784194231033,
        -2.6538869133219123E-4,
        -0.0064963074401021,
        -0.03789196535944939,
        0.02585981972515583,
        2.3862646776251495E-4,
        -0.10114946961402893,
        0.15364235639572144,
        5.674853455275297E-4,
        -0.04497195780277252,
        -0.06288609653711319,
        -0.07895499467849731,
        -3.7044144119136035E-4,
        -0.03788208216428757,
        -0.0020421380177140236,
        -0.07130511105060577,
        -0.0013651782646775246,
        -0.06422751396894455,
        -4.6738909441046417E-4,
        -8.314416627399623E-4,
        1.6619847156107426E-4,
        5.0331209422438405E-8,
        5.0156586439698E-8,
        -0.09142760187387466,
        -6.107185868131637E-8,
        5.002790004482449E-8,
        -5.8208350139921095E-8,
        0.0013858674792572856,
        0.04787901043891907,
        0.04228658229112625,
        0.016237493604421616,
        0.01823953539133072,
        0.03902633860707283,
        0.005068823229521513,
        0.0057046315632760525,
        -0.03281569480895996,
        4.450248961802572E-4,
        0.02579992637038231,
        -0.24624714255332947,
        0.018813839182257652,
        -0.08813703060150146,
        -0.24070486426353455,
        -0.04829707741737366,
        0.07251960784196854,
        -9.183626971207559E-4,
        0.18188026547431946,
        -6.809830665588379E-5,
        -0.0012721015373244882,
        -0.06466278433799744,
        -0.0017938391538336873,
        -0.0010859417961910367,
        -0.01259729452431202,
        -0.007369843777269125,
        -0.026694579049944878,
        -0.00748092494904995,
        -0.08971188217401505,
        -0.0208544060587883,
        -0.1709706038236618,
        4.923162322256758E-8,
        5.7217434346057416E-8,
        5.74743950210177E-8,
        -4.92211285063604E-8,
        -6.07799037766199E-8,
        5.5499370432698925E-8,
        5.549936332727157E-8,
        0.026774657890200615,
        0.015223328024148941,
        6.447057239711285E-4,
        0.02491717040538788,
        8.971657371148467E-4,
        2.3094008793123066E-4,
        0.0050688437186181545
      ],
      [
        -0.3394879996776581,
        -0.19116027653217316,
        0.694219172000885,
        0.049131061881780624,
        -0.12178458273410797,
        -0.05573024973273277,
        0.001236827694810927,
        0.0072108907625079155,
        0.0699164941906929,
        7.586106657981873E-4,
        -0.08443915098905563,
        0.10035337507724762,
        0.09119764715433121,
        0.009007594548165798,
        -0.2585492432117462,
        -0.011966198682785034,
        0.1876063495874405,
        -0.010876184329390526,
        -0.014761759899556637,
        7.789977244101465E-4,
        -4.914546734653413E-4,
        -0.0035237865522503853,
        -0.02062114328145981,
        0.02260102517902851,
        -0.07116478681564331,
        0.09773094207048416,
        0.036401793360710144,
        0.20601403713226318,
        0.0028717052191495895,
        0.014817500486969948,
        0.013025959953665733,
        0.016751935705542564,
        0.029769327491521835,
        0.023083483800292015,
        6.764777936041355E-4,
        0.07885392755270004,
        0.0018158096354454756,
        0.05262378230690956,
        4.979595757959032E-8,
        5.323429519421552E-8,
        0.09119763225317001,
        -5.3130619903640763E-8,
        5.6453430374858726E-8,
        -5.662805335759913E-8,
        -0.0014774930896237493,
        -0.06518056988716125,
        -4.0461643948219717E-4,
        0.021265916526317596,
        0.07135729491710663,
        0.11156207323074341,
        -0.004330578725785017,
        6.313180783763528E-4,
        -0.11696119606494904,
        -0.011966237798333168,
        0.11494242399930954,
        -0.07710079103708267,
        -0.01540859043598175,
        0.033366862684488297,
        -0.14712809026241302,
        0.1059785932302475,
        -0.0031258987728506327,
        0.0011293747229501605,
        -0.07180675864219666,
        0.1863473504781723,
        0.08068434149026871,
        0.002540525048971176,
        0.026808995753526688,
        0.0925503745675087,
        0.001057148794643581,
        0.0455838218331337,
        0.013359233736991882,
        0.001606295700185001,
        6.025776383467019E-4,
        7.680280250497162E-4,
        -0.048539698123931885,
        -5.424609383908319E-8,
        -5.415154902266295E-8,
        -5.516380952030886E-8,
        5.707191519377375E-8,
        -5.6088744315729855E-8,
        -5.629791388628291E-8,
        -0.011075463145971298,
        -0.001477594138123095,
        -9.128851816058159E-4,
        -4.045391397085041E-4,
        0.021265920251607895,
        0.01658789813518524,
        0.01000166218727827,
        -0.04688987135887146
      ]
    ],
    [
      [
        0.19375492632389069,
        0.5168629884719849,
        -5.8522626204648986E-5,
        -3.11402982333675E-4,
        0.11487662047147751,
        -0.08465000241994858,
        -0.4731557071208954,
        0.2629671096801758,
        -0.3997441232204437,
        4.4116261415183544E-4,
        0.8920239806175232,
        -2.817660861182958E-4,
        -0.014986745081841946,
        -2.850698947440833E-4,
        -0.011176089756190777,
        4.2063361615873873E-4,
        -0.6075925827026367,
        0.1903456151485443,
        9.112309198826551E-4,
        -0.04944281280040741
      ],
      [
        0.2990882396697998,
        -0.23786380887031555,
        5.952766878181137E-5,
        1.1829988956451416,
        1.0439453125,
        -0.5360985994338989,
        0.8869858384132385,
        -0.14635877311229706,
        -0.9654937386512756,
        0.8199372887611389,
        -0.5725241303443909,
        -0.5600493550300598,
        0.10465244948863983,
        -0.24413582682609558,
        -0.5016224384307861,
        -0.0017816475592553616,
        -0.8522713780403137,
        -0.050711456686258316,
        -0.43110284209251404,
        -0.301237016916275
      ],
      [
        0.133819118142128,
        0.19541002810001373,
        -0.12105689942836761,
        0.02227085642516613,
        0.15883316099643707,
        2.9451510272338055E-5,
        -0.4302733242511749,
        0.38937634229660034,
        -0.027436120435595512,
        -0.2899366319179535,
        -0.5583010315895081,
        -0.42081180214881897,
        -0.4220654368400574,
        0.2469804286956787,
        -0.11557634174823761,
        0.9135229587554932,
        -0.11239619553089142,
        4.337205900810659E-4,
        -0.1519584208726883,
        0.5026044845581055
      ],
      [
        0.2682090699672699,
        0.04525814950466156,
        -0.5013149380683899,
        0.25037071108818054,
        -0.37382766604423523,
        0.39644014835357666,
        0.901774525642395,
        -0.6119210720062256,
        0.059803251177072525,
        -0.13480187952518463,
        -2.9894317776779644E-5,
        0.5733126997947693,
        -0.4816960394382477,
        -1.3710386753082275,
        0.8317106366157532,
        -0.07777173817157745,
        0.213552325963974,
        -0.1285395622253418,
        -0.042889345437288284,
        -0.03252984583377838
      ],
      [
        -0.716354489326477,
        -0.0010621997062116861,
        -0.5698161125183105,
        -0.0014606588520109653,
        0.13518939912319183,
        -0.03887396305799484,
        -0.2566487789154053,
        0.48253852128982544,
        -0.02156458981335163,
        -0.20400677621364594,
        -0.2066434919834137,
        -0.20060928165912628,
        -0.24228429794311523,
        -0.056033067405223846,
        -1.0783680045278743E-4,
        0.5403740406036377,
        0.4250435531139374,
        0.39819905161857605,
        -1.4752142305951566E-4,
        0.45615077018737793
      ],
      [
        -0.1714603155851364,
        0.06367053091526031,
        0.030777929350733757,
        -0.4014105200767517,
        -0.014540550298988819,
        -0.5770754218101501,
        -0.19710585474967957,
        0.022549951449036598,
        0.27202507853507996,
        -0.12128765881061554,
        0.07323779165744781,
        0.08049829304218292,
        0.14973926544189453,
        0.07124301791191101,
        -0.019014280289411545,
        -0.29936569929122925,
        0.0637286975979805,
        -0.3222602903842926,
        0.37994930148124695,
        0.5016440749168396
      ],
      [
        -0.5512785911560059,
        -0.08050127327442169,
        -0.06801620125770569,
        -0.45037198066711426,
        0.013919651508331299,
        -0.31413331627845764,
        -0.3195866644382477,
        0.0038528854493051767,
        0.4346092939376831,
        -0.18586087226867676,
        -1.3645882427226752E-4,
        0.20728208124637604,
        -4.105638654436916E-4,
        0.0699080377817154,
        0.15641334652900696,
        -0.41725170612335205,
        0.03423989564180374,
        -0.3481544554233551,
        0.45626574754714966,
        0.44873949885368347
      ],
      [
        0.26261934638023376,
        -0.10764046013355255,
        0.002903475658968091,
        0.04366585984826088,
        -1.5541006326675415,
        0.38826754689216614,
        0.18779438734054565,
        -0.2050955891609192,
        0.04456111788749695,
        0.7961385250091553,
        0.046404480934143066,
        0.5037282109260559,
        0.24398362636566162,
        0.1426355540752411,
        -0.5089352130889893,
        -0.04047849029302597,
        -0.12270233780145645,
        -0.10488574206829071,
        0.6510920524597168,
        -0.0273152943700552
      ],
      [
        0.1401762068271637,
        -0.6408687829971313,
        0.026698226109147072,
        -0.10725843161344528,
        -1.0619562864303589,
        -0.5029388070106506,
        0.731307327747345,
        -5.21742389537394E-4,
        0.0020772465504705906,
        0.7831788659095764,
        0.031478822231292725,
        0.22823810577392578,
        0.38680240511894226,
        -0.0039266920648515224,
        0.6399368643760681,
        -0.0011953129433095455,
        -3.802370047196746E-4,
        0.18643507361412048,
        0.04465687647461891,
        -0.07902121543884277
      ],
      [
        -0.7848304510116577,
        -0.3055630922317505,
        0.04873095080256462,
        7.080556824803352E-4,
        0.13960595428943634,
        1.0519570112228394,
        -0.45109426975250244,
        -0.7582393288612366,
        0.06295529007911682,
        0.3982757329940796,
        0.0021300700027495623,
        -0.27660879492759705,
        -0.7848216891288757,
        0.14266037940979004,
        0.12512309849262238,
        0.03718174621462822,
        0.22453102469444275,
        0.12146659940481186,
        -0.6364718079566956,
        0.09662101417779922
      ],
      [
        -4.0471040847478434E-6,
        0.3701416552066803,
        0.6377990245819092,
        -2.835190680343658E-4,
        0.21015144884586334,
        0.277304470539093,
        -0.5266420245170593,
        0.030720429494976997,
        -0.0010051075369119644,
        -0.17813415825366974,
        -0.19757552444934845,
        -1.3598892837762833E-4,
        0.0035937803331762552,
        8.603404276072979E-4,
        -0.005276733078062534,
        0.019775202497839928,
        -0.37234213948249817,
        0.8953180909156799,
        2.9268983053043485E-4,
        -0.7386353015899658
      ]
    ]
  ],
  "biasByLayerAndNeuron": [
    [
      -0.019641999155282974,
      -0.02731720358133316,
      0.36219319701194763,
      -0.13972552120685577,
      0.14142033457756042,
      0.06707262247800827,
      -0.19425325095653534,
      0.3763557970523834,
      0.5463312268257141,
      -0.3883271813392639,
      -4.6988960821181536E-4,
      0.09617375582456589,
      0.004329365212470293,
      0.429094523191452,
      -0.06485827267169952,
      0.15435434877872467,
      0.49091365933418274,
      0.27893319725990295,
      0.19129323959350586,
      0.18968340754508972
    ],
    [
      0.2568209767341614,
      -0.2954321503639221,
      0.017071207985281944,
      -0.29365989565849304,
      -0.002732266206294298,
      0.07599225640296936,
      0.14453823864459991,
      -0.1576748937368393,
      -0.16566301882266998,
      0.6044572591781616,
      -0.18370723724365234
    ]
  ],
  "meansForInput": [
    0.11300753802061081,
    0.11481788754463196,
    0.26156342029571533,
    0.017216095700860023,
    0.14936470985412598,
    0.1195431649684906,
    0.01880311220884323,
    0.03599805384874344,
    0.2190362513065338,
    0.016116974875330925,
    0.19443351030349731,
    0.2778809070587158,
    0.28347861766815186,
    0.27507948875427246,
    0.23059864342212677,
    0.817359983921051,
    0.5795726180076599,
    0.560748279094696,
    0.3908997178077698,
    0.4018518626689911,
    0.26724690198898315,
    0.4440346658229828,
    0.38185879588127136,
    0.38169702887535095,
    0.21629786491394043,
    0.31067317724227905,
    0.25021058320999146,
    0.2624400556087494,
    0.13126282393932343,
    0.19901852309703827,
    0.1548585295677185,
    0.16053448617458344,
    0.08003281056880951,
    0.0988859236240387,
    0.07553727179765701,
    0.07288248836994171,
    0.03916919603943825,
    0.2778809070587158,
    0.0,
    0.0,
    0.28347861766815186,
    0.0,
    0.0,
    0.0,
    0.9865990281105042,
    0.07783453166484833,
    0.03152018040418625,
    0.1014685332775116,
    0.201782688498497,
    0.37487033009529114,
    0.6657465100288391,
    0.27507948875427246,
    0.23059864342212677,
    0.817359983921051,
    0.5795726180076599,
    0.5264231562614441,
    0.39554691314697266,
    0.41116711497306824,
    0.26724690198898315,
    0.43346402049064636,
    0.3830496370792389,
    0.38348203897476196,
    0.21629786491394043,
    0.3007870614528656,
    0.2515498697757721,
    0.26410847902297974,
    0.13126282393932343,
    0.19103991985321045,
    0.15606766939163208,
    0.16188183426856995,
    0.08003281056880951,
    0.09435547143220901,
    0.07630006968975067,
    0.0737205296754837,
    0.03916919603943825,
    0.0,
    0.0,
    0.0,
    0.0,
    0.0,
    0.0,
    0.0,
    0.9865990281105042,
    0.07783453166484833,
    0.03152018040418625,
    0.1014685332775116,
    0.201782688498497,
    0.37487033009529114,
    0.6657465100288391
  ],
  "stdForInput": [
    0.3165988028049469,
    0.31880468130111694,
    0.43950608372688293,
    0.13008269667625427,
    0.35644081234931946,
    0.324419766664505,
    0.13583505153656006,
    0.18628601729869843,
    0.41359418630599976,
    0.12592701613903046,
    0.39576455950737,
    0.44794949889183044,
    0.45068731904029846,
    0.19300323724746704,
    0.2839299440383911,
    0.24512726068496704,
    0.3110243082046509,
    0.3287510573863983,
    0.3025735020637512,
    0.3402869999408722,
    0.21639053523540497,
    0.2593691349029541,
    0.2800411880016327,
    0.3145047128200531,
    0.1992526650428772,
    0.28827646374702454,
    0.2626994252204895,
    0.3075717091560364,
    0.17540547251701355,
    0.2730117440223694,
    0.23076383769512177,
    0.26551881432533264,
    0.15039582550525665,
    0.22069640457630157,
    0.17797626554965973,
    0.19332347810268402,
    0.11349090933799744,
    0.44794949889183044,
    9.999999747378752E-6,
    9.999999747378752E-6,
    0.45068731904029846,
    9.999999747378752E-6,
    9.999999747378752E-6,
    9.999999747378752E-6,
    0.08654683083295822,
    0.09822063893079758,
    0.08954943716526031,
    0.17393386363983154,
    0.24773873388767242,
    0.31427937746047974,
    0.30610549449920654,
    0.19300323724746704,
    0.2839299440383911,
    0.24512726068496704,
    0.3110243082046509,
    0.30828800797462463,
    0.30165597796440125,
    0.3363538682460785,
    0.21639053523540497,
    0.2478286474943161,
    0.279936820268631,
    0.31419628858566284,
    0.1992526650428772,
    0.2740010619163513,
    0.263227641582489,
    0.3078160583972931,
    0.17540547251701355,
    0.25753551721572876,
    0.2318066656589508,
    0.2662098705768585,
    0.15039582550525665,
    0.20770294964313507,
    0.17915405333042145,
    0.19420164823532104,
    0.11349090933799744,
    9.999999747378752E-6,
    9.999999747378752E-6,
    9.999999747378752E-6,
    9.999999747378752E-6,
    9.999999747378752E-6,
    9.999999747378752E-6,
    9.999999747378752E-6,
    0.08654683083295822,
    0.09822063893079758,
    0.08954943716526031,
    0.17393386363983154,
    0.24773873388767242,
    0.31427937746047974,
    0.30610549449920654
  ]
}