{
  "layers": [
    "RELU",
    "SOFTMAX"
  ],
  "inputsByLayer": [
    100,
    30
  ],
  "outputsByLayer": [
    30,
    11
  ],
  "weightsByLayerNeuronAndInput": [
    [
      [
        -0.0040937792509794235,
        -0.20044554769992828,
        -0.006142846774309874,
        -0.16209910809993744,
        0.09203557670116425,
        -0.030231967568397522,
        -0.16734802722930908,
        0.03285639360547066,
        0.0015229484997689724,
        -0.08384985476732254,
        0.1351475566625595,
        -0.2507784962654114,
        0.08253182470798492,
        9.614959708414972E-4,
        0.1307184398174286,
        0.14207236468791962,
        -0.012702603824436665,
        -0.024498697370290756,
        -0.004515164997428656,
        0.09000973403453827,
        -0.0013293105876073241,
        -0.04917358607053757,
        -0.005282712168991566,
        0.002742669777944684,
        -0.18549056351184845,
        3.0662323524666135E-7,
        -2.8567413323798974E-7,
        -0.09670639783143997,
        -2.9860095196454495E-7,
        3.0430098263423133E-7,
        2.7833391413878417E-7,
        -0.20989638566970825,
        -0.06545112282037735,
        -0.002607156755402684,
        -0.01766207069158554,
        -0.055523838847875595,
        -0.001357430126518011,
        -0.006737163756042719,
        -0.14730258285999298,
        -0.029179565608501434,
        0.08055923134088516,
        0.07332659512758255,
        0.010305282659828663,
        0.004685124382376671,
        -0.00680476613342762,
        0.0053052594885230064,
        -0.052578989416360855,
        -0.004377003293484449,
        -0.07866326719522476,
        -2.980032149935141E-7,
        -0.004093756899237633,
        -0.10050696134567261,
        -0.006203041411936283,
        -0.16357490420341492,
        -0.004368832800537348,
        -0.0026285392232239246,
        3.145894152112305E-4,
        0.03285635635256767,
        -0.14292074739933014,
        0.06250649690628052,
        -0.038200728595256805,
        -0.300987184047699,
        0.004690227564424276,
        0.16633708775043488,
        -0.001441934029571712,
        0.06155002862215042,
        -0.03890962526202202,
        -0.048126738518476486,
        -0.09043686836957932,
        0.02138526365160942,
        -0.0707055926322937,
        -0.05442823842167854,
        -0.04691619053483009,
        0.012962810695171356,
        -3.0684347507303755E-7,
        -2.960398148843524E-7,
        2.7811242375719303E-7,
        3.052209649467841E-7,
        2.782279580060276E-7,
        3.0684347507303755E-7,
        2.97130554827163E-7,
        -0.18739579617977142,
        -0.08478054404258728,
        -0.002607174450531602,
        -0.01766204461455345,
        -0.06193047761917114,
        -0.0013574031181633472,
        -0.006737227085977793,
        -0.12105647474527359,
        -0.07016130536794662,
        0.014787090010941029,
        -3.0487700541925733E-7,
        -2.834645158600324E-7,
        -2.94288213353866E-7,
        -0.00154181441757828,
        -2.393772010691464E-4,
        0.0018231190042570233,
        -0.01821928471326828,
        -0.014270293526351452,
        -0.012870004400610924
      ],
      [
        -0.026185693219304085,
        0.14204777777194977,
        0.04289226233959198,
        -0.11813471466302872,
        -0.2359251230955124,
        -0.020279385149478912,
        0.479230672121048,
        0.044344283640384674,
        -0.07450469583272934,
        0.00176140945404768,
        -0.0014668172225356102,
        -0.029074648395180702,
        -0.07203681021928787,
        -0.010819047689437866,
        -0.002032427815720439,
        0.01735178753733635,
        -0.005217297933995724,
        -0.0035626718308776617,
        1.0925861715804785E-5,
        0.012921874411404133,
        -0.0016954707680270076,
        0.04056980833411217,
        -0.03187793865799904,
        0.011032848618924618,
        -0.7194662690162659,
        -3.016279777057207E-7,
        -2.7648991363093955E-7,
        0.05521651357412338,
        -2.867168689135724E-7,
        -3.0684347507303755E-7,
        2.9620906616401044E-7,
        2.580752334324643E-5,
        -0.07937649637460709,
        0.015595399774610996,
        -0.015625502914190292,
        -0.021603403612971306,
        -0.009473579004406929,
        -0.021693306043744087,
        0.011471696197986603,
        -0.16974963247776031,
        -1.240131095983088E-4,
        0.1354818344116211,
        0.10818680375814438,
        -0.0434022918343544,
        -0.21779143810272217,
        -0.07563511282205582,
        -0.9950432181358337,
        0.01294909231364727,
        -4.210252081975341E-4,
        3.0275242579591577E-7,
        -0.029294200241565704,
        0.15925104916095734,
        0.0359361469745636,
        -0.09207836538553238,
        -0.04651885852217674,
        -0.0011556585086509585,
        0.11302202939987183,
        0.0443442165851593,
        0.015674330294132233,
        0.013357527554035187,
        0.028047693893313408,
        -0.05922378972172737,
        -0.006837520282715559,
        -0.0071194651536643505,
        -0.03238162770867348,
        0.017351649701595306,
        0.0032087808940559626,
        -0.0011193645186722279,
        0.01904645562171936,
        0.012921896763145924,
        -0.0029335899744182825,
        -2.756305621005595E-4,
        -2.0126058370806277E-4,
        0.01103284489363432,
        -2.8242450866855506E-7,
        2.9440462867569295E-7,
        2.9272209189912246E-7,
        3.0652742566417146E-7,
        2.8485845859904657E-7,
        -3.039359057765978E-7,
        -3.0627475666733517E-7,
        2.5725566956680268E-5,
        -0.037744227796792984,
        0.015595451928675175,
        -0.023155028000473976,
        -0.0011140021961182356,
        -0.09256711602210999,
        -0.08778976649045944,
        0.007453513331711292,
        -0.16973091661930084,
        -1.2399820843711495E-4,
        -2.7705863203664194E-7,
        -2.8544130259433587E-7,
        2.812603554502857E-7,
        -0.22927004098892212,
        -0.0018569809617474675,
        -0.3211725354194641,
        0.006528952624648809,
        -0.07565227150917053,
        -0.010668083094060421
      ],
      [
        0.20776192843914032,
        0.008662073872983456,
        -0.11528545618057251,
        0.6934715509414673,
        -0.013072974048554897,
        0.008738894015550613,
        0.1091693565249443,
        0.10927532613277435,
        -0.1328638195991516,
        -0.24871425330638885,
        -0.3547022044658661,
        -0.16878175735473633,
        0.004274476319551468,
        -3.5587779711931944E-4,
        -0.005458031315356493,
        8.328970579896122E-6,
        -0.012999830767512321,
        4.5710205449722707E-4,
        -0.005228713154792786,
        -0.006288191303610802,
        -0.035236287862062454,
        0.0019308424089103937,
        0.07150626182556152,
        -0.02238907665014267,
        0.17825427651405334,
        2.957554841032106E-7,
        2.8275337626837427E-7,
        -0.12255429476499557,
        2.9290060865605483E-7,
        -2.9964436976115394E-7,
        2.8565031584548706E-7,
        -0.010521503165364265,
        -0.027036141604185104,
        0.001933557796292007,
        0.054195109754800797,
        0.062163807451725006,
        0.1990446001291275,
        0.14040151238441467,
        -1.7012754688039422E-4,
        -0.11331237107515335,
        0.008867449127137661,
        -0.2289201021194458,
        0.03551047667860985,
        -0.005999881774187088,
        -0.05948131904006004,
        0.016679920256137848,
        -4.970818408764899E-4,
        -0.0032576427329331636,
        -0.29294514656066895,
        2.99406252679546E-7,
        0.23532667756080627,
        0.040169719606637955,
        -0.11906986683607101,
        0.7972030639648438,
        -0.013264141976833344,
        0.012238379567861557,
        -0.07910407334566116,
        0.10403940826654434,
        0.2239711731672287,
        -0.07505444437265396,
        0.3651176989078522,
        -0.25752654671669006,
        0.06583940982818604,
        -0.0011914162896573544,
        0.07693424075841904,
        8.360635547433048E-6,
        0.0050226557068526745,
        -0.024782966822385788,
        -0.005067672114819288,
        -0.006288178265094757,
        0.02270413003861904,
        0.004948522429913282,
        0.03639562055468559,
        -0.022586824372410774,
        -3.0022115993233456E-7,
        2.8159354314993834E-7,
        2.7648991363093955E-7,
        -3.0684347507303755E-7,
        -3.0627475666733517E-7,
        -3.0684347507303755E-7,
        2.97254501901989E-7,
        -0.00675211101770401,
        -0.06941907852888107,
        0.00193357456009835,
        0.03420596942305565,
        0.1738670915365219,
        0.1688012331724167,
        0.1260199397802353,
        1.9403999613132328E-4,
        -0.2053241729736328,
        0.008867516182363033,
        2.8197717938382993E-7,
        -3.0627475666733517E-7,
        3.0684347507303755E-7,
        0.4990087151527405,
        0.22775161266326904,
        0.038778726011514664,
        -7.958948845043778E-4,
        0.002116645686328411,
        0.3798811435699463
      ],
      [
        -0.07068102806806564,
        -0.22535420954227448,
        -0.010343051515519619,
        0.037992145866155624,
        -0.39967554807662964,
        -0.006716825533658266,
        0.20241715013980865,
        -0.06063425540924072,
        0.09161907434463501,
        0.03542565554380417,
        -2.759327762760222E-4,
        -0.005394932348281145,
        0.08279076218605042,
        0.013725856319069862,
        0.03068404830992222,
        -0.009562306106090546,
        0.024911275133490562,
        0.0013437169836834073,
        -0.006834760308265686,
        -0.03283710405230522,
        0.025190047919750214,
        -0.0026460892986506224,
        -0.005733659490942955,
        -0.005933493375778198,
        0.004043275490403175,
        -3.0382398108486086E-7,
        -3.062800431052892E-7,
        1.1999831199645996,
        -2.7648991363093955E-7,
        2.840346269294969E-7,
        -2.8794170248147566E-7,
        -0.005719685927033424,
        0.0033052396029233932,
        -0.005992628633975983,
        -0.013553733006119728,
        -0.0067745596170425415,
        -0.004499903880059719,
        -0.006322003435343504,
        0.00299531570635736,
        0.38310059905052185,
        0.19014640152454376,
        -0.2549993693828583,
        -0.3369920551776886,
        0.042195748537778854,
        5.649678059853613E-4,
        0.5389387011528015,
        -0.6398811340332031,
        -0.023962970823049545,
        5.230801180005074E-4,
        2.7648991363093955E-7,
        -0.04804437607526779,
        -0.16686144471168518,
        -0.018959850072860718,
        0.014295513741672039,
        -3.561043704394251E-4,
        -9.539175080135465E-4,
        0.02967584691941738,
        -0.05876413732767105,
        -0.01926879771053791,
        0.019557438790798187,
        0.03717929497361183,
        -0.005394878331571817,
        -0.022935248911380768,
        0.003384601091966033,
        -0.026412002742290497,
        -0.015018013305962086,
        0.0028129250276833773,
        0.008193002082407475,
        0.020214883610606194,
        -0.027512818574905396,
        -0.04549861699342728,
        -0.014654438011348248,
        -0.0024103038012981415,
        -0.005933510139584541,
        -3.035830218323099E-7,
        2.813720527683472E-7,
        2.7811242375719303E-7,
        2.9154460889913025E-7,
        -2.8427214715520677E-7,
        -3.030249615676439E-7,
        2.7648991363093955E-7,
        -0.005719616077840328,
        0.003305332735180855,
        -0.005768572445958853,
        -0.013553692027926445,
        -0.006774554029107094,
        -0.004499937407672405,
        -0.07382659614086151,
        0.012995889410376549,
        0.47405022382736206,
        0.08867630362510681,
        3.061531685943919E-7,
        -3.0116231641841296E-7,
        -3.0381949045477086E-7,
        3.395902458578348E-4,
        0.4514128565788269,
        0.0069046420976519585,
        0.02788586914539337,
        3.461776068434119E-4,
        0.006972811184823513
      ],
      [
        -6.574756116606295E-4,
        -0.3558422327041626,
        -0.0069104949943721294,
        -8.285580552183092E-4,
        0.18641838431358337,
        -0.002180845243856311,
        -4.744564648717642E-5,
        -0.5766214728355408,
        0.003051287028938532,
        0.0066790394484996796,
        0.00732195470482111,
        0.11833624541759491,
        -0.008028372190892696,
        -0.0018188334070146084,
        -0.2375594973564148,
        -0.06188784912228584,
        0.023168690502643585,
        -0.0011498540407046676,
        0.0013325411127880216,
        0.0229147020727396,
        0.032891783863306046,
        -0.008570411242544651,
        -9.338415111415088E-6,
        0.06457339972257614,
        -0.30395665764808655,
        2.7811242375719303E-7,
        2.903202585002873E-7,
        -0.351945698261261,
        -2.888123447064572E-7,
        -2.9383983246589196E-7,
        3.0510560122820607E-7,
        0.5779987573623657,
        0.10840453952550888,
        -0.03353013098239899,
        3.99154145270586E-4,
        -0.027991171926259995,
        -0.05162918567657471,
        0.0035535513889044523,
        0.04846741259098053,
        -0.034965597093105316,
        0.003414704231545329,
        -0.044844768941402435,
        -0.029644805938005447,
        -0.0011394673492759466,
        0.08248135447502136,
        0.06015603244304657,
        0.13073021173477173,
        6.699873483739793E-4,
        0.06778209656476974,
        -2.934192195880314E-7,
        -6.574555882252753E-4,
        -0.4813249409198761,
        -0.015062207356095314,
        -8.285943767987192E-4,
        -0.0650658905506134,
        -0.12126395106315613,
        0.14883948862552643,
        -0.4663516879081726,
        0.006300121545791626,
        0.02782515250146389,
        -0.182828888297081,
        0.1183362752199173,
        -0.060768384486436844,
        -0.07156245410442352,
        -0.11350177973508835,
        -0.06877440959215164,
        -4.650878254324198E-4,
        -9.376874659210443E-4,
        0.024412423372268677,
        0.022914694622159004,
        2.5638588704168797E-4,
        -0.0011793177109211683,
        -6.454452523030341E-4,
        0.06457336246967316,
        2.8669188623098307E-7,
        -2.928812250502233E-7,
        -2.9940019885543734E-7,
        -2.7648991363093955E-7,
        3.0684347507303755E-7,
        -2.8183771405565494E-7,
        2.8649387218138145E-7,
        0.703754186630249,
        0.09096822887659073,
        -0.035924240946769714,
        3.9916858077049255E-4,
        -0.02799117937684059,
        -0.05162918567657471,
        0.0035535169299691916,
        0.0059577408246695995,
        -0.03496561199426651,
        0.003414709819480777,
        -2.91259254936449E-7,
        -2.828793981279887E-7,
        2.8899683002237E-7,
        0.026864878833293915,
        -0.0018878543050959706,
        -0.0010718011762946844,
        0.05618925765156746,
        -0.09949823468923569,
        -0.03282930329442024
      ],
      [
        0.0010974989272654057,
        -0.06839906424283981,
        -0.04134006425738335,
        0.08993294835090637,
        -1.8454017639160156,
        0.06045927479863167,
        -0.027890844270586967,
        -0.007180511951446533,
        0.05784895643591881,
        0.017522398382425308,
        0.082155242562294,
        0.004672844894230366,
        0.042547956109046936,
        0.00608874810859561,
        0.00858839601278305,
        0.0022737281396985054,
        0.06040455028414726,
        0.003716639243066311,
        0.013668163679540157,
        -0.013367963954806328,
        0.013056800700724125,
        0.0029283000621944666,
        -0.002375132404267788,
        -0.005729361902922392,
        -1.5482693910598755,
        -2.933922758074914E-7,
        -2.872935738196247E-7,
        0.24198158085346222,
        -2.7648991363093955E-7,
        -3.0684347507303755E-7,
        2.7648991363093955E-7,
        0.0537920705974102,
        0.010050017386674881,
        0.0017514530336484313,
        0.013939729891717434,
        0.0022095562890172005,
        -0.01773962751030922,
        -0.001519140088930726,
        0.16832378506660461,
        0.011231946758925915,
        7.118467474356294E-4,
        0.09827201813459396,
        -5.414452170953155E-4,
        0.0020721626933664083,
        3.218633064534515E-4,
        -0.10045876353979111,
        -0.07689780741930008,
        -0.0022577682975679636,
        2.8029654640704393E-4,
        -2.826465674843348E-7,
        0.0010973834432661533,
        -0.04138562083244324,
        -0.03091810643672943,
        0.055486589670181274,
        0.8319894075393677,
        0.03016871213912964,
        0.159934401512146,
        -0.053534287959337234,
        -0.06645982712507248,
        -0.02385776676237583,
        -0.06554752588272095,
        0.0019823818001896143,
        -0.025564685463905334,
        -0.0025044982321560383,
        -0.007891952060163021,
        0.0022737281396985054,
        -0.01394612155854702,
        4.7174780047498643E-4,
        -0.009132484905421734,
        -0.012709353119134903,
        -0.00234230887144804,
        -9.844638407230377E-5,
        0.0017960756085813046,
        -0.005729395430535078,
        -2.9544253266067244E-7,
        -2.853198850516492E-7,
        -3.0684347507303755E-7,
        -3.0684347507303755E-7,
        -2.9292033332239953E-7,
        2.9312406013559666E-7,
        2.8543092867039377E-7,
        0.01274308655411005,
        0.010049961507320404,
        0.0017514260252937675,
        0.04191446304321289,
        0.002209500875324011,
        -0.01773955672979355,
        -0.0015192597638815641,
        -0.1396799236536026,
        0.011231939308345318,
        7.118877256289124E-4,
        -2.7648991363093955E-7,
        2.7648991363093955E-7,
        2.9455875960593403E-7,
        -0.4047510623931885,
        -0.23863747715950012,
        -0.18170547485351562,
        -0.0041291918605566025,
        -0.27558398246765137,
        -0.0943976640701294
      ],
      [
        -0.0046060336753726006,
        0.01291866134852171,
        -0.09981467574834824,
        0.08539097756147385,
        -2.221513509750366,
        0.08617372810840607,
        0.18089716136455536,
        -0.14685188233852386,
        -0.15567685663700104,
        -0.08785019814968109,
        -0.1983465850353241,
        0.007799264509230852,
        -0.0905051976442337,
        0.022689038887619972,
        -0.06139892712235451,
        0.04185358062386513,
        -0.049132339656353,
        0.0128988828510046,
        -0.046114105731248856,
        0.005593133624643087,
        -5.013113841414452E-4,
        0.02266683615744114,
        -0.03189332038164139,
        -5.165620241314173E-4,
        0.9219322204589844,
        -2.887772438953107E-7,
        -3.0684347507303755E-7,
        -0.009835350327193737,
        3.0023076647012203E-7,
        -2.902038431784604E-7,
        -2.9312406013559666E-7,
        0.029492177069187164,
        -0.026105215772986412,
        -0.05117444694042206,
        -0.04120580106973648,
        -0.005207838024944067,
        -0.0011636923300102353,
        -0.002472290303558111,
        0.002120566787198186,
        -0.009010703302919865,
        0.008287493139505386,
        -0.08114496618509293,
        -0.06159451976418495,
        -0.018642103299498558,
        -0.12391412258148193,
        0.005068245809525251,
        0.02164197713136673,
        0.02192726358771324,
        -0.004128346219658852,
        -3.004532231898338E-7,
        -0.004605990834534168,
        0.012918631546199322,
        -0.0457703173160553,
        0.02107858471572399,
        0.46744129061698914,
        -0.008610060438513756,
        0.057337142527103424,
        -0.10811168700456619,
        0.14244771003723145,
        0.046291906386613846,
        0.176567941904068,
        0.007959390059113503,
        0.08600620925426483,
        0.028147289529442787,
        0.0306071937084198,
        0.013929840177297592,
        0.05463751405477524,
        0.01789339818060398,
        0.004013886209577322,
        0.005593155976384878,
        0.009799109771847725,
        0.01754029467701912,
        -0.006243608426302671,
        -5.165135953575373E-4,
        -3.019613359356299E-7,
        -3.0684347507303755E-7,
        -3.005509086051461E-7,
        -2.9981899274389434E-7,
        3.0684347507303755E-7,
        -2.7648991363093955E-7,
        2.782235526410659E-7,
        0.05399573594331741,
        -0.026104403659701347,
        -0.05117477476596832,
        -0.04120580106973648,
        -0.005207885522395372,
        -0.0011637109564617276,
        -0.0024723908863961697,
        -9.828520705923438E-4,
        -0.0037570868153125048,
        0.0029087078291922808,
        -2.960398148843524E-7,
        -2.7849077355313057E-7,
        -2.966165197904047E-7,
        -0.033105503767728806,
        -0.006119112949818373,
        -0.06214143708348274,
        -0.03102126158773899,
        -0.11932831257581711,
        -0.10143911838531494
      ],
      [
        -0.16030709445476532,
        -0.19448773562908173,
        0.005565301049500704,
        0.0017894908087328076,
        0.04331015795469284,
        -0.030539443716406822,
        -4.2901665437966585E-4,
        -0.02530577778816223,
        -0.47049403190612793,
        -0.3727165460586548,
        -0.32962867617607117,
        0.07335000485181808,
        -0.007134637795388699,
        -0.11115135252475739,
        0.09553933888673782,
        -0.06891657412052155,
        -0.021553726866841316,
        0.03659489378333092,
        0.033413585275411606,
        -0.03405805304646492,
        -0.05155272036790848,
        -6.164757069200277E-4,
        0.04394681379199028,
        -0.03583746775984764,
        0.0024594957940280437,
        -2.854465890322899E-7,
        -3.0034286169211555E-7,
        -0.32923877239227295,
        2.7985865358459705E-7,
        2.7833391413878417E-7,
        -2.826465674843348E-7,
        -0.09183350205421448,
        -0.11311396956443787,
        0.005704243201762438,
        -0.0018537018913775682,
        -0.011559203267097473,
        -0.08161687850952148,
        -0.2081247717142105,
        -0.03991427645087242,
        -0.023525452241301537,
        -0.005438791122287512,
        -0.048347365111112595,
        0.010861731134355068,
        0.007890913635492325,
        -0.05722511187195778,
        -0.0011609913781285286,
        0.022677475586533546,
        -0.028981098905205727,
        0.05800287052989006,
        -2.822874876073911E-7,
        -0.20010989904403687,
        -0.11863752454519272,
        0.005565319675952196,
        0.0017894903430715203,
        0.021009942516684532,
        -0.018218128010630608,
        0.03431501239538193,
        -0.024558082222938538,
        0.31453898549079895,
        0.28381407260894775,
        0.3353824317455292,
        0.08395618945360184,
        0.02596423216164112,
        0.10249548405408859,
        0.05364057421684265,
        -0.06891655921936035,
        -0.03058951534330845,
        -0.0010629651369526982,
        0.0018245793180540204,
        -0.03405808284878731,
        -0.00778559222817421,
        0.013112707994878292,
        0.022579247131943703,
        -0.035842735320329666,
        3.0382398108486086E-7,
        2.7648991363093955E-7,
        2.822292799464776E-7,
        -2.966165197904047E-7,
        -2.9078591978759505E-7,
        -2.853198850516492E-7,
        3.0684347507303755E-7,
        -0.09055691957473755,
        -0.018549824133515358,
        0.00570423761382699,
        -0.016053032130002975,
        -0.06167628988623619,
        -0.1716645359992981,
        -0.18279026448726654,
        0.0026198893319815397,
        -0.01899072341620922,
        -0.005438752938061953,
        2.8776895533155766E-7,
        3.0684347507303755E-7,
        2.7648991363093955E-7,
        -0.24501843750476837,
        0.014144742861390114,
        0.0312009546905756,
        -0.003988037351518869,
        -9.042990859597921E-4,
        0.09555905312299728
      ],
      [
        -0.0021323496475815773,
        0.8913998007774353,
        -0.02608577348291874,
        0.0014312309212982655,
        -0.07604703307151794,
        0.01111813448369503,
        -0.006260761059820652,
        -0.051012665033340454,
        0.06593358516693115,
        0.0363752543926239,
        -0.00955198798328638,
        -0.004501773975789547,
        0.001112400321289897,
        0.0022057034075260162,
        -0.0042336792685091496,
        -0.002090116962790489,
        0.012825792655348778,
        -0.0018696526531130075,
        -0.002262831898406148,
        -0.0016257782699540257,
        -0.008160784840583801,
        -0.0029581061098724604,
        -0.018609272316098213,
        0.001974855549633503,
        -0.5729334354400635,
        -3.0684347507303755E-7,
        2.79035589301202E-7,
        2.112492084503174,
        2.978867996716872E-7,
        -2.845039261956117E-7,
        -2.8997649792472657E-7,
        0.008872722275555134,
        0.007973827421665192,
        -0.0038529487792402506,
        -0.010984968394041061,
        3.977036685682833E-4,
        -0.004194312728941441,
        0.0013907239772379398,
        -0.19651438295841217,
        -0.32986801862716675,
        -0.014390856958925724,
        0.0286837387830019,
        -0.06068163365125656,
        0.04983379691839218,
        -0.001723012886941433,
        0.11538763344287872,
        -0.0175685565918684,
        0.0024108849465847015,
        0.07191159576177597,
        -3.0684347507303755E-7,
        -0.0021323775872588158,
        0.9788928627967834,
        -0.026084402576088905,
        0.0014312039129436016,
        0.05552833527326584,
        0.0130023043602705,
        -0.012629812583327293,
        -0.009006956592202187,
        -0.04481692984700203,
        -0.01809549517929554,
        -2.1180493058636785E-4,
        -0.004501772113144398,
        -0.007586518302559853,
        0.004894558805972338,
        8.43365618493408E-4,
        -0.002090184949338436,
        -0.004217174835503101,
        -0.004866614472121,
        0.0038833213038742542,
        -0.0016257205279543996,
        0.005092397332191467,
        -0.007554788142442703,
        0.02547009103000164,
        0.0019749244675040245,
        -3.034800215573341E-7,
        -3.0092925840108364E-7,
        -2.782279580060276E-7,
        -2.8578978117366205E-7,
        2.7648991363093955E-7,
        3.0684347507303755E-7,
        -2.9433658710331656E-7,
        0.00897997710853815,
        0.005716739688068628,
        -0.0038529823068529367,
        -0.010984975844621658,
        3.97606345359236E-4,
        -0.004194349981844425,
        0.01395293977111578,
        -0.09873110055923462,
        -0.3612324595451355,
        -0.0587579607963562,
        -2.938360523785377E-7,
        -3.0592551070185436E-7,
        -2.9974944482091814E-7,
        -0.09388827532529831,
        0.11006061732769012,
        -0.0036037859972566366,
        0.011435423046350479,
        -5.695233994629234E-5,
        -0.046329956501722336
      ],
      [
        0.003500554943457246,
        -0.07538527250289917,
        -0.004196339286863804,
        0.07647722214460373,
        -0.11392120271921158,
        0.05549834668636322,
        -0.004458840936422348,
        -0.039832547307014465,
        0.0030622577760368586,
        -0.0033607599325478077,
        -0.0414675734937191,
        0.01955757662653923,
        0.008258375339210033,
        0.0015608532121405005,
        -4.3337102397345006E-4,
        0.025332637131214142,
        0.0362711176276207,
        -8.946384186856449E-4,
        0.004002010449767113,
        0.00460329232737422,
        -9.836632525548339E-4,
        -0.0293477401137352,
        0.005003604106605053,
        0.0061647542752325535,
        -0.1119408831000328,
        2.845039261956117E-7,
        -3.0242699722293764E-7,
        -0.5975258350372314,
        -2.7648991363093955E-7,
        3.0684347507303755E-7,
        2.7648991363093955E-7,
        -0.006972468923777342,
        0.018636269494891167,
        -0.00493291299790144,
        -0.005384146701544523,
        0.023120148107409477,
        0.013361621648073196,
        0.10731643438339233,
        0.5759162306785583,
        -0.6143925189971924,
        -0.047706544399261475,
        -0.5533027052879333,
        -0.026462281122803688,
        0.06530573964118958,
        0.08976488560438156,
        0.00294309388846159,
        1.2397743463516235,
        9.213261073455215E-4,
        -0.1363246589899063,
        3.0034286169211555E-7,
        0.003500561462715268,
        -0.023894675076007843,
        -0.004196298308670521,
        0.09866129606962204,
        0.062583327293396,
        0.005079847294837236,
        -0.3088478147983551,
        -0.05002976953983307,
        -0.039251990616321564,
        0.007445371709764004,
        -0.00762219587340951,
        0.05598229914903641,
        -0.004034221637994051,
        3.668398130685091E-5,
        -0.020784780383110046,
        0.024830736219882965,
        -0.044877078384160995,
        -0.01511003915220499,
        -0.008983728475868702,
        0.0046033407561481,
        -0.0017501369584351778,
        0.0015426533063873649,
        0.0020696797873824835,
        0.006164677906781435,
        2.7648991363093955E-7,
        -2.839175294866436E-7,
        -2.9847615223843604E-7,
        -3.0684347507303755E-7,
        3.006868212196423E-7,
        2.7648991363093955E-7,
        -2.7648991363093955E-7,
        -0.006972495000809431,
        0.005866007413715124,
        -0.004932926036417484,
        -0.0053841895423829556,
        0.011193846352398396,
        0.013361826539039612,
        0.10701783001422882,
        0.014829576946794987,
        -0.6115984320640564,
        -0.043790727853775024,
        2.7648991363093955E-7,
        -3.0242699722293764E-7,
        2.914942456300196E-7,
        -0.08670343458652496,
        0.19709312915802002,
        -0.016666004434227943,
        0.016961241140961647,
        -0.006316551007330418,
        0.0616811104118824
      ],
      [
        -0.00588679825887084,
        -0.08821207284927368,
        0.4579268991947174,
        -0.2017689198255539,
        0.15263132750988007,
        -0.0026744590140879154,
        0.11380753666162491,
        0.02551395073533058,
        0.04497655853629112,
        -0.015702709555625916,
        0.16555280983448029,
        -0.19310040771961212,
        9.045666083693504E-4,
        5.934061482548714E-4,
        0.0099314134567976,
        -0.058241281658411026,
        0.059794843196868896,
        -0.052709389477968216,
        -0.0681915357708931,
        -0.04739895090460777,
        -0.015493827871978283,
        -0.0020672085229307413,
        -0.0016649739118292928,
        -0.008736333809792995,
        -0.08283346146345139,
        2.7670938607116113E-7,
        2.7648991363093955E-7,
        0.20993925631046295,
        -2.7648991363093955E-7,
        -3.0684347507303755E-7,
        2.9614102459163405E-7,
        0.2612486481666565,
        0.024645796045660973,
        -0.0039750137366354465,
        -0.01682618074119091,
        -0.022778602316975594,
        -0.01826307736337185,
        -0.001781380153261125,
        -0.03025059401988983,
        0.06798870116472244,
        -0.03308863565325737,
        -0.027534613385796547,
        0.03303274139761925,
        -0.007593071088194847,
        -0.019257592037320137,
        -3.011211520060897E-4,
        -0.00931485090404749,
        3.311416367068887E-4,
        -0.027170663699507713,
        -2.857085235064005E-7,
        -0.005886783357709646,
        -0.09731125831604004,
        0.4742310345172882,
        -0.27204301953315735,
        0.04090947285294533,
        0.08174659311771393,
        0.04298609867691994,
        0.02551392838358879,
        -0.03568006679415703,
        -0.018679745495319366,
        -0.12152507156133652,
        -0.20393668115139008,
        -0.018746038898825645,
        0.0023816325701773167,
        -0.002711088862270117,
        -0.05824126675724983,
        -0.06793423742055893,
        -0.001748166512697935,
        -0.01758548617362976,
        -0.04785003140568733,
        -0.008865849114954472,
        -0.010287611745297909,
        -0.033268317580223083,
        -0.00873634498566389,
        2.7648991363093955E-7,
        2.7823733717013965E-7,
        -2.784563832847198E-7,
        2.971883077407256E-7,
        2.8193352363814483E-7,
        -2.946956669802603E-7,
        2.8242450866855506E-7,
        0.2432444840669632,
        0.018078790977597237,
        -0.00397498020902276,
        -0.016826095059514046,
        -0.029456045478582382,
        -0.01826300658285618,
        -0.0017812926089391112,
        0.0015870846109464765,
        0.08625995367765427,
        -0.04518080875277519,
        -3.0684347507303755E-7,
        2.85330173710463E-7,
        -3.0045399057598843E-7,
        -0.1856691837310791,
        -0.021901749074459076,
        0.008747234009206295,
        0.0019189256709069014,
        -0.02231701835989952,
        -0.030084190890192986
      ],
      [
        -0.06824354082345963,
        -0.09865470230579376,
        0.014471233822405338,
        -0.3588784635066986,
        -0.36483144760131836,
        0.009165233932435513,
        -0.17997071146965027,
        -0.013281155377626419,
        0.1122983768582344,
        0.19188690185546875,
        0.04905063658952713,
        -0.17274825274944305,
        -0.00392594188451767,
        0.012780364602804184,
        0.1023392453789711,
        -0.00422798004001379,
        0.0034613898023962975,
        5.327897379174829E-4,
        0.04209831357002258,
        0.0012516117421910167,
        -0.009375831112265587,
        0.010051212273538113,
        0.03505796939134598,
        0.004626813344657421,
        0.3799597918987274,
        2.7648991363093955E-7,
        3.0684347507303755E-7,
        -0.004025342874228954,
        2.8474281066337426E-7,
        3.0684347507303755E-7,
        -2.9729127959399193E-7,
        0.10779938101768494,
        -0.05582886561751366,
        -0.008815205655992031,
        -0.030341483652591705,
        -0.003049233229830861,
        -0.08515378832817078,
        -0.07183431833982468,
        -7.503376109525561E-4,
        0.6037821173667908,
        0.009371262043714523,
        -1.0277684926986694,
        -0.03812740743160248,
        0.01734566129744053,
        -2.77198851108551E-4,
        -0.1779765635728836,
        0.7910796403884888,
        0.005926232319325209,
        -0.05576515942811966,
        -2.872935738196247E-7,
        -0.06824355572462082,
        -0.09790508449077606,
        0.014471312053501606,
        -0.34614089131355286,
        0.09181251376867294,
        -0.0017734697321429849,
        -0.15380902588367462,
        -0.006978003308176994,
        0.014857906848192215,
        -0.1588684320449829,
        0.03194043040275574,
        -0.06505899876356125,
        -0.013566773384809494,
        -6.701683741994202E-4,
        -0.11078676581382751,
        -0.004227916710078716,
        -0.01564600132405758,
        0.04156603291630745,
        -0.013296316377818584,
        0.0012516247807070613,
        -0.026159770786762238,
        0.0017224194016307592,
        -0.033119749277830124,
        0.004626954905688763,
        3.013951470620668E-7,
        2.7648991363093955E-7,
        2.7648991363093955E-7,
        2.998761488015589E-7,
        2.8265733931220893E-7,
        -3.0034718179194897E-7,
        3.022576606781513E-7,
        0.10415489226579666,
        -0.05582882836461067,
        -0.008815149776637554,
        -0.0303446464240551,
        -0.003049255581572652,
        -0.08625049144029617,
        -0.0717749148607254,
        -0.021822309121489525,
        0.7624321579933167,
        0.009371254593133926,
        -2.875787572520494E-7,
        2.7648991363093955E-7,
        -2.856794196759438E-7,
        0.007485382258892059,
        -4.147710860706866E-4,
        -0.16785749793052673,
        0.06938855350017548,
        -0.08281895518302917,
        0.013315058313310146
      ],
      [
        -0.016553647816181183,
        -0.012900318019092083,
        0.026444345712661743,
        0.03261498734354973,
        -0.002112576737999916,
        0.008808856830000877,
        0.12399529665708542,
        -0.03276574984192848,
        0.2737863063812256,
        0.33700233697891235,
        0.0664486214518547,
        -0.1648225337266922,
        0.10500462353229523,
        0.02903924137353897,
        0.06259076297283173,
        -0.0801771879196167,
        0.015875356271862984,
        -0.007543768733739853,
        0.002170854713767767,
        -0.009145430289208889,
        0.02729044482111931,
        -0.0019436337752267718,
        -3.9613590342924E-4,
        -0.010791892185807228,
        0.6109664440155029,
        2.9278029956003593E-7,
        3.005509086051461E-7,
        0.06243794783949852,
        -3.0139986506583227E-7,
        -2.8120214778937225E-7,
        -3.062800431052892E-7,
        -0.1459953486919403,
        -0.025227878242731094,
        0.0026591881178319454,
        -0.03082370012998581,
        -0.017871882766485214,
        -0.022479504346847534,
        -0.004390120040625334,
        -0.09071152657270432,
        0.9338516592979431,
        -0.054708462208509445,
        -0.2598317861557007,
        0.10399986058473587,
        -2.6667301426641643E-4,
        0.0035862682852894068,
        -0.06952130794525146,
        0.1934836357831955,
        -0.01833932474255562,
        0.0011905231513082981,
        -2.8946448082933784E-7,
        -0.01655369997024536,
        -0.02923426404595375,
        0.0761168822646141,
        0.18231453001499176,
        0.03683629259467125,
        -0.004278593696653843,
        0.1479274332523346,
        -0.03280124068260193,
        -0.011195320636034012,
        -0.226064532995224,
        0.005555286537855864,
        -0.06633758544921875,
        7.14547059033066E-4,
        -0.03836282715201378,
        -0.003338230773806572,
        -0.06183546781539917,
        0.013580312952399254,
        -0.026955291628837585,
        -0.0094638392329216,
        -0.009145458228886127,
        -0.03432730957865715,
        -0.004524943884462118,
        -0.013949623331427574,
        -0.010791812092065811,
        -2.960398148843524E-7,
        3.0684347507303755E-7,
        -2.797467288928601E-7,
        2.875264044632786E-7,
        2.8066222057532286E-7,
        2.770712228539196E-7,
        -2.9754360753031506E-7,
        -0.1789536327123642,
        -0.025227919220924377,
        0.00265918904915452,
        -0.022670423611998558,
        -0.017871908843517303,
        -0.022479526698589325,
        -0.004390112590044737,
        -0.0886191576719284,
        1.0390574932098389,
        -0.0036814340855926275,
        -2.7648991363093955E-7,
        2.7648991363093955E-7,
        2.9021916247984336E-7,
        4.2612478137016296E-4,
        0.0029268015641719103,
        0.0040657659992575645,
        -0.002865231828764081,
        -6.878301501274109E-4,
        -0.0010876214364543557
      ],
      [
        0.002067118650302291,
        0.09178048372268677,
        0.013818478211760521,
        -0.06250187009572983,
        -0.022241486236453056,
        0.0032154505606740713,
        -2.743020304478705E-4,
        0.004370367620140314,
        -0.08827879279851913,
        0.0014474531635642052,
        0.03996625170111656,
        0.02357606403529644,
        -0.08402297645807266,
        -0.0062598129734396935,
        -0.02320307120680809,
        0.014276005327701569,
        -1.2497970601543784E-4,
        -0.01570143550634384,
        -0.04042643681168556,
        0.018091745674610138,
        -0.0026205384638160467,
        0.003623532596975565,
        -0.034574273973703384,
        0.008573873899877071,
        0.0017408588901162148,
        -3.064983218337147E-7,
        2.856733658518351E-7,
        0.1471078246831894,
        3.032577922112978E-7,
        -2.8427214715520677E-7,
        2.7648991363093955E-7,
        -0.023363107815384865,
        -0.024903109297156334,
        0.00940745323896408,
        0.00490004476159811,
        4.82450908748433E-4,
        0.013826373964548111,
        -0.07667293399572372,
        -0.007703090086579323,
        -0.1565622091293335,
        0.13572841882705688,
        -0.18899881839752197,
        -0.17006969451904297,
        -0.00852889008820057,
        -0.25111302733421326,
        0.18748518824577332,
        -0.1812446415424347,
        -4.702807927969843E-4,
        -0.6909332275390625,
        2.959740470487304E-7,
        0.0020671396050602198,
        0.2056349515914917,
        0.03450075164437294,
        -0.020110365003347397,
        -0.10693509876728058,
        -0.04301798343658447,
        -0.03008207492530346,
        0.0043703303672373295,
        0.3781222105026245,
        0.0845947116613388,
        -0.03416729345917702,
        0.1180592030286789,
        0.14050114154815674,
        0.0015634301817044616,
        -0.0010272464714944363,
        0.01803477481007576,
        0.07282280921936035,
        -0.007832478731870651,
        3.2265661866404116E-4,
        0.018091730773448944,
        0.018390340730547905,
        -0.0031088250689208508,
        -0.0038490723818540573,
        0.008573857136070728,
        2.910828698077239E-7,
        2.953389355297986E-7,
        2.928912294919428E-7,
        2.811278818626306E-7,
        2.953316027287656E-7,
        -2.8904952387165395E-7,
        3.011999183399894E-7,
        -0.023363100364804268,
        -0.027323508635163307,
        0.009407371282577515,
        0.004900104366242886,
        4.824341449420899E-4,
        0.013826370239257812,
        -0.02545824833214283,
        0.18195806443691254,
        -0.16031207144260406,
        0.09247391670942307,
        2.7648991363093955E-7,
        -2.7648991363093955E-7,
        -2.7648991363093955E-7,
        1.2207916975021362,
        0.15285809338092804,
        -0.008609657175838947,
        0.012392854318022728,
        0.17820744216442108,
        -0.0015300109516829252
      ],
      [
        -0.03677486255764961,
        -0.08515734225511551,
        0.13299992680549622,
        -0.07354564219713211,
        3.174123525619507,
        -0.017545975744724274,
        0.042031291872262955,
        0.007025085389614105,
        -0.0035315121058374643,
        0.02645275555551052,
        0.01720484159886837,
        -0.01053785439580679,
        -0.002011209959164262,
        -0.004914845339953899,
        0.0048182448372244835,
        -4.158891679253429E-4,
        -0.003780130762606859,
        -0.015930013731122017,
        -0.0303853340446949,
        -0.001743648899719119,
        -0.020536063238978386,
        0.0029132990166544914,
        -0.005455446429550648,
        0.0015027753543108702,
        -0.4709344506263733,
        -2.790324060697458E-7,
        -3.03712852200988E-7,
        0.06306630373001099,
        2.960574931876181E-7,
        -3.0684347507303755E-7,
        2.863718577827967E-7,
        0.057545728981494904,
        -0.021303994581103325,
        -8.483279380016029E-4,
        -0.00819358043372631,
        -0.02637285180389881,
        -0.004813359584659338,
        -0.002553301863372326,
        -0.0034029539674520493,
        0.08015994727611542,
        0.010962222702801228,
        -0.009065154008567333,
        -0.015044637955725193,
        -0.017938312143087387,
        -0.3323374092578888,
        -0.0036638209130614996,
        -0.024414772167801857,
        -0.001959806540980935,
        -0.04515468701720238,
        2.9393461886684236E-7,
        -0.07375390082597733,
        -0.03513089567422867,
        0.20887325704097748,
        -0.11262718588113785,
        -0.017711680382490158,
        -0.0029665776528418064,
        0.006138944067060947,
        0.007025010883808136,
        0.02361016906797886,
        0.004354365170001984,
        0.02205025404691696,
        -0.039905957877635956,
        0.004636405501514673,
        -1.3042970385868102E-4,
        7.385955541394651E-4,
        -4.1564981802366674E-4,
        0.006559379864484072,
        0.001162532833404839,
        -0.002500720787793398,
        -0.001743648899719119,
        0.00998666975647211,
        -0.0011213038815185428,
        -0.014418738894164562,
        0.0015027809422463179,
        -3.0684347507303755E-7,
        -2.7648991363093955E-7,
        3.021941665792838E-7,
        -3.0684347507303755E-7,
        -2.804407301937317E-7,
        2.7952717118751025E-7,
        2.835008956481033E-7,
        0.02930677868425846,
        -0.009018444456160069,
        -8.483558776788414E-4,
        -0.02455640211701393,
        -0.005933722946792841,
        -0.028571007773280144,
        -0.0034861830063164234,
        -0.009601606987416744,
        0.055158622562885284,
        0.008647819049656391,
        2.9359509312598675E-7,
        2.819480755533732E-7,
        2.9906124154877034E-7,
        0.03382747620344162,
        -0.06267555803060532,
        -0.016460351645946503,
        -0.018983827903866768,
        0.011998593807220459,
        9.397961548529565E-4
      ],
      [
        0.06726179271936417,
        -0.30381128191947937,
        -0.025637468323111534,
        0.3890638053417206,
        0.25788915157318115,
        2.156150876544416E-4,
        0.02078475058078766,
        0.02324337139725685,
        -0.026309175416827202,
        0.07289377599954605,
        -0.06784874200820923,
        0.015808526426553726,
        -0.01719830371439457,
        -7.796194404363632E-4,
        -0.025449560955166817,
        0.0015542185865342617,
        -0.016515355557203293,
        0.0052847908809781075,
        -0.012657888233661652,
        0.006725749466568232,
        8.624882902950048E-4,
        0.0013856596779078245,
        0.008468253538012505,
        4.963245010003448E-4,
        -0.033695660531520844,
        2.9020932856838044E-7,
        -2.9312954552551673E-7,
        -0.8198859691619873,
        -2.8994196554776863E-7,
        2.8683328423539933E-7,
        2.7833391413878417E-7,
        0.21146005392074585,
        0.2185022532939911,
        -0.0020737273152917624,
        0.0014511257177218795,
        0.011542313732206821,
        0.0015921908197924495,
        0.04492407664656639,
        -0.006272114813327789,
        -0.004696567077189684,
        0.01656399294734001,
        -0.27384424209594727,
        -0.010770219378173351,
        -0.007249688729643822,
        -0.7531700134277344,
        0.014558117836713791,
        -0.02744287997484207,
        0.004995615221560001,
        0.060910288244485855,
        2.8242450866855506E-7,
        0.06900274753570557,
        -0.22390387952327728,
        -0.02563382126390934,
        0.4614797532558441,
        -0.09360745549201965,
        0.04240996763110161,
        -0.021400412544608116,
        0.023244231939315796,
        0.0948546826839447,
        0.001426285831257701,
        0.015592720359563828,
        0.05443131923675537,
        -0.004798303823918104,
        0.05792025104165077,
        -0.0413876436650753,
        0.0015543163754045963,
        -0.009055512957274914,
        0.0033752084709703922,
        0.0010670323390513659,
        0.006725851912051439,
        -0.035608451813459396,
        0.00695960083976388,
        0.004255753476172686,
        4.96362685225904E-4,
        2.8566375931404764E-7,
        -3.0127418426673103E-7,
        -2.955159459361312E-7,
        -2.909994805122551E-7,
        2.82782480098831E-7,
        -3.0324719091368024E-7,
        -3.0684347507303755E-7,
        0.08169989287853241,
        0.13350681960582733,
        -0.0020737696904689074,
        0.0014493850758299232,
        0.011553714983165264,
        0.001592206652276218,
        0.04495016112923622,
        -0.008404260501265526,
        -0.03762378543615341,
        0.023363936692476273,
        -2.87729619685706E-7,
        -2.840437218765146E-7,
        -3.0684347507303755E-7,
        -0.013836909085512161,
        0.10893524438142776,
        0.029146665707230568,
        0.019083019345998764,
        -0.037707746028900146,
        -0.02627383917570114
      ],
      [
        -0.23324383795261383,
        -0.2734662890434265,
        0.18519891798496246,
        -0.8836192488670349,
        -0.052650995552539825,
        0.02316979132592678,
        -0.0018159024184569716,
        -0.05668821930885315,
        -0.1707143634557724,
        -0.022198490798473358,
        0.05148859694600105,
        0.129548117518425,
        -0.04869156703352928,
        -0.005798588041216135,
        -0.0897098258137703,
        -0.018075663596391678,
        -0.015041928738355637,
        -0.0026261720340698957,
        -0.03670128434896469,
        -0.04028879851102829,
        -0.019932886585593224,
        -0.004212708678096533,
        -0.13625214993953705,
        -0.025772977620363235,
        -0.1226007491350174,
        -2.866046884264506E-7,
        2.991787084738462E-7,
        -0.04618516191840172,
        -2.905530891439412E-7,
        2.8113922212469333E-7,
        -3.037136195871426E-7,
        0.043320029973983765,
        0.0974465161561966,
        -0.011719958856701851,
        -0.09125867486000061,
        -0.10602554678916931,
        -0.1449533998966217,
        -0.11767876893281937,
        -0.0029755374416708946,
        0.08636119216680527,
        -0.003932539839297533,
        -0.10039930045604706,
        0.013176043517887592,
        -0.054592814296483994,
        -0.04837328940629959,
        -0.044606372714042664,
        -0.0015368801541626453,
        0.0022149973083287477,
        0.0649208053946495,
        -3.0627475666733517E-7,
        -0.19902192056179047,
        -0.25732022523880005,
        0.226904034614563,
        -0.811526358127594,
        0.01654260791838169,
        0.007112537510693073,
        -0.038937147706747055,
        -0.052603572607040405,
        6.546737276948988E-4,
        0.0023739272728562355,
        -0.143066868185997,
        0.205704003572464,
        -0.009853877127170563,
        0.0026734438724815845,
        -0.07681459933519363,
        -0.09489743411540985,
        -0.03219107165932655,
        -0.023049164563417435,
        -0.09561632573604584,
        -0.0197464432567358,
        -0.005084083415567875,
        -0.04424496367573738,
        -1.2578397581819445E-4,
        -0.037991713732481,
        3.0684347507303755E-7,
        -3.03712852200988E-7,
        -3.0324719091368024E-7,
        2.7926523671339964E-7,
        -2.8043544375577767E-7,
        2.992940721924242E-7,
        2.947592463442561E-7,
        0.029460733756422997,
        0.0807473286986351,
        -0.011697753332555294,
        -0.07772711664438248,
        -0.11736755073070526,
        -0.09498286992311478,
        -0.11757460981607437,
        -0.020042777061462402,
        0.06384342908859253,
        -0.003932525869458914,
        3.0684347507303755E-7,
        3.0382398108486086E-7,
        -3.0684347507303755E-7,
        -0.015509887598454952,
        -2.655048156157136E-4,
        -0.08231250196695328,
        0.002677640877664089,
        -0.0028681722469627857,
        -0.10105963796377182
      ],
      [
        4.7819322207942605E-4,
        -0.00802904274314642,
        0.04505212977528572,
        0.13838820159435272,
        0.06843748688697815,
        -0.048680197447538376,
        -0.14386343955993652,
        0.013869302347302437,
        -0.03125186264514923,
        -0.015180366113781929,
        -0.04823533073067665,
        0.007390453014522791,
        -0.007100788410753012,
        -1.087488271878101E-5,
        0.019023973494768143,
        -0.004214950371533632,
        -0.009357157163321972,
        -0.0021557342261075974,
        0.02307114191353321,
        2.800216607283801E-4,
        -0.004888392053544521,
        0.00824049860239029,
        -5.520100239664316E-4,
        -0.00587058998644352,
        -0.8628674745559692,
        3.0684347507303755E-7,
        2.834572399024182E-7,
        0.4108835458755493,
        -2.9312226956790255E-7,
        2.7648991363093955E-7,
        -3.039359057765978E-7,
        0.05522432550787926,
        -5.185771151445806E-4,
        -0.015625828877091408,
        -0.009929881431162357,
        0.01730957441031933,
        0.0342627689242363,
        0.006579306907951832,
        -0.888607382774353,
        -0.6224620938301086,
        -0.12113689631223679,
        -0.9323192238807678,
        -0.2975917160511017,
        -0.4253121316432953,
        0.010185454972088337,
        -0.9316732287406921,
        -0.03161567822098732,
        -0.43152233958244324,
        -0.4145526587963104,
        3.013263381035358E-7,
        4.781610914506018E-4,
        -0.008028990589082241,
        0.04728563502430916,
        0.08264316618442535,
        -0.04101463779807091,
        0.09086287766695023,
        0.003530785907059908,
        0.011674251407384872,
        -0.004667055327445269,
        -4.6149943955242634E-5,
        0.0503375381231308,
        0.007390419486910105,
        -0.00860932469367981,
        0.0048925974406301975,
        -0.0010943234665319324,
        -0.0042149717919528484,
        0.0018529570661485195,
        0.015214672312140465,
        0.0034794423263520002,
        2.800700895022601E-4,
        -0.002421964192762971,
        0.005005333106964827,
        0.006428080145269632,
        -0.00587063655257225,
        -3.021941665792838E-7,
        2.887722416744509E-7,
        -2.7684961878549075E-7,
        3.0684347507303755E-7,
        2.811278818626306E-7,
        2.79035589301202E-7,
        -3.0684347507303755E-7,
        0.04665539786219597,
        -5.185584886930883E-4,
        -0.024980751797556877,
        -0.009928087703883648,
        0.01730947010219097,
        0.03384558483958244,
        0.006579299457371235,
        -0.516909658908844,
        -0.7600836157798767,
        -0.17003992199897766,
        -2.7648991363093955E-7,
        -2.838749821876263E-7,
        -2.9254746891638206E-7,
        0.041983071714639664,
        -0.3475361168384552,
        0.0012742585968226194,
        -0.1949448138475418,
        -0.017883671447634697,
        -0.9396960735321045
      ],
      [
        -0.1292242407798767,
        -0.3038173317909241,
        -0.06978236883878708,
        -0.6673492789268494,
        -0.0016382423928007483,
        0.0017881873063743114,
        -0.2291223704814911,
        0.1507747769355774,
        -0.2121249884366989,
        0.015552757307887077,
        0.002664220053702593,
        0.17294847965240479,
        -0.30419617891311646,
        -0.001617478672415018,
        -0.001867310726083815,
        0.1716146022081375,
        -2.6005570543929935E-4,
        -0.10759546607732773,
        -0.042429689317941666,
        0.02658052369952202,
        6.558003224199638E-5,
        -2.7278356719762087E-4,
        -1.8124944472219795E-4,
        -6.689324509352446E-4,
        -0.15515299141407013,
        2.909660281602555E-7,
        2.826465674843348E-7,
        -0.1717093139886856,
        -2.9192645456532773E-7,
        2.8543092867039377E-7,
        2.80794694162978E-7,
        0.6027952432632446,
        0.03502403572201729,
        -0.025648565962910652,
        -0.07052246481180191,
        -0.06868720054626465,
        -0.03665992245078087,
        -0.011623101308941841,
        0.05122557654976845,
        -0.09621836990118027,
        -0.006805362179875374,
        -0.024801259860396385,
        0.025124255567789078,
        0.05893735587596893,
        -0.13204075396060944,
        8.377825142815709E-4,
        0.010990855284035206,
        -0.0033966130577027798,
        -0.10353613644838333,
        2.7648991363093955E-7,
        -0.14484868943691254,
        -0.36961129307746887,
        -0.06978236883878708,
        -0.6983492970466614,
        0.004880743101239204,
        -0.005147878080606461,
        -0.1329304575920105,
        0.09857193380594254,
        0.08850440382957458,
        0.0023271769750863314,
        -0.024774329736828804,
        0.07854141294956207,
        -0.03542119637131691,
        0.008010980673134327,
        -0.0035724041517823935,
        0.14770467579364777,
        -0.10699761658906937,
        -0.06288047134876251,
        -0.016293605789542198,
        0.0265805646777153,
        2.6921724202111363E-4,
        -2.1116319112479687E-4,
        -2.9424435342662036E-4,
        -6.689385045319796E-4,
        2.7648991363093955E-7,
        2.856648677607154E-7,
        3.0492992664221674E-7,
        3.0034286169211555E-7,
        -3.018402026100375E-7,
        2.8090639148103946E-7,
        -2.905530891439412E-7,
        0.5755622982978821,
        0.03079288825392723,
        -0.023995613679289818,
        -0.06922003626823425,
        -0.0803324431180954,
        -0.03417590260505676,
        -0.05127297714352608,
        -0.005648380145430565,
        -0.1000056192278862,
        -0.004467184655368328,
        -2.845039261956117E-7,
        -2.9311422622413374E-7,
        -2.904130553815776E-7,
        0.020714979618787766,
        0.007104890886694193,
        0.041610535234212875,
        -0.01322154700756073,
        0.06597187370061874,
        0.024078845977783203
      ],
      [
        0.434890478849411,
        0.041197244077920914,
        0.4234090745449066,
        0.29401957988739014,
        0.15910875797271729,
        0.0030048268381506205,
        0.019108323380351067,
        0.020372619852423668,
        -3.6930773057974875E-4,
        0.05570713430643082,
        0.08853466808795929,
        -0.017113663256168365,
        -0.061088573187589645,
        -0.014090798795223236,
        -0.08775724470615387,
        -0.06183624267578125,
        -0.04143249988555908,
        2.51686287811026E-4,
        -0.07346856594085693,
        -0.007449969183653593,
        -0.044096142053604126,
        9.07762092538178E-4,
        -0.008806777186691761,
        -4.7346894280053675E-4,
        0.07212045788764954,
        -2.9311422622413374E-7,
        -2.965406054045161E-7,
        -0.16115160286426544,
        2.928912294919428E-7,
        -3.0684347507303755E-7,
        -2.961992322525475E-7,
        0.050321195274591446,
        0.07500723749399185,
        0.04857470840215683,
        0.09975115954875946,
        0.15948165953159332,
        0.08768992125988007,
        0.050288423895835876,
        0.06963523477315903,
        -0.1371566355228424,
        0.022679058834910393,
        -0.02460365742444992,
        -0.020237116143107414,
        1.1583973537199199E-4,
        0.06147150322794914,
        -0.005921281408518553,
        0.002578380750492215,
        -0.09684058278799057,
        -0.0027273595333099365,
        2.9754360753031506E-7,
        0.17335692048072815,
        0.051413729786872864,
        0.23386943340301514,
        0.31544581055641174,
        0.022123070433735847,
        0.0036281479988247156,
        -0.03365958109498024,
        0.009311939589679241,
        -0.17147520184516907,
        0.0017827580450102687,
        -0.01369302999228239,
        -0.031754594296216965,
        -0.05494927242398262,
        -0.030113549903035164,
        -0.06967359036207199,
        -0.003626011312007904,
        -0.05900605022907257,
        -0.058759044855833054,
        -0.0597384013235569,
        -0.007022724952548742,
        0.013567449524998665,
        -9.655416943132877E-4,
        -0.07596131414175034,
        -4.7337860451079905E-4,
        3.0684347507303755E-7,
        -2.7648991363093955E-7,
        3.021941665792838E-7,
        -3.0684347507303755E-7,
        2.796205365029891E-7,
        3.0173984555403877E-7,
        2.784563832847198E-7,
        0.03605473041534424,
        0.07500725239515305,
        0.027292141690850258,
        0.11622948944568634,
        0.17508868873119354,
        0.12015587091445923,
        0.1725551187992096,
        0.0018652031430974603,
        -0.17524009943008423,
        0.04474649950861931,
        2.7648991363093955E-7,
        -2.7648991363093955E-7,
        3.03712852200988E-7,
        0.22541150450706482,
        0.0012685572728514671,
        -0.044869594275951385,
        -0.0030087160412222147,
        -0.0021962476894259453,
        0.02652876079082489
      ],
      [
        -0.005559302866458893,
        -0.003629752667620778,
        0.0014039487577974796,
        -0.07060854882001877,
        0.002650215057656169,
        -0.008251925930380821,
        0.06574703752994537,
        -0.032581184059381485,
        -0.17841807007789612,
        -0.10104165971279144,
        -0.040677715092897415,
        0.011383078061044216,
        0.045388855040073395,
        -0.0016901327762752771,
        0.0043813008815050125,
        -0.0417233482003212,
        0.05173635855317116,
        -0.04751164838671684,
        -0.027729595080018044,
        -0.007972572930157185,
        0.0027147282380610704,
        0.005756111349910498,
        -0.003595008747652173,
        -0.01199747622013092,
        -0.7564461827278137,
        -2.796099352053716E-7,
        2.992898373577191E-7,
        -0.7866077423095703,
        -2.875264044632786E-7,
        2.8299052701186156E-7,
        -2.7648991363093955E-7,
        -0.04630658030509949,
        -0.008206374943256378,
        -0.00455224234610796,
        -0.05067959427833557,
        -0.03580610826611519,
        -0.03893890976905823,
        0.030044550076127052,
        -0.2548723816871643,
        -0.5373116135597229,
        0.055439773947000504,
        -0.5717236995697021,
        0.12871797382831573,
        0.2571691870689392,
        -0.09186968207359314,
        0.03841051086783409,
        0.07460917532444,
        -0.03065517358481884,
        0.0037506830412894487,
        2.990570067140652E-7,
        -0.00555931031703949,
        -0.08912193030118942,
        0.0014040214009582996,
        0.0031523362267762423,
        0.03283477947115898,
        -0.025363393127918243,
        -0.013359667733311653,
        -0.011856808327138424,
        -0.0365237332880497,
        0.18522337079048157,
        -0.0028856508433818817,
        0.02201680839061737,
        0.027574917301535606,
        -0.01768009550869465,
        0.004154023248702288,
        -0.0179001372307539,
        7.039617048576474E-4,
        -9.728497825562954E-4,
        -0.002447683596983552,
        -0.008392535150051117,
        -0.012120282277464867,
        -0.022036099806427956,
        -0.01886182650923729,
        -0.011936244554817677,
        -2.9021916247984336E-7,
        -2.902056621678639E-7,
        -2.7648991363093955E-7,
        -2.9020932856838044E-7,
        -3.0355755598066025E-7,
        2.876842017940362E-7,
        3.0684347507303755E-7,
        -0.11184918135404587,
        -0.053795211017131805,
        -0.004552246071398258,
        -0.01613636314868927,
        -0.054946452379226685,
        -0.032898761332035065,
        0.02900477685034275,
        0.1634901911020279,
        -0.6309877634048462,
        0.0035537295043468475,
        -3.052209649467841E-7,
        2.9312954552551673E-7,
        -2.921836710356729E-7,
        0.0033648100215941668,
        0.036530811339616776,
        -0.016641227528452873,
        0.002693471033126116,
        0.02320733107626438,
        -0.7917444705963135
      ],
      [
        -9.064436890184879E-4,
        -0.06756161898374557,
        4.454407899174839E-4,
        0.056582383811473846,
        1.6942570209503174,
        0.001725020119920373,
        -0.05610910430550575,
        -0.05036807432770729,
        -0.005949256010353565,
        -0.015019028447568417,
        6.949601229280233E-4,
        0.035556498914957047,
        0.03191420063376427,
        0.016029085963964462,
        -0.005679333582520485,
        0.004689025226980448,
        0.029233239591121674,
        -0.005222925450652838,
        -0.011844647116959095,
        -0.012267081066966057,
        0.005341574549674988,
        -0.0025358255952596664,
        -0.022038770839571953,
        -0.004400195553898811,
        1.319581389427185,
        2.988294625083654E-7,
        3.0684347507303755E-7,
        7.269723573699594E-4,
        3.065128737489431E-7,
        3.0684347507303755E-7,
        -2.7648991363093955E-7,
        7.50387494917959E-4,
        0.04311714693903923,
        -0.018255628645420074,
        -0.007531385403126478,
        -0.01189546287059784,
        -0.007848395965993404,
        0.0019132366869598627,
        -0.02342812344431877,
        0.006183989346027374,
        0.00342791760340333,
        -0.03260660544037819,
        0.00783462543040514,
        0.0012844851007685065,
        -0.03879775106906891,
        -0.04063479229807854,
        2.6934221386909485E-4,
        -0.001515296520665288,
        -0.4110768437385559,
        2.9194620765338186E-7,
        -9.064269252121449E-4,
        -0.06971392035484314,
        4.4539329246617854E-4,
        0.1482224464416504,
        0.29497382044792175,
        0.03586060553789139,
        0.0458681583404541,
        -0.06211799755692482,
        0.011644885875284672,
        -7.851396803744137E-4,
        -0.018392017111182213,
        0.03555799275636673,
        0.00923764519393444,
        0.0011650940869003534,
        -0.008083170279860497,
        0.00468911649659276,
        0.0284471083432436,
        -0.011930430307984352,
        -0.017214015126228333,
        -0.021079394966363907,
        0.0037324833683669567,
        -0.0025059448089450598,
        0.00533040426671505,
        -0.0043999794870615005,
        -3.0684347507303755E-7,
        2.9754360753031506E-7,
        -2.85330173710463E-7,
        2.9099894049977593E-7,
        -3.064983218337147E-7,
        2.871446156405E-7,
        2.8544053520818125E-7,
        7.503651431761682E-4,
        0.043117132037878036,
        -0.01825566217303276,
        -0.007531325798481703,
        -0.011895492672920227,
        -0.007848422043025494,
        0.001913178013637662,
        7.198737584985793E-4,
        0.02250189147889614,
        0.0034279855899512768,
        2.962672738249239E-7,
        -3.0684347507303755E-7,
        -3.0651105475953955E-7,
        -0.43526124954223633,
        0.0014167377958074212,
        3.784155996982008E-4,
        -2.7810419851448387E-5,
        -0.0038793934509158134,
        -0.0015441186260432005
      ],
      [
        5.07761724293232E-4,
        -0.02210392989218235,
        0.11920402199029922,
        -0.18967656791210175,
        -0.056351229548454285,
        0.037480566650629044,
        -0.019632559269666672,
        -0.04419555887579918,
        -0.22652554512023926,
        -0.16036489605903625,
        -0.5054852962493896,
        0.09114080667495728,
        -0.00482031749561429,
        0.0034961265046149492,
        -0.1527746170759201,
        0.0028811534866690636,
        0.03689533472061157,
        -0.022391004487872124,
        2.549064811319113E-4,
        0.008670792914927006,
        0.01856417953968048,
        4.0140614146366715E-4,
        -0.042668186128139496,
        0.00653285114094615,
        0.5577476620674133,
        -3.0684347507303755E-7,
        2.7984276584902545E-7,
        0.2799248993396759,
        -2.8721163403133687E-7,
        2.872935738196247E-7,
        2.920271242601302E-7,
        0.15462249517440796,
        0.11277942359447479,
        9.324015118181705E-4,
        -2.2971830912865698E-4,
        -0.03395197540521622,
        6.789741455577314E-4,
        0.14549186825752258,
        -0.06413505971431732,
        0.08217015862464905,
        -0.0011045013088732958,
        0.762850284576416,
        0.09385289996862411,
        -0.08568580448627472,
        -0.0029557105153799057,
        0.16112960875034332,
        -0.1007000207901001,
        -0.06780089437961578,
        -0.20223210752010345,
        3.0324719091368024E-7,
        5.077840760350227E-4,
        -0.02210392989218235,
        0.0877896174788475,
        -0.18967662751674652,
        0.009724839590489864,
        -0.009117824025452137,
        -0.0420118048787117,
        -0.007892354391515255,
        0.06252077221870422,
        0.11757808178663254,
        0.5094466805458069,
        0.08704005926847458,
        0.039391495287418365,
        0.04161588475108147,
        0.1026964858174324,
        0.0531049519777298,
        -0.005532435607165098,
        -0.006322077009826899,
        -0.03742821514606476,
        0.018679143860936165,
        0.0027535022236406803,
        0.0025157711934298277,
        -0.0010851416736841202,
        0.0062150792218744755,
        -3.0684347507303755E-7,
        -3.0173984555403877E-7,
        2.978867996716872E-7,
        2.7648991363093955E-7,
        3.0627475666733517E-7,
        3.0684347507303755E-7,
        2.7648991363093955E-7,
        0.05555032193660736,
        0.08725397288799286,
        9.323903359472752E-4,
        -2.2963914670981467E-4,
        -0.03395205736160278,
        6.789760082028806E-4,
        0.05849123373627663,
        0.12484534084796906,
        0.06732935458421707,
        -0.001104495720937848,
        2.8404554086591816E-7,
        -3.05337380268611E-7,
        -3.0023076647012203E-7,
        0.15963542461395264,
        0.003410821780562401,
        -0.1628405898809433,
        0.07013390958309174,
        -0.015450657345354557,
        0.0462646409869194
      ],
      [
        -0.18088918924331665,
        0.0019691891502588987,
        0.03280914947390556,
        -0.2861524820327759,
        -0.06026735529303551,
        -0.004035954363644123,
        0.1926545798778534,
        0.20475083589553833,
        -0.026342498138546944,
        -0.06687779724597931,
        -0.13087238371372223,
        -0.04543686658143997,
        -0.03351859003305435,
        0.0032632392831146717,
        -0.12223009020090103,
        -0.014185186475515366,
        0.016173606738448143,
        -4.5410438906401396E-4,
        4.903785302303731E-4,
        -0.026885006576776505,
        0.01084316335618496,
        -0.00970072764903307,
        -0.0014649314107373357,
        -0.014332229271531105,
        -0.12947718799114227,
        3.0056546052037447E-7,
        2.771697609205148E-7,
        0.15758991241455078,
        3.0684347507303755E-7,
        2.7648991363093955E-7,
        3.0684347507303755E-7,
        0.0034635502379387617,
        -0.007354268804192543,
        0.022959614172577858,
        -0.057518310844898224,
        -0.04619131609797478,
        -0.081791453063488,
        -0.15284352004528046,
        -0.04028818756341934,
        -0.052633270621299744,
        -0.006255908403545618,
        0.0018420469714328647,
        0.0013072998262941837,
        -0.011534575372934341,
        1.0907269716262817,
        -0.0011229319497942924,
        -0.16617657244205475,
        -0.024373194202780724,
        -0.9639096856117249,
        -2.7683634584718675E-7,
        -0.07205305248498917,
        0.0019691900815814734,
        0.03280915692448616,
        -0.34576159715652466,
        0.020914698019623756,
        -0.03728765994310379,
        0.0015255265170708299,
        0.13186080753803253,
        -0.0030859929975122213,
        0.0015099042793735862,
        0.08752656728029251,
        -0.04519835114479065,
        -0.003506365232169628,
        -0.026154866442084312,
        0.07160654664039612,
        -0.01418520137667656,
        -0.003130718134343624,
        -0.008477166295051575,
        0.002518982160836458,
        -0.02688482031226158,
        -0.0034647597931325436,
        -2.5234578060917556E-4,
        -0.01925066113471985,
        -0.014332251623272896,
        2.7648991363093955E-7,
        -3.0639645842711616E-7,
        -2.7648991363093955E-7,
        -2.7776766842180223E-7,
        2.966747274513182E-7,
        -3.0394568284464185E-7,
        -3.0452247301582247E-7,
        0.08579948544502258,
        -0.007354281842708588,
        0.014091195538640022,
        -0.0705641508102417,
        -0.07854059338569641,
        -0.07793442904949188,
        -0.12140960991382599,
        0.009509360417723656,
        -0.05263052135705948,
        -0.0062399390153586864,
        -3.0091965186329617E-7,
        2.905530891439412E-7,
        2.782279580060276E-7,
        0.2325221449136734,
        -0.02180040441453457,
        -0.13624483346939087,
        -0.00505452835932374,
        -0.190602645277977,
        -0.007452667690813541
      ],
      [
        -0.0022988144773989916,
        -0.2761293351650238,
        -0.002684552688151598,
        0.005337732378393412,
        -0.01824691891670227,
        0.006750216241925955,
        0.027519259601831436,
        -0.0450393483042717,
        0.0394848957657814,
        0.03042328916490078,
        -0.013473346829414368,
        -0.03287133574485779,
        -0.021037401631474495,
        0.007132004946470261,
        -0.01763901114463806,
        -0.016442764550447464,
        -0.022461825981736183,
        -0.008742991834878922,
        1.0793905676109716E-4,
        0.001849968801252544,
        -0.03654829412698746,
        -0.02409994788467884,
        -0.003072755876928568,
        0.012518487870693207,
        -1.3921418190002441,
        -2.9254746891638206E-7,
        -2.960608469493309E-7,
        -0.4163597822189331,
        2.7648991363093955E-7,
        -2.8299052701186156E-7,
        3.020730332536914E-7,
        -0.21742108464241028,
        -0.004820671398192644,
        -0.0019556772895157337,
        0.008237725123763084,
        0.005596683360636234,
        -0.0012845589080825448,
        -0.044940948486328125,
        -0.734829306602478,
        -0.6689067482948303,
        -0.17019587755203247,
        -0.004907294176518917,
        -0.28895556926727295,
        0.09306719899177551,
        -0.002716607414186001,
        0.013420955277979374,
        -0.9832773804664612,
        -0.16729648411273956,
        -0.003194730030372739,
        -2.8544130259433587E-7,
        -0.002298868028447032,
        -0.10513821989297867,
        -0.002684601116925478,
        0.005337803158909082,
        0.007110108621418476,
        -0.0014284461503848433,
        0.05850987508893013,
        -0.004398611839860678,
        -0.009840223006904125,
        0.004022964276373386,
        0.02076778933405876,
        -0.028442325070500374,
        0.009815077297389507,
        0.00991615280508995,
        0.004388017114251852,
        -0.006819562520831823,
        8.018190274015069E-4,
        -0.0036638237070292234,
        -0.04322986304759979,
        0.0018499091966077685,
        -0.0035928315483033657,
        0.0024042187724262476,
        -0.002688164357095957,
        0.01251852884888649,
        3.023264696366823E-7,
        -2.7648991363093955E-7,
        2.7648991363093955E-7,
        -2.9881812224630266E-7,
        -2.9246297117424547E-7,
        -2.9906124154877034E-7,
        -2.9707234716624953E-7,
        -0.10879798978567123,
        -0.004810695070773363,
        -0.00195561395958066,
        0.008237699046730995,
        0.005596662871539593,
        -0.0012845468008890748,
        -0.01938226819038391,
        0.11408822238445282,
        -0.7434431314468384,
        -0.20361843705177307,
        2.9219822295090125E-7,
        2.9091765441080497E-7,
        -3.064983218337147E-7,
        0.049786526709795,
        0.011469732038676739,
        0.012761959806084633,
        0.030537370592355728,
        -0.019974015653133392,
        0.03804902359843254
      ],
      [
        0.06886576116085052,
        -0.49984821677207947,
        -0.02213599532842636,
        -0.06472267955541611,
        -0.44858258962631226,
        0.05501778796315193,
        -0.14991851150989532,
        0.03118670918047428,
        -0.044518180191516876,
        -0.009853961877524853,
        0.002072608796879649,
        0.072139210999012,
        -0.09267784655094147,
        1.2701793457381427E-4,
        -0.05269113555550575,
        0.038660626858472824,
        3.9388122968375683E-4,
        -0.005090401973575354,
        -0.0716063529253006,
        0.009817715734243393,
        -6.526673096232116E-4,
        -4.751321976073086E-4,
        0.004375292453914881,
        0.009271588176488876,
        -0.2427801936864853,
        -2.9225103048702294E-7,
        -2.8427214715520677E-7,
        0.7321895360946655,
        -2.9894587783019233E-7,
        -2.8668503659901035E-7,
        -3.0440156706390553E-7,
        -0.1443939059972763,
        0.041645389050245285,
        -0.02932535484433174,
        6.583129870705307E-4,
        0.07779066264629364,
        0.13983583450317383,
        0.08080297708511353,
        -0.035522472113370895,
        0.3032730519771576,
        -0.034089818596839905,
        -0.120332732796669,
        1.7974116781260818E-4,
        0.0035981484688818455,
        0.165265291929245,
        -0.017677143216133118,
        0.042743511497974396,
        -0.002135144080966711,
        -0.06341428309679031,
        -2.842771493760665E-7,
        0.09293720871210098,
        -0.498349130153656,
        -0.02206721529364586,
        -0.06472375243902206,
        0.12069782614707947,
        0.025424685329198837,
        -0.04720236361026764,
        0.015701916068792343,
        0.08398447930812836,
        0.006410422269254923,
        -0.03390193730592728,
        0.004015668295323849,
        0.07726331800222397,
        -0.025042913854122162,
        5.191118107177317E-4,
        0.02861148864030838,
        0.008636374026536942,
        -0.05546886473894119,
        0.003966520540416241,
        0.028647800907492638,
        0.0349399708211422,
        0.0012284921249374747,
        0.00272401818074286,
        0.009306700900197029,
        2.992940721924242E-7,
        -2.913934906700888E-7,
        -2.7648991363093955E-7,
        -3.0173984555403877E-7,
        -3.0684347507303755E-7,
        -2.881568548218638E-7,
        2.872711206691747E-7,
        -0.13774557411670685,
        0.020331431180238724,
        -0.029318280518054962,
        6.58324162941426E-4,
        0.04128608480095863,
        0.10580971837043762,
        0.0054282816126942635,
        -0.0045989989303052425,
        0.3102949261665344,
        -0.03408987820148468,
        -2.813720527683472E-7,
        -2.842763819899119E-7,
        -2.840393165115529E-7,
        0.8618640899658203,
        0.003596047405153513,
        -0.09143725037574768,
        -0.001506999833509326,
        0.03132069483399391,
        -0.018478376790881157
      ],
      [
        -0.0030354433692991734,
        0.200683131814003,
        -0.15101394057273865,
        -0.4899362027645111,
        -0.020578283816576004,
        3.263778635300696E-4,
        -0.07257461547851562,
        0.007350248284637928,
        -0.09825228899717331,
        0.025880752131342888,
        -0.05127732455730438,
        -0.045179300010204315,
        -0.08389139920473099,
        -0.0022216017823666334,
        -0.003502952866256237,
        0.23034325242042542,
        0.004368595313280821,
        0.014818144030869007,
        0.0025194669142365456,
        0.003719516796991229,
        0.001074544619768858,
        0.0014778681797906756,
        -0.012658840976655483,
        9.042632300406694E-4,
        -0.2574349343776703,
        -3.0684347507303755E-7,
        2.8403826490830397E-7,
        -0.17612196505069733,
        2.875264044632786E-7,
        -3.0684347507303755E-7,
        2.9638368914675084E-7,
        0.8349236845970154,
        0.08978651463985443,
        -0.05243021622300148,
        -0.1263900101184845,
        -0.10771996527910233,
        -0.023613283410668373,
        0.1406482458114624,
        -2.6833757874555886E-4,
        -0.1565411388874054,
        0.018297266215085983,
        0.043979011476039886,
        0.04467621073126793,
        0.0863606408238411,
        0.0033415891230106354,
        0.0015812455676496029,
        0.1931592971086502,
        0.03520558774471283,
        0.00928318127989769,
        2.8368901894282317E-7,
        -0.003035483416169882,
        0.102316714823246,
        -0.044296085834503174,
        -0.5790842771530151,
        0.1501278132200241,
        -0.015064135193824768,
        -0.009216340258717537,
        0.004702352453023195,
        0.0442059263586998,
        0.004527257289737463,
        -5.192672833800316E-4,
        -0.1175452247262001,
        -0.002748735947534442,
        -0.018960310146212578,
        -0.14297731220722198,
        0.2311372309923172,
        0.0140245221555233,
        0.02673252858221531,
        0.0017476010834798217,
        0.007609006017446518,
        8.452432230114937E-4,
        0.0013737853150814772,
        -0.011988365091383457,
        9.042161982506514E-4,
        -2.7973217697763175E-7,
        3.049881343031302E-7,
        3.0684347507303755E-7,
        -2.867168689135724E-7,
        3.061636277834623E-7,
        -2.8936838702975365E-7,
        -2.9754360753031506E-7,
        0.9467399716377258,
        0.019553085789084435,
        -0.035484444350004196,
        -0.09025124460458755,
        -0.1222781240940094,
        -0.023613302037119865,
        0.09292986243963242,
        0.002333888318389654,
        -0.1344078630208969,
        0.010355868376791477,
        -3.061636277834623E-7,
        -3.0684347507303755E-7,
        2.988294625083654E-7,
        -0.03186960890889168,
        -0.010841913521289825,
        -0.004916587844491005,
        -0.003735214937478304,
        0.07158203423023224,
        -0.006143459118902683
      ],
      [
        0.030531955882906914,
        0.0684887170791626,
        -1.085627154679969E-4,
        0.045218244194984436,
        -0.13042908906936646,
        0.004937421530485153,
        -0.15569598972797394,
        0.005329721607267857,
        0.13534393906593323,
        -0.0054209670051932335,
        0.21454623341560364,
        -0.007367649115622044,
        0.020895397290587425,
        0.03480496257543564,
        0.04643763229250908,
        0.054437305778265,
        -0.011145384982228279,
        -0.005471365991979837,
        8.039387757889926E-4,
        0.02175966463983059,
        -0.013050119392573833,
        0.0011175445979461074,
        0.0018696740735322237,
        0.0054712360724806786,
        1.1756935119628906,
        3.0197267619769264E-7,
        3.0662323524666135E-7,
        0.19106847047805786,
        -2.8032903287567024E-7,
        2.8544130259433587E-7,
        -2.8939876983713475E-7,
        -0.06954974681138992,
        -0.06882990896701813,
        -0.011359495110809803,
        8.536192472092807E-4,
        0.03574131056666374,
        0.07350505143404007,
        0.026014573872089386,
        -0.0031736656092107296,
        -0.23445524275302887,
        0.007223786320537329,
        0.4134521782398224,
        -0.030409328639507294,
        0.038837410509586334,
        0.61473149061203,
        1.051998257637024,
        -0.3332078456878662,
        0.26729968190193176,
        -0.3281380832195282,
        2.8404355134625803E-7,
        0.022380918264389038,
        0.11359453201293945,
        -1.0860741895157844E-4,
        0.045218326151371,
        0.0753561407327652,
        0.049100786447525024,
        -0.0011380956275388598,
        0.0275262538343668,
        -0.24948890507221222,
        -0.04343529790639877,
        -0.21483658254146576,
        -0.01307602133601904,
        -0.05192476883530617,
        4.5142005546949804E-4,
        -0.010079767554998398,
        0.011915198527276516,
        -0.0012457511620596051,
        -9.900798322632909E-4,
        -0.0014980171108618379,
        0.023798460140824318,
        0.006708560977131128,
        -0.002471368759870529,
        -0.0027644773945212364,
        0.005443115718662739,
        2.7648991363093955E-7,
        2.9291183523127984E-7,
        2.7648991363093955E-7,
        -3.0684347507303755E-7,
        2.7648991363093955E-7,
        -2.952195359284815E-7,
        3.0382398108486086E-7,
        -0.06938407570123672,
        -0.07195291668176651,
        -0.025545800104737282,
        8.5352425230667E-4,
        0.03574136272072792,
        0.08372300118207932,
        0.03537890315055847,
        -0.0031424101907759905,
        -0.14361092448234558,
        0.0019461683696135879,
        3.036157636415737E-7,
        2.904421592120343E-7,
        3.0213124091460486E-7,
        -0.3763679563999176,
        -0.3845990002155304,
        -0.07226584106683731,
        -0.28665509819984436,
        0.1143442839384079,
        -0.010505013167858124
      ],
      [
        -0.001367935910820961,
        -0.10942114144563675,
        0.12492616474628448,
        -0.6011632084846497,
        -0.09069986641407013,
        0.08908069133758545,
        -0.1334526091814041,
        0.03209519013762474,
        0.2315567135810852,
        -0.0010664666770026088,
        0.08826804906129837,
        -0.06907442957162857,
        -0.03409452363848686,
        -0.003824144834652543,
        -0.0026477263309061527,
        -0.008826268836855888,
        -0.003490743925794959,
        -0.0017139408737421036,
        0.0011413275497034192,
        -0.004469639156013727,
        0.01171035785228014,
        -0.0019264579750597477,
        -0.03840278461575508,
        -0.007762435358017683,
        -0.24150370061397552,
        2.8649387218138145E-7,
        2.9860095196454495E-7,
        0.1840248703956604,
        -2.862610415377276E-7,
        3.0684347507303755E-7,
        -2.7648991363093955E-7,
        0.12487079203128815,
        -0.05400398001074791,
        -0.07730288803577423,
        -0.08988232165575027,
        -0.07408178597688675,
        0.01506344135850668,
        0.021992575377225876,
        0.07774811238050461,
        -0.1756231039762497,
        -0.04614311456680298,
        4.910078714601696E-4,
        -0.014660468325018883,
        -0.013443881645798683,
        0.046158064156770706,
        0.4366218149662018,
        -0.0036925876047462225,
        0.0587424598634243,
        0.0014900275273248553,
        2.7648991363093955E-7,
        -0.0013679582625627518,
        -0.1093616858124733,
        0.046961456537246704,
        -0.6202280521392822,
        0.056011561304330826,
        0.03306853026151657,
        0.044238075613975525,
        0.14874999225139618,
        -0.08206247538328171,
        0.03316190093755722,
        -0.11124099045991898,
        -0.05998428165912628,
        0.03415782377123833,
        0.016034135594964027,
        -0.1165986880660057,
        -0.008826227858662605,
        0.038229573518037796,
        -0.029056740924715996,
        -0.019995296373963356,
        -0.004469685722142458,
        -0.008851593360304832,
        -0.012824634090065956,
        -0.001517677679657936,
        -0.0077624074183404446,
        -2.7823733717013965E-7,
        -3.0684347507303755E-7,
        3.0684347507303755E-7,
        -2.992660199652164E-7,
        3.0684347507303755E-7,
        -3.0034718179194897E-7,
        -2.8242450866855506E-7,
        0.09386859089136124,
        -0.0540040023624897,
        -0.03608002886176109,
        -0.11329391598701477,
        -0.0664634108543396,
        0.008154378272593021,
        0.08689522743225098,
        -0.038106519728899,
        -0.17014846205711365,
        -0.04004306718707085,
        2.7648991363093955E-7,
        2.830831249411858E-7,
        2.76820514955034E-7,
        0.04755277559161186,
        2.9710400849580765E-4,
        0.13548356294631958,
        -0.027986008673906326,
        0.061044685542583466,
        0.12037727236747742
      ],
      [
        6.189454579725862E-4,
        0.009604807011783123,
        -0.08003266900777817,
        0.15284554660320282,
        -1.1760385036468506,
        0.13530585169792175,
        0.0972708910703659,
        -0.04351988062262535,
        -0.10887116193771362,
        0.033491652458906174,
        -0.09357666969299316,
        0.06739944964647293,
        -1.0411744005978107E-4,
        -3.2926449785009027E-4,
        -0.011074844747781754,
        0.06156834959983826,
        0.029615292325615883,
        0.0010814507259055972,
        -9.854176314547658E-4,
        0.004191246815025806,
        0.06932376325130463,
        -0.0067785452120006084,
        0.0016864840872585773,
        0.004101020749658346,
        0.06982406973838806,
        -2.8159354314993834E-7,
        -3.06332196942094E-7,
        -0.31833064556121826,
        2.7648991363093955E-7,
        2.7648991363093955E-7,
        3.0684347507303755E-7,
        0.06994130462408066,
        0.01060567982494831,
        -0.0043876031413674355,
        -0.0058067068457603455,
        0.03482338413596153,
        0.01594788208603859,
        0.13433443009853363,
        -0.0014985474990680814,
        -0.003483085660263896,
        -0.06836817413568497,
        -0.10575509816408157,
        -0.0018158581806346774,
        0.0758693665266037,
        0.06254556030035019,
        -7.560232770629227E-4,
        -0.005062103271484375,
        -0.06276651471853256,
        0.3837496340274811,
        -2.971883077407256E-7,
        0.09294688701629639,
        0.009604833088815212,
        -0.04982083663344383,
        0.18468976020812988,
        -0.5310999155044556,
        0.033537786453962326,
        -0.23745255172252655,
        -0.043519746512174606,
        0.0524531826376915,
        0.00899901520460844,
        0.1143428310751915,
        0.17383921146392822,
        0.03419392555952072,
        0.0012834741501137614,
        0.006852105725556612,
        0.011490045115351677,
        0.02886563166975975,
        0.0013686636229977012,
        0.00429132953286171,
        0.0041913241147994995,
        0.007622816599905491,
        -0.00892652478069067,
        -0.04023649916052818,
        0.004101034719496965,
        -2.9629799769281817E-7,
        -2.7648991363093955E-7,
        2.7648991363093955E-7,
        -2.812603554502857E-7,
        -3.0416873642025166E-7,
        -3.0197267619769264E-7,
        2.796205365029891E-7,
        0.005254920572042465,
        0.016960499808192253,
        -0.004387532360851765,
        -0.005806716158986092,
        0.006965892389416695,
        0.12691088020801544,
        0.1790042221546173,
        0.043346505612134933,
        -0.02902238443493843,
        -0.06773997843265533,
        -3.0429961839217867E-7,
        2.8578978117366205E-7,
        -2.9801350365232793E-7,
        -0.06086061894893646,
        0.35715776681900024,
        -0.002273678546771407,
        0.045518871396780014,
        0.16600114107131958,
        -0.048072297126054764
      ]
    ],
    [
      [
        -8.888185839168727E-4,
        0.2875255346298218,
        -0.3851797580718994,
        0.38747167587280273,
        0.6834045648574829,
        0.32248803973197937,
        -0.3548614978790283,
        0.4383198022842407,
        -1.6558350324630737,
        -0.4368656575679779,
        0.21607889235019684,
        -0.43754804134368896,
        0.04989471286535263,
        -0.40850892663002014,
        0.5111007690429688,
        0.28640252351760864,
        0.46527671813964844,
        0.1803780049085617,
        0.14224056899547577,
        -0.14266151189804077,
        0.5384962558746338,
        -0.11832761019468307,
        -0.7539540529251099,
        -1.1954797506332397,
        -0.4290303587913513,
        -0.004090118687599897,
        -0.7376447319984436,
        -0.4686886966228485,
        0.7894130349159241,
        -0.03603198379278183
      ],
      [
        -0.03022826462984085,
        0.551521360874176,
        -0.6439222693443298,
        -8.720817277207971E-4,
        -0.7304580211639404,
        -1.6261993646621704,
        1.9411752223968506,
        0.21337170898914337,
        0.5599560737609863,
        -9.731656755320728E-4,
        -0.7740697264671326,
        0.4343104362487793,
        -1.0168579816818237,
        -0.4279404878616333,
        1.7252285480499268,
        0.7133566737174988,
        -0.005391430109739304,
        0.1090131402015686,
        -0.33176112174987793,
        -1.3600906133651733,
        -0.002262454479932785,
        -0.6970385909080505,
        0.1593114286661148,
        0.8210304975509644,
        0.7084832787513733,
        -0.49138230085372925,
        -0.11021526902914047,
        -0.26011893153190613,
        -0.1893586814403534,
        -0.974290132522583
      ],
      [
        0.038749560713768005,
        0.007044536527246237,
        -0.2827475368976593,
        0.6986803412437439,
        -0.08913260698318481,
        0.253934383392334,
        -0.522802472114563,
        -0.061960481107234955,
        0.45788195729255676,
        -0.1872192621231079,
        0.5603458881378174,
        -0.017850950360298157,
        0.46233630180358887,
        -0.33325985074043274,
        0.2702917158603668,
        -0.11709949374198914,
        0.04771004989743233,
        0.4887165427207947,
        -1.1638284921646118,
        0.008211147971451283,
        0.0033869617618620396,
        0.08924667537212372,
        0.0033668428659439087,
        -0.2642713487148285,
        -0.34388118982315063,
        0.1782652884721756,
        0.6536962985992432,
        -0.10198333114385605,
        -0.037222087383270264,
        -0.02033950388431549
      ],
      [
        -0.8150702714920044,
        -0.5116273164749146,
        1.286944031715393,
        -0.4349532127380371,
        -0.16162686049938202,
        -0.11866600811481476,
        1.322521686553955,
        -0.43736839294433594,
        -0.44841259717941284,
        -0.8830301761627197,
        -0.3276442885398865,
        -0.45648398995399475,
        -0.9291752576828003,
        -0.23797287046909332,
        0.20233561098575592,
        2.0500121172517538E-4,
        0.0466139055788517,
        0.1716698408126831,
        0.07813058793544769,
        -0.6390911340713501,
        -4.00777964387089E-4,
        0.25852566957473755,
        -0.9268328547477722,
        0.0012935316190123558,
        -0.20714224874973297,
        0.0031002219766378403,
        0.08413085341453552,
        0.9942920207977295,
        -0.9408521056175232,
        1.1964616775512695
      ],
      [
        0.06966350972652435,
        -0.18295657634735107,
        -0.0647326111793518,
        0.7927679419517517,
        0.20399682223796844,
        -0.06754692643880844,
        -0.0070775276981294155,
        -0.3724891245365143,
        0.38950085639953613,
        -0.8146570920944214,
        -0.15015839040279388,
        -0.18795110285282135,
        0.4264225959777832,
        0.00266766594722867,
        -1.1061962842941284,
        0.1463276743888855,
        -0.33031734824180603,
        0.5914448499679565,
        -1.018370270729065,
        0.3284359872341156,
        0.4396660327911377,
        0.7885117530822754,
        -0.027988692745566368,
        -0.04024254530668259,
        -0.8532375693321228,
        0.5070932507514954,
        0.7826548218727112,
        -0.2661638557910919,
        -0.07395891100168228,
        -0.32608360052108765
      ],
      [
        0.11888521909713745,
        0.0022989725694060326,
        -0.13301710784435272,
        0.22063571214675903,
        0.6385374665260315,
        0.27966970205307007,
        -0.48429930210113525,
        -0.006249928381294012,
        -1.8116540908813477,
        1.06498122215271,
        0.060971129685640335,
        0.01731632649898529,
        0.44775134325027466,
        -0.0014669268857687712,
        -0.3041238486766815,
        0.21165195107460022,
        0.10553687065839767,
        0.016587892547249794,
        0.7187840342521667,
        0.19031170010566711,
        -0.09641753882169724,
        0.001616259221918881,
        -0.021777916699647903,
        0.6178765296936035,
        -0.375405877828598,
        0.5103700160980225,
        -0.8379630446434021,
        0.29590222239494324,
        -0.0846804603934288,
        0.008950440213084221
      ],
      [
        0.10018718987703323,
        -0.9705379009246826,
        0.009935356676578522,
        -0.5540587902069092,
        0.45497193932533264,
        0.2922275960445404,
        -0.2676084339618683,
        -0.0899677649140358,
        0.09555777907371521,
        0.5759269595146179,
        -0.300960898399353,
        0.02992440015077591,
        0.3205946683883667,
        0.04650936275720596,
        -1.1427720785140991,
        0.3981817364692688,
        0.010755852796137333,
        -0.2794317305088043,
        0.6870395541191101,
        0.38453835248947144,
        -0.07643420249223709,
        0.29032275080680847,
        -0.07941780984401703,
        0.06558296084403992,
        -0.6706527471542358,
        0.2496321201324463,
        -0.5714177489280701,
        -0.00599940400570631,
        0.010936539620161057,
        0.1276579350233078
      ],
      [
        0.05647974833846092,
        0.17495097219944,
        0.018708610907197,
        -0.33310171961784363,
        -0.9023710489273071,
        -0.041613347828388214,
        -0.00247124582529068,
        -0.4607977867126465,
        0.5301260352134705,
        0.3230900764465332,
        0.2947554886341095,
        0.7024388313293457,
        -0.3825756907463074,
        0.4567064344882965,
        -0.010545769706368446,
        -1.2052865028381348,
        -0.03221594914793968,
        -2.0487775802612305,
        0.47234225273132324,
        -0.1309865564107895,
        -0.14366792142391205,
        -0.9819463491439819,
        0.22655124962329865,
        0.52799391746521,
        0.6262314915657043,
        -0.9231058955192566,
        0.17013759911060333,
        1.3911739587783813,
        0.009134356863796711,
        -0.043994709849357605
      ],
      [
        0.17673814296722412,
        0.4951545000076294,
        0.8760286569595337,
        -0.3103097975254059,
        -0.6710006594657898,
        -1.4980642795562744,
        -0.08940315246582031,
        -0.17744262516498566,
        0.44345492124557495,
        -2.8462469344958663E-4,
        -0.03638613224029541,
        0.673366129398346,
        -0.2895963490009308,
        1.3697712421417236,
        0.09158965200185776,
        -0.46279746294021606,
        -0.8153778910636902,
        -1.7005668878555298,
        0.4807855784893036,
        0.0710182785987854,
        -0.4123041331768036,
        -1.1484923362731934,
        0.5131059288978577,
        0.12149284780025482,
        0.7488625049591064,
        -0.7043352723121643,
        0.14711719751358032,
        0.16985918581485748,
        -0.024604585021734238,
        0.9860576391220093
      ],
      [
        -0.16050641238689423,
        -0.3462418019771576,
        0.22915899753570557,
        -0.5566821694374084,
        -0.2710321843624115,
        0.20284873247146606,
        -0.0017098025418817997,
        0.733111560344696,
        0.41613274812698364,
        0.12746372818946838,
        -0.1871737390756607,
        -1.10984206199646,
        -0.4847107529640198,
        0.07084499299526215,
        -1.0536601543426514,
        -0.03649556264281273,
        -1.0073983669281006,
        0.3295106291770935,
        -0.23836831748485565,
        0.19900675117969513,
        -0.42211484909057617,
        0.7507733106613159,
        0.6582799553871155,
