{
  "layers": [
    "RELU",
    "RECTIFIED_TANH"
  ],
  "inputsByLayer": [
    38,
    30
  ],
  "outputsByLayer": [
    30,
    1
  ],
  "weightsByLayerNeuronAndInput": [
    [
      [
        -6.485050363380651E-8,
        -7.516069899793365E-8,
        7.433943949308741E-8,
        7.002653745757925E-8,
        6.837143473603646E-8,
        6.742513392055116E-8,
        -7.30001374904532E-8,
        7.87704834692704E-8,
        -8.287673836093745E-8,
        -7.494290343856846E-8,
        -7.267253465670365E-8,
        7.93382781694163E-8,
        7.191005835238684E-8,
        7.965802240050834E-8,
        7.272423374615755E-8,
        7.597092377409354E-8,
        6.468033575401932E-8,
        -7.430539739061714E-8,
        6.296235710578912E-8,
        -7.871098262057785E-8,
        7.546482549969369E-8,
        7.43273247394427E-8,
        -6.709115751846184E-8,
        7.868330698102E-8,
        -7.967466331137985E-8,
        -8.164194298387883E-8,
        6.50716174277477E-8,
        6.701137067466334E-8,
        6.820184239586524E-8,
        -8.299338816186719E-8,
        6.94119464128562E-8,
        8.04497162221196E-8,
        -0.027376651763916016,
        -8.08278386443817E-8,
        6.616328818154216E-8,
        -7.3595231242507E-8,
        8.289019604035275E-8,
        -6.313035783023224E-8
      ],
      [
        -7.925650891138503E-8,
        -8.290287212275871E-8,
        -7.702406890075508E-8,
        7.066379481557306E-8,
        -6.632276949858351E-8,
        8.235226545139085E-8,
        7.938643165061876E-8,
        -8.291617348277214E-8,
        8.147773655764468E-8,
        7.994095341246066E-8,
        -8.110245630632562E-8,
        6.57202363640863E-8,
        8.024785813631752E-8,
        7.230196530372268E-8,
        7.547958347231543E-8,
        -8.259878825356282E-8,
        -6.513059958024314E-8,
        7.267610158123716E-8,
        -7.81523965542874E-8,
        6.756201997859534E-8,
        7.829141424053887E-8,
        -8.200611745223796E-8,
        -8.116159477822293E-8,
        6.754270742703739E-8,
        -6.58970549238802E-8,
        -7.797871148795821E-8,
        6.714294187304404E-8,
        -7.228440068729469E-8,
        6.539945474060005E-8,
        -7.874263729945596E-8,
        -8.20432646264635E-8,
        8.265715933930551E-8,
        -7.486602981998658E-8,
        7.789147815628894E-8,
        7.329738593853108E-8,
        -7.663241063937676E-8,
        8.028965226003493E-8,
        -7.408290514376858E-8
      ],
      [
        -0.027636200189590454,
        0.05153675749897957,
        0.008692829869687557,
        0.31177079677581787,
        0.006973981857299805,
        0.0046211788430809975,
        0.0010965941473841667,
        0.008474564179778099,
        0.014028717763721943,
        0.005169498734176159,
        -3.658692294266075E-4,
        0.007931862957775593,
        0.012241574004292488,
        0.004661025479435921,
        -9.788768365979195E-4,
        0.00830779131501913,
        0.012375100515782833,
        0.0046414644457399845,
        -4.1439940105192363E-4,
        0.007669891696423292,
        0.01324793417006731,
        0.004492482170462608,
        -3.452732926234603E-5,
        0.007294999435544014,
        -0.013611574657261372,
        -0.005077312234789133,
        -3.6639845347963274E-4,
        -0.0026203792076557875,
        1.2609264558705036E-5,
        3.1207434949465096E-4,
        -0.0037709202151745558,
        0.06043587252497673,
        -0.01049535907804966,
        -0.009095242246985435,
        -0.0016786669148132205,
        -9.115522698266432E-5,
        -0.0017806413816288114,
        -1.7018051585182548E-4
      ],
      [
        -8.21139352069622E-8,
        7.450381644957815E-8,
        7.375780342044891E-8,
        -6.783449890690463E-8,
        -6.89331400849369E-8,
        -7.956896297400817E-8,
        -8.148597885337949E-8,
        -8.307691956588314E-8,
        6.923630735400366E-8,
        -6.895864146372332E-8,
        7.652949562952926E-8,
        6.56020233691379E-8,
        -8.153891428719362E-8,
        -6.878809699628619E-8,
        6.29234477855789E-8,
        6.571019639523001E-8,
        6.369918281734499E-8,
        7.7351778315915E-8,
        8.289179476150821E-8,
        7.78352600150356E-8,
        7.14344423613511E-8,
        6.643377759019131E-8,
        -6.612920344650774E-8,
        8.056594680283524E-8,
        -7.29022175960381E-8,
        -6.286987996872995E-8,
        -6.86251340198396E-8,
        7.028875614878416E-8,
        6.667897878287476E-8,
        7.397979828738244E-8,
        6.436798116737918E-8,
        -7.605250118558615E-8,
        -6.572692967665716E-8,
        7.452588590695086E-8,
        -7.989725503421141E-8,
        -7.774868748811059E-8,
        7.620941033792406E-8,
        7.90964875818645E-8
      ],
      [
        8.247918970027968E-8,
        8.239680937549565E-8,
        7.922555056438796E-8,
        7.677243019088564E-8,
        -7.89358054475997E-8,
        8.309886823099077E-8,
        -6.448162537253666E-8,
        -8.081888580591112E-8,
        -7.099267662624698E-8,
        6.816861031211374E-8,
        -6.495177018450704E-8,
        -8.059499378987312E-8,
        7.71429000678836E-8,
        7.997432760475931E-8,
        -8.072885293586296E-8,
        -8.257571693093269E-8,
        -6.39820143533143E-8,
        -8.158715303352437E-8,
        7.992380801624677E-8,
        -7.875559049352887E-8,
        7.750805508521807E-8,
        6.442785149829433E-8,
        -7.136267043961197E-8,
        -7.730098161573551E-8,
        -6.778243744065549E-8,
        7.48209458834026E-8,
        8.11598752648024E-8,
        7.03060933915367E-8,
        -7.167428606180692E-8,
        6.491075055237161E-8,
        6.667598029252986E-8,
        6.427751486626221E-8,
        7.739140528428834E-8,
        -6.357614523722077E-8,
        -7.318837447201076E-8,
        7.73239250406732E-8,
        -7.708616323043316E-8,
        -8.031475573488933E-8
      ],
      [
        -7.312116423463522E-8,
        -7.026916648555925E-8,
        7.001928281624714E-8,
        -7.766823273414047E-8,
        6.466529356430328E-8,
        -6.318038003882975E-8,
        -7.864891671260921E-8,
        8.003223683772376E-8,
        8.135140916465389E-8,
        -6.345754854919505E-8,
        -8.010505325728445E-8,
        7.25838731341355E-8,
        -7.583287953139006E-8,
        6.946932273876882E-8,
        6.570367361291574E-8,
        7.290745429600065E-8,
        -8.229338277487841E-8,
        6.928626561375495E-8,
        7.624667119898731E-8,
        -8.243031146548674E-8,
        -7.101225918404452E-8,
        -7.935273771408902E-8,
        -6.467121949071952E-8,
        -6.486830983476466E-8,
        7.222269715612128E-8,
        -6.862991597245127E-8,
        -6.907066563144326E-8,
        7.540685231788302E-8,
        -7.581235195175395E-8,
        -7.314995542628822E-8,
        8.21926988692212E-8,
        -7.269152035860316E-8,
        -6.604117430697443E-8,
        -6.260835050397873E-8,
        -7.314497452171054E-8,
        6.340691527384479E-8,
        6.306164124225688E-8,
        -7.99932493578126E-8
      ],
      [
        -7.815116020992718E-8,
        -8.24494890139249E-8,
        7.730447038056809E-8,
        8.114206195841689E-8,
        -6.309210931476628E-8,
        -7.173866833909415E-8,
        8.230654202634469E-8,
        6.930844165253802E-8,
        8.133056894621404E-8,
        -6.762983417729629E-8,
        8.220475677944705E-8,
        8.285237385052824E-8,
        7.487277287054894E-8,
        8.228634129636703E-8,
        7.74065611608421E-8,
        8.215724278670677E-8,
        -7.647710020819432E-8,
        -6.597460355806106E-8,
        -7.24664630524785E-8,
        -7.171358618052182E-8,
        -7.183857775316937E-8,
        -8.321876521222293E-8,
        -8.272878204707013E-8,
        -6.509028338541611E-8,
        -6.313977962690842E-8,
        7.900492704493445E-8,
        7.551937386551799E-8,
        7.472670660035874E-8,
        -6.34011314559757E-8,
        -6.780510375392623E-8,
        -7.872679219644851E-8,
        -7.603573948244957E-8,
        7.428707959888925E-8,
        6.341662839304263E-8,
        -8.038262677700914E-8,
        -7.251176015188321E-8,
        7.152114989139591E-8,
        8.0245463607298E-8
      ],
      [
        -7.75646284978393E-8,
        -7.064582518978568E-8,
        6.821228737408092E-8,
        -7.389667899815322E-8,
        -7.915858191154257E-8,
        7.368333143631389E-8,
        -7.451184558249224E-8,
        7.998202278258759E-8,
        6.983606226640404E-8,
        6.453291234720382E-8,
        7.5185980108472E-8,
        -6.35520578384785E-8,
        -7.813110869392403E-8,
        7.096722498545205E-8,
        -7.474946528418513E-8,
        6.569126043132201E-8,
        7.267355073281578E-8,
        6.350760628492935E-8,
        8.132207085509435E-8,
        7.967984316792354E-8,
        7.782677613477063E-8,
        -6.380433603681013E-8,
        6.303005761765235E-8,
        -7.59697726948616E-8,
        -7.737125429230218E-8,
        -7.885977737487337E-8,
        8.243070226399141E-8,
        6.5877181043561E-8,
        -7.509092370128201E-8,
        -7.494976017596855E-8,
        -6.422932585792296E-8,
        -8.07086522058853E-8,
        6.763259108311104E-8,
        -7.850663052977325E-8,
        -7.27960198787514E-8,
        -6.850638811783938E-8,
        7.779335220448047E-8,
        -7.314497452171054E-8
      ],
      [
        -7.431225412801723E-8,
        -6.759333359696029E-8,
        6.743164249201072E-8,
        6.652475548207804E-8,
        -8.042186294687781E-8,
        -6.93399186957322E-8,
        -6.49801492613733E-8,
        -6.760091508795085E-8,
        7.995525663773151E-8,
        7.402768176234531E-8,
        7.787635070144461E-8,
        -7.49529860399889E-8,
        -8.156040820495036E-8,
        -6.485505110731538E-8,
        -7.305131788371E-8,
        -8.30788877692612E-8,
        -6.285383591375648E-8,
        -6.415064035536489E-8,
        -6.305649691284998E-8,
        -7.045947114647788E-8,
        -7.40552508204928E-8,
        -7.631747678260581E-8,
        -7.437720483949306E-8,
        7.92160577134382E-8,
        -7.02606612890122E-8,
        -8.245066140943891E-8,
        6.426149212757082E-8,
        -7.601870066764604E-8,
        -7.550873704076366E-8,
        -7.381279942819674E-8,
        -8.130110984438943E-8,
        7.895691567227914E-8,
        -7.763129161730831E-8,
        -6.531871576953563E-8,
        7.666559298513675E-8,
        8.265764961379318E-8,
        -7.536394264207047E-8,
        -7.571104276848928E-8
      ],
      [
        -6.908791050364016E-8,
        6.458751045101963E-8,
        -7.437090232542687E-8,
        7.835957660518034E-8,
        -6.74509692544234E-8,
        -5.8959443549611024E-8,
        6.734224200499739E-8,
        -6.54090825946696E-8,
        -7.00814979381903E-8,
        -6.939948349327096E-8,
        -6.336720304034316E-8,
        7.002076074513752E-8,
        -8.303020848643428E-8,
        7.55176117195333E-8,
        8.069247314779204E-8,
        -8.085958569381546E-8,
        6.814715902692114E-8,
        -7.33077385461911E-8,
        6.583611877886142E-8,
        7.711604865789923E-8,
        6.552347997512697E-8,
        -7.257233392010676E-8,
        -7.970606930030044E-8,
        -6.609151625980303E-8,
        7.764776910335058E-8,
        -8.119006622564484E-8,
        -7.17981194497952E-8,
        -6.599715618449409E-8,
        6.021178933224292E-8,
        8.13158109735923E-8,
        7.210988428596465E-8,
        -7.07448322145865E-8,
        -6.242127170708045E-8,
        -7.68352990121457E-8,
        -6.631226767694898E-8,
        6.465934632160497E-8,
        -7.056989659304236E-8,
        -6.480438941025568E-8
      ],
      [
        7.664039003429934E-8,
        7.483703967636757E-8,
        -6.384001238757264E-8,
        -6.525216633690434E-8,
        6.499862337250306E-8,
        -7.256510770048408E-8,
        7.012845060216932E-8,
        -7.491527753700211E-8,
        -6.803392693655042E-8,
        -6.500521010366356E-8,
        -7.834901083469958E-8,
        6.755334425179171E-8,
        8.124359851535701E-8,
        7.655069822476435E-8,
        -6.844044975196084E-8,
        7.327114559529946E-8,
        -7.138445567989038E-8,
        -7.283424707793529E-8,
        7.187268380448586E-8,
        6.410331820916326E-8,
        -7.987534189624057E-8,
        6.967295718141031E-8,
        7.859633655016296E-8,
        -6.327924495508341E-8,
        7.642625377002332E-8,
        6.755000470093364E-8,
        -7.94347556620778E-8,
        8.250024308154025E-8,
        8.281009655775051E-8,
        6.993163736979113E-8,
        -7.249603584114084E-8,
        7.042638827670089E-8,
        7.268835844342902E-8,
        6.330008517352326E-8,
        7.516335642776539E-8,
        8.086831826403795E-8,
        7.269228063933042E-8,
        -7.508180033255485E-8
      ],
      [
        6.597735335844845E-8,
        -7.742946905864301E-8,
        6.365524995999294E-8,
        -6.69405224584807E-8,
        7.79335991296648E-8,
        7.742348628880791E-8,
        -7.133594692732004E-8,
        -6.753234060852265E-8,
        7.21020327887345E-8,
        -6.287958598250043E-8,
        -8.284585817364132E-8,
        -7.633425980202446E-8,
        -8.298843567899894E-8,
        6.397751661779694E-8,
        6.811426089825545E-8,
        -8.079608448952058E-8,
        -7.921776301600403E-8,
        -7.49137711864023E-8,
        8.248754568285221E-8,
        -7.118370604075608E-8,
        8.079365443336428E-8,
        7.990891504050524E-8,
        -8.055418732055841E-8,
        8.2534135970036E-8,
        -6.572628308276762E-8,
        -7.348518238359247E-8,
        7.481035879663978E-8,
        -7.856449713017355E-8,
        -8.05039306328581E-8,
        7.852818129094885E-8,
        -7.269103718954284E-8,
        7.088608100502825E-8,
        -6.912937067227176E-8,
        6.91908681460518E-8,
        -7.675696167552815E-8,
        7.845573435361075E-8,
        -6.894928361589336E-8,
        -6.935398033647289E-8
      ],
      [
        -2.646753091539722E-5,
        0.009189165197312832,
        4.596578946802765E-6,
        1.903482734633144E-5,
        0.013087164610624313,
        2.0558468349918257E-6,
        -6.2346884988073725E-6,
        3.737618317245506E-5,
        1.2918292668473441E-5,
        2.282493142047315E-6,
        -5.682878054358298E-6,
        6.72378246235894E-6,
        2.4213600227085408E-6,
        1.6590791346970946E-5,
        -0.0015039523132145405,
        8.775981768849306E-6,
        1.0085650501423515E-6,
        4.61532617919147E-5,
        -3.851009751087986E-5,
        5.626210167974932E-6,
        6.25769757789385E-7,
        1.6880774182936875E-6,
        -1.133037767431233E-5,
        5.549478373723105E-6,
        0.07715749740600586,
        0.019024617969989777,
        -5.862045327376109E-6,
        -1.44604348406574E-6,
        -5.362192950997269E-6,
        1.1057911706302548E-6,
        1.019078240460658E-6,
        -3.108406190222013E-6,
        -5.602261517196894E-4,
        -1.2849011454818537E-6,
        -3.128130856566713E-6,
        -9.443997441849206E-6,
        -0.003934408538043499,
        -0.04596491530537605
      ],
      [
        -7.332394602599379E-8,
        6.887218262363604E-8,
        7.603254204013865E-8,
        8.085091707243919E-8,
        7.922146494365734E-8,
        8.273851648255004E-8,
        -7.633710907839486E-8,
        -6.596246038270692E-8,
        -6.919508166447486E-8,
        7.121210643390441E-8,
        6.572665256499022E-8,
        -6.845604616501078E-8,
        7.286254088967326E-8,
        -7.726990247647336E-8,
        -7.376510779977252E-8,
        7.478497110469107E-8,
        -6.39266275470618E-8,
        -7.230512011346946E-8,
        7.498354648305394E-8,
        -7.981064698014961E-8,
        7.399132329055647E-8,
        6.728271273459541E-8,
        -6.657734274995164E-8,
        6.33250820669673E-8,
        -6.193523915953847E-8,
        2.193137760286845E-8,
        -6.726722290295584E-8,
        -7.182717354226043E-8,
        6.418288478471368E-8,
        4.2080706919023214E-8,
        7.747201635766032E-8,
        6.500597038439082E-8,
        -5.965041793842829E-8,
        -8.313884336530464E-8,
        -8.039793186753741E-8,
        8.241829618782504E-8,
        7.062184437245378E-8,
        -6.834686416823388E-8
      ],
      [
        6.902605065306489E-8,
        6.956432230253995E-8,
        6.796877016768121E-8,
        -8.331586087706455E-8,
        6.425386800401611E-8,
        6.405541341791832E-8,
        6.624023285439762E-8,
        6.476885516804032E-8,
        6.360868098909123E-8,
        -7.942291091467268E-8,
        -7.236462806758936E-8,
        8.180149535519377E-8,
        8.133434192814093E-8,
        -7.713121163988035E-8,
        -7.268835844342902E-8,
        6.460974333322156E-8,
        -7.567907545080743E-8,
        7.81114053438614E-8,
        6.542246211438396E-8,
        -7.909039112519167E-8,
        -6.720608780597104E-8,
        -6.735411517411194E-8,
        8.243927851481203E-8,
        -7.857716610715215E-8,
        -7.284153724640419E-8,
        -7.78852680127784E-8,
        8.040162668976336E-8,
        -7.652371891708754E-8,
        -6.756236814453587E-8,
        -8.11090785646229E-8,
        7.127838586029611E-8,
        -7.86540468311614E-8,
        -7.798458057095559E-8,
        6.674027019926143E-8,
        -6.932779683666013E-8,
        8.038160359546964E-8,
        -7.517519406974316E-8,
        -7.683403424607604E-8
      ],
      [
        7.029900928046118E-8,
        -7.145142433273577E-8,
        -6.31850483046037E-8,
        7.093806431157645E-8,
        6.700324206576624E-8,
        -7.221987630146032E-8,
        6.966918419948342E-8,
        -7.920910150005511E-8,
        6.254580853237712E-8,
        -6.696311061205051E-8,
        6.474236613485118E-8,
        -7.611701846599317E-8,
        -8.008770890910455E-8,
        7.14872996354643E-8,
        -7.268337753885135E-8,
        -8.092737147080697E-8,
        -7.475839680637364E-8,
        -6.288471610105262E-8,
        -6.779904992981756E-8,
        -8.329211453883545E-8,
        7.485319741817875E-8,
        8.20401311329988E-8,
        -7.467818363693368E-8,
        7.489753528489018E-8,
        -7.845174820886314E-8,
        -7.383485467471473E-8,
        -6.338068914146788E-8,
        7.36253298327938E-8,
        -6.38076755876682E-8,
        7.997584816621384E-8,
        -6.750831005319924E-8,
        6.569438681935935E-8,
        -7.850083250104944E-8,
        -8.230550463395048E-8,
        6.581471012623297E-8,
        6.416862419200697E-8,
        -7.070532603847823E-8,
        -6.744014768855777E-8
      ],
      [
        8.025823916568697E-8,
        -7.262514145622845E-8,
        -8.074258062151785E-8,
        -6.854811829271057E-8,
        -6.299576682522456E-8,
        -6.469387159313555E-8,
        -6.55059295695537E-8,
        8.09721285577325E-8,
        -7.575286531391612E-8,
        6.592306078800902E-8,
        -6.726595103145883E-8,
        6.82976235566457E-8,
        6.996370416345599E-8,
        -7.694576709127432E-8,
        7.178046246281156E-8,
        -6.927693618763442E-8,
        6.639702121447044E-8,
        -6.690884646332051E-8,
        -6.9153060167082E-8,
        -7.121882106275734E-8,
        7.72888668620908E-8,
        -7.00849653867408E-8,
        7.915273414482726E-8,
        6.263160656772015E-8,
        -7.827377146440995E-8,
        -6.585093359490202E-8,
        -8.249097760426594E-8,
        -8.134543350024614E-8,
        -7.305258264977965E-8,
        7.348496922077175E-8,
        -8.024041875387411E-8,
        -8.022377784300261E-8,
        8.19965748632967E-8,
        7.797573431389537E-8,
        -7.671786761420663E-8,
        6.287787357450725E-8,
        8.115456040513891E-8,
        6.707520583404403E-8
      ],
      [
        7.081094821614897E-8,
        6.938165597603074E-8,
        7.144537761405445E-8,
        6.262961704806003E-8,
        7.552608849437092E-8,
        6.766325100215909E-8,
        -8.036090548557695E-8,
        6.802271457218012E-8,
        -6.55236931379477E-8,
        8.141685015061739E-8,
        7.758458053785944E-8,
        6.472617286590321E-8,
        -6.833371202219496E-8,
        7.987166839029669E-8,
        6.711617572818795E-8,
        6.459070078790319E-8,
        6.719401568489047E-8,
        6.622874337836038E-8,
        -8.025683229107017E-8,
        -7.918909972204347E-8,
        -6.261462459633549E-8,
        -6.563426069305933E-8,
        7.8601324560168E-8,
        -7.338690011238214E-8,
        -6.516641803955281E-8,
        7.267577473157871E-8,
        7.014060088295082E-8,
        6.358532544936679E-8,
        -8.157827835475473E-8,
        6.551423581413474E-8,
        -6.388413709146334E-8,
        -7.319925998672261E-8,
        -6.841287358838599E-8,
        -6.379541162004898E-8,
        -8.298201947809503E-8,
        6.394600404746598E-8,
        -8.024861131161742E-8,
        6.637981186941033E-8
      ],
      [
        6.68307720275152E-8,
        -7.306303473342268E-8,
        -6.741552027733633E-8,
        6.911777461482416E-8,
        -7.260445755719047E-8,
        6.717718292748032E-8,
        -6.556103926413925E-8,
        7.398548973469588E-8,
        8.008549201576898E-8,
        7.349139963253037E-8,
        6.742627078892838E-8,
        7.889001807370732E-8,
        6.451267609008937E-8,
        -7.94284389371569E-8,
        -7.692725745300777E-8,
        8.209678270532095E-8,
        7.656373668396554E-8,
        8.163161169250088E-8,
        -6.459568169248087E-8,
        6.885692016567191E-8,
        -7.017200687187142E-8,
        7.87520662015595E-8,
        -6.450877521047005E-8,
        7.142421054595616E-8,
        -7.294683967984383E-8,
        -6.482189718326481E-8,
        8.309392995897724E-8,
        -6.58121734886663E-8,
        7.504269916580597E-8,
        7.787292588545824E-8,
        -6.40268922325049E-8,
        8.119312866483597E-8,
        6.81683332004468E-8,
        8.307896592896213E-8,
        7.120917899783308E-8,
        7.501629539774513E-8,
        7.940990798260827E-8,
        -7.763131293359038E-8
      ],
      [
        -8.167631193600755E-8,
        -7.965513759700116E-8,
        -7.398726609153528E-8,
        7.471199126030115E-8,
        -6.671477592590236E-8,
        8.14001239746176E-8,
        6.434038368752226E-8,
        -7.62545511179269E-8,
        6.416917841534087E-8,
        6.798113361128344E-8,
        -6.943322716779221E-8,
        -6.699670507259725E-8,
        7.713505567608081E-8,
        7.1693243341997E-8,
        -7.79735174205598E-8,
        -7.118836720110266E-8,
        -6.745650438233497E-8,
        -7.138716995314098E-8,
        -7.739179608279301E-8,
        -0.026532292366027832,
        -7.525896705828927E-8,
        7.481011010668226E-8,
        6.440732391865822E-8,
        -6.759439230563657E-8,
        -6.334969526733403E-8,
        7.657496325919055E-8,
        -7.000591040196014E-8,
        -8.266681561508449E-8,
        7.622457331990518E-8,
        8.060127498765723E-8,
        7.84046960689011E-8,
        -6.713386113688102E-8,
        -7.269944291010688E-8,
        8.080957769607267E-8,
        7.085672137918664E-8,
        6.490678572390607E-8,
        -7.70378747461109E-8,
        -6.57419221283817E-8
      ],
      [
        7.453982675542647E-8,
        7.249095546058015E-8,
        -6.54478782280421E-8,
        6.870186552987434E-8,
        -7.169534654849485E-8,
        8.13003282473801E-8,
        7.621596864737512E-8,
        -7.933090984124647E-8,
        -8.264306217142803E-8,
        -7.315780692351836E-8,
        8.202346180041786E-8,
        7.540104718373186E-8,
        6.39084447584537E-8,
        7.560085890645496E-8,
        7.709056148996751E-8,
        7.081304431721946E-8,
        7.959236825172411E-8,
        7.940092672242827E-8,
        8.200686352211051E-8,
        -7.302136140197035E-8,
        7.183973593782866E-8,
        7.198184448498068E-8,
        -8.14299028206733E-8,
        6.565230137312028E-8,
        -7.118989486798455E-8,
        -6.502176574940677E-8,
        -7.113000322078733E-8,
        7.700032966795334E-8,
        -7.466337592632044E-8,
        -6.905132465817587E-8,
        -6.567108101762642E-8,
        -8.19965748632967E-8,
        -8.066150769536762E-8,
        7.034379478909614E-8,
        -6.58808829712143E-8,
        -7.420452163842128E-8,
        -6.658191864516994E-8,
        -7.268337753885135E-8
      ],
      [
        6.429374366234697E-8,
        8.078557556245869E-8,
        7.461334661229557E-8,
        6.829042575873245E-8,
        -7.896096576587297E-8,
        7.002053337146208E-8,
        -6.821020548386514E-8,
        7.115724542927637E-8,
        7.971345894475235E-8,
        -8.052209921061149E-8,
        6.277681308120009E-8,
        -7.770294274678236E-8,
        -7.924720790697393E-8,
        -6.632736671008388E-8,
        -6.759454862503844E-8,
        -6.679664465991664E-8,
        -6.885449010951561E-8,
        6.869978363965856E-8,
        -8.180651178690823E-8,
        -6.667891483402855E-8,
        7.310702443419359E-8,
        -7.877007135448366E-8,
        7.952470326699768E-8,
        7.892086983929403E-8,
        -7.149158420816093E-8,
        -6.613895209284237E-8,
        -7.31893905481229E-8,
        7.13897989612633E-8,
        7.912394295317426E-8,
        -7.570977800241963E-8,
        -7.19431128004544E-8,
        -7.501544274646221E-8,
        6.480518521811973E-8,
        -6.571066535343562E-8,
        -6.840696187282447E-8,
        8.305426035803976E-8,
        -7.836776916292365E-8,
        -7.149320424559846E-8
      ],
      [
        -6.875705338416083E-8,
        -6.94414410418176E-8,
        -7.010468294765815E-8,
        6.331114121849168E-8,
        -7.504151255943725E-8,
        7.770289300879085E-8,
        8.019925701319153E-8,
        -7.442554306180682E-8,
        8.014927743715816E-8,
        8.281402585907927E-8,
        7.58919966870053E-8,
        6.296400556493609E-8,
        -6.527205442807826E-8,
        -8.060186473812792E-8,
        7.940560919905693E-8,
        6.40983017774488E-8,
        6.873116120686973E-8,
        -7.149072445145066E-8,
        7.496367970816209E-8,
        -7.49188160398262E-8,
        -7.521607159333143E-8,
        -7.14933321432909E-8,
        6.54244161069073E-8,
        6.328781410047668E-8,
        8.207959467654291E-8,
        6.819644227107347E-8,
        -8.223560854503376E-8,
        6.540209085414972E-8,
        -6.904653560013685E-8,
        -7.24183664146949E-8,
        7.89509400078714E-8,
        8.022474418112324E-8,
        -6.87014534150876E-8,
        6.747128367123878E-8,
        -6.522765261252061E-8,
        -6.869747437576734E-8,
        -8.161274678286645E-8,
        6.398133933771533E-8
      ],
      [
        8.251083016830307E-8,
        6.724196310869957E-8,
        7.079248831587392E-8,
        -7.745028796080078E-8,
        7.496564791154015E-8,
        -8.324333578002552E-8,
        -7.475631491615786E-8,
        8.317838506854969E-8,
        -8.19965748632967E-8,
        7.314497452171054E-8,
        6.700178545315794E-8,
        -6.736372171189942E-8,
        7.626603348853678E-8,
        -6.733708346473577E-8,
        7.416996083975391E-8,
        7.26984339394221E-8,
        -7.850889716110032E-8,
        7.27038127479318E-8,
        6.595999479941383E-8,
        7.520555556084219E-8,
        8.046826138752294E-8,
        6.718867950894492E-8,
        -6.910366323609196E-8,
        8.230090031702275E-8,
        6.632410531892674E-8,
        7.859370754204065E-8,
        -6.564113164131413E-8,
        -6.57796448422232E-8,
        -7.335519569551252E-8,
        7.06503797687219E-8,
        6.71896529524929E-8,
        -6.414528996856461E-8,
        7.700352711026426E-8,
        6.353091208666228E-8,
        7.832933590634639E-8,
        -6.523490725385273E-8,
        7.690002234994608E-8,
        -7.094568843513116E-8
      ],
      [
        6.79619347465632E-8,
        8.159882725067291E-8,
        7.739890151015061E-8,
        7.765394371972434E-8,
        7.674006496927177E-8,
        -7.981309124716063E-8,
        7.085900932679579E-8,
        7.539890134466987E-8,
        -6.326040846715841E-8,
        6.800276963758733E-8,
        7.640329613423091E-8,
        -7.985221373019158E-8,
        7.206541852156079E-8,
        -6.265768348612255E-8,
        7.961044445892185E-8,
        7.523242118168127E-8,
        7.915745925402007E-8,
        -7.341202490351861E-8,
        -6.287091736112416E-8,
        -7.090849862834148E-8,
        7.165679960507987E-8,
        7.270311641605076E-8,
        -7.394084633460807E-8,
        -6.938314811577584E-8,
        -6.330783008934304E-8,
        7.4783976344861E-8,
        -8.249979543961672E-8,
        -6.572140875960031E-8,
        7.52874527165659E-8,
        -8.044607824331251E-8,
        7.86853178169622E-8,
        -6.327638857328566E-8,
        -6.629073823205545E-8,
        -6.277314668068357E-8,
        6.338424896057404E-8,
        -7.28046671838456E-8,
        -7.883794950203082E-8,
        7.084483399921737E-8
      ],
      [
        -7.894900733163013E-8,
        7.217895614530789E-8,
        6.591670853595133E-8,
        6.78700473599747E-8,
        -7.082659436719041E-8,
        -6.986279288412334E-8,
        -6.404481922572813E-8,
        -7.843753024872058E-8,
        -7.123309586631876E-8,
        7.853144978753335E-8,
        6.48006661663203E-8,
        6.580566491720674E-8,
        8.086811220664458E-8,
        -7.00357958294262E-8,
        6.478386893604693E-8,
        8.310857424476126E-8,
        8.057953237994298E-8,
        -8.150934860395864E-8,
        -8.265323714340411E-8,
        -7.320669226373866E-8,
        -7.402574198067668E-8,
        -7.523989609126147E-8,
        7.359351883451382E-8,
        -7.268337753885135E-8,
        8.24297643475802E-8,
        -7.449299488371253E-8,
        -7.065761309377194E-8,
        -7.045886007972513E-8,
        8.228477810234835E-8,
        -6.736467383916533E-8,
        -6.711613309562381E-8,
        7.816413472028216E-8,
        8.02257744680901E-8,
        6.264425422841668E-8,
        -7.930996304139626E-8,
        7.410863389623046E-8,
        -6.255120155174154E-8,
        -7.000323876127368E-8
      ],
      [
        9.487102943239734E-6,
        0.0198834128677845,
        0.004485832992941141,
        -0.2931702733039856,
        0.002625376684591174,
        5.502685598912649E-5,
        -0.0015333965420722961,
        0.002280479995533824,
        -0.005200901068747044,
        9.137822780758142E-5,
        -8.443431579507887E-5,
        5.450150347314775E-4,
        -0.0010805173078551888,
        2.2781627194490284E-4,
        4.129399258090416E-6,
        0.0019861117471009493,
        -2.0406421754159965E-5,
        9.586127125658095E-4,
        -4.0338894905289635E-5,
        0.002332705771550536,
        0.001513690804131329,
        4.1128703742288053E-4,
        -0.0010635931976139545,
        0.0029417413752526045,
        -7.69667053646117E-7,
        -0.005957883782684803,
        1.8100500165019184E-4,
        0.002862038090825081,
        0.0010174555936828256,
        -1.1804403766291216E-4,
        -1.5084877668414265E-4,
        -0.038947220891714096,
        -1.0458267752255779E-5,
        1.193870120914653E-4,
        0.004464685916900635,
        3.886077593051596E-6,
        1.199803373310715E-4,
        -1.6508546423210646E-6
      ],
      [
        -7.788689515564329E-8,
        6.443143973910992E-8,
        8.224405689816194E-8,
        -7.27519946508437E-8,
        7.832503712279504E-8,
        -7.327138717982962E-8,
        7.62166081358373E-8,
        7.094514131722462E-8,
        7.445854777188288E-8,
        -7.3934288025157E-8,
        8.328460410211846E-8,
        7.388850775669198E-8,
        6.714743250313404E-8,
        7.01017910387236E-8,
        7.920299083252758E-8,
        -7.243697552894446E-8,
        8.096467496443438E-8,
        7.640214505499898E-8,
        -7.770905341430989E-8,
        6.694319409916716E-8,
        -7.422488579322817E-8,
        6.260036400362878E-8,
        -6.993228396368067E-8,
        7.859840422952402E-8,
        6.49513083317288E-8,
        7.982252014926416E-8,
        7.686146830110374E-8,
        8.081219249334026E-8,
        6.857919032654536E-8,
        -7.70547501360852E-8,
        -7.651107836181836E-8,
        -8.056250777599416E-8,
        -6.304556166014663E-8,
        7.77658470951792E-8,
        -7.712997529552013E-8,
        -7.080201669396047E-8,
        -7.264858936650853E-8,
        -7.631587806145035E-8
      ],
      [
        7.67844525739747E-8,
        -7.034044102738335E-8,
        -7.564901949308478E-8,
        -7.109309052566459E-8,
        -7.381184019550346E-8,
        6.287509535241043E-8,
        -6.811177399868029E-8,
        -8.047925348364515E-8,
        8.123277694949138E-8,
        6.526356344238593E-8,
        7.904969123728733E-8,
        7.794610468181418E-8,
        7.996591477876791E-8,
        8.024996844824273E-8,
        7.824560555036442E-8,
        7.458967132834005E-8,
        -7.059280449084326E-8,
        -7.871214080523714E-8,
        6.449106138006755E-8,
        -7.997774531531832E-8,
        -7.040353011689149E-8,
        6.467953284072792E-8,
        -6.786179795881253E-8,
        -7.920110789427781E-8,
        6.699010413058204E-8,
        -6.379060124572788E-8,
        -6.815616870881058E-8,
        -7.200378604466096E-8,
        -8.124699490963394E-8,
        -7.502727328301262E-8,
        7.841639160233171E-8,
        7.976129978715107E-8,
        6.43867821281674E-8,
        -8.212406044094678E-8,
        8.235477366724808E-8,
        6.727552914753687E-8,
        8.139734575252078E-8,
        8.073021717791562E-8
      ],
      [
        7.732552376182866E-8,
        7.296876702866939E-8,
        -7.774596610943263E-8,
        -8.107014082270325E-8,
        -6.58230661088055E-8,
        -7.764395348885955E-8,
        7.223466269579149E-8,
        7.723265582626482E-8,
        8.259312522795881E-8,
        6.711889710686592E-8,
        7.83249589630941E-8,
        -8.146374597117756E-8,
        -6.906797977990209E-8,
        -7.310944027949517E-8,
        7.467515672487934E-8,
        7.906715637773232E-8,
        -8.120762373664547E-8,
        6.929532503363589E-8,
        7.915981115047543E-8,
        7.105636257165315E-8,
        7.594491080453736E-8,
        -6.357306148174757E-8,
        7.907996035783071E-8,
        -7.28478539713251E-8,
        -7.061478157766032E-8,
        6.638508409650967E-8,
        -6.42449720089644E-8,
        7.76517055101067E-8,
        -7.536788615425394E-8,
        -7.058883966237772E-8,
        7.808004909293231E-8,
        7.777065036407294E-8,
        -6.802943630646041E-8,
        7.53477493731225E-8,
        -7.047222538858477E-8,
        -7.042579142080285E-8,
        6.419540454771777E-8,
        8.269510942682246E-8
      ]
    ],
    [
      [
        3.0482794954878045E-8,
        7.222597275813314E-8,
        0.4828034043312073,
        -7.957628866961386E-8,
        -1.3679176902314794E-7,
        -7.867850371212626E-8,
        7.491296116768353E-8,
        7.272195290397576E-8,
        7.215005126681717E-8,
        -4.27402994773729E-7,
        8.221925895668392E-8,
        -4.407908704706642E-9,
        0.13656674325466156,
        -4.215435751575569E-7,
        8.214286850716235E-8,
        -8.303641152451746E-8,
        -8.118919225807986E-8,
        -7.96654546775244E-8,
        2.4157618128128888E-8,
        -5.972358962935687E-8,
        6.62498393921851E-8,
        -1.071670396868285E-7,
        7.700494109030842E-8,
        -7.451715333672837E-8,
        2.9253968136799813E-9,
        -6.652211936852837E-8,
        -0.34078627824783325,
        1.3124484610216314E-8,
        -2.795847109382521E-9,
        -6.329463531073998E-8
      ]
    ]
  ],
  "biasByLayerAndNeuron": [
    [
      0.005479133687913418,
      -0.0023544016294181347,
      0.21313562989234924,
      -8.202731260098517E-4,
      0.03014962002635002,
      -0.08843967318534851,
      0.0021558969747275114,
      -2.496339729987085E-4,
      -0.03544437512755394,
      0.057368457317352295,
      -0.05964922532439232,
      0.006284157279878855,
      0.007529754191637039,
      0.054869070649147034,
      -0.0011400100775063038,
      -0.04238618537783623,
      -0.00894239079207182,
      0.002975017298012972,
      0.019974330440163612,
      -0.01480268593877554,
      -0.11471658945083618,
      0.010609818622469902,
      -0.013197383843362331,
      -0.13774821162223816,
      0.007039039395749569,
      -0.0011194745311513543,
      -0.032091494649648666,
      0.022175509482622147,
      0.015466704964637756,
      0.0021158463787287474
    ],
    [
      0.07835852354764938
    ]
  ],
  "meansForInput": [
    0.5320667624473572,
    0.11545482277870178,
    0.8924266695976257,
    0.16782793402671814,
    0.5584165453910828,
    0.33501288294792175,
    0.645067036151886,
    0.2683984339237213,
    0.5235634446144104,
    0.34620174765586853,
    0.6400219202041626,
    0.274927020072937,
    0.48737967014312744,
    0.3317115604877472,
    0.6222030520439148,
    0.24342185258865356,
    0.4875198006629944,
    0.33224910497665405,
    0.5992473363876343,
    0.235883891582489,
    0.5020722150802612,
    0.3361724615097046,
    0.5894304513931274,
    0.23810116946697235,
    0.14680951833724976,
    0.1264767348766327,
    0.03978295624256134,
    0.3527369499206543,
    0.23326079547405243,
    0.04710536077618599,
    0.071916863322258,
    0.7582762241363525,
    0.08042460680007935,
    0.14123457670211792,
    0.3166961669921875,
    0.5394934415817261,
    0.7502408623695374,
    0.9127621054649353
  ],
  "stdForInput": [
    0.18493148684501648,
    0.19780918955802917,
    0.1843785047531128,
    0.2461608350276947,
    0.3833058476448059,
    0.3703220784664154,
    0.33210277557373047,
    0.2077954113483429,
    0.33794665336608887,
    0.33582934737205505,
    0.3141566216945648,
    0.2155134230852127,
    0.32216769456863403,
    0.3234947919845581,
    0.3073247969150543,
    0.21175627410411835,
    0.3206159472465515,
    0.3224909007549286,
    0.3036060929298401,
    0.21040219068527222,
    0.32870176434516907,
    0.32623761892318726,
    0.3055081367492676,
    0.20904813706874847,
    0.353913813829422,
    0.31903988122940063,
    0.18457870185375214,
    0.47782790660858154,
    0.3715117275714874,
    0.13047589361667633,
    0.22467456758022308,
    0.3191685080528259,
    0.06424914300441742,
    0.15651753544807434,
    0.22925551235675812,
    0.2861727476119995,
    0.2727724015712738,
    0.17860297858715057
  ]
}