{
  "layers": [
    "RECTIFIED_TANH",
    "RELU"
  ],
  "inputsByLayer": [
    38,
    30
  ],
  "outputsByLayer": [
    30,
    1
  ],
  "weightsByLayerNeuronAndInput": [
    [
      [
        -0.021242214366793633,
        -0.03911140188574791,
        -0.16318461298942566,
        0.12296274304389954,
        0.27274471521377563,
        0.053897466510534286,
        0.10737600922584534,
        -0.046970758587121964,
        0.06592422723770142,
        -0.04665499925613403,
        -0.17840152978897095,
        -0.3232598304748535,
        0.15018847584724426,
        0.00360705959610641,
        0.18411734700202942,
        -0.009822883643209934,
        -0.028436683118343353,
        -0.14872874319553375,
        0.11180910468101501,
        -0.02111434005200863,
        -0.14162717759609222,
        -0.04574429243803024,
        -0.06050312891602516,
        -0.11262734234333038,
        0.005843994207680225,
        0.139067143201828,
        0.01117831002920866,
        -0.2527726888656616,
        0.11923224478960037,
        0.11733566969633102,
        -0.16489729285240173,
        0.14400623738765717,
        0.020015744492411613,
        0.08197285234928131,
        -0.17456930875778198,
        0.16527791321277618,
        0.03021663799881935,
        0.07232308387756348
      ],
      [
        0.10454938560724258,
        -0.027194097638130188,
        -0.09607268124818802,
        -0.04142134264111519,
        0.08517394959926605,
        0.0521111786365509,
        0.2079733908176422,
        0.09036921709775925,
        0.029439562931656837,
        -0.1565207988023758,
        -0.08878938108682632,
        0.02618800848722458,
        -0.027851637452840805,
        -0.2540876567363739,
        0.007926072925329208,
        -0.0877312496304512,
        -0.22664062678813934,
        0.0731501579284668,
        -0.012050340883433819,
        -0.3441038429737091,
        0.053321536630392075,
        0.11533987522125244,
        0.05310412496328354,
        -0.1177719458937645,
        0.19001547992229462,
        -0.02013402059674263,
        -0.15297214686870575,
        -0.08701922744512558,
        0.09385430067777634,
        0.0740286335349083,
        0.0013737912522628903,
        -0.13733156025409698,
        -0.2730308473110199,
        0.29051482677459717,
        0.04160355031490326,
        -0.11514125019311905,
        -0.007960245013237,
        0.07727405428886414
      ],
      [
        -0.24875997006893158,
        -0.08881586045026779,
        -0.030414175242185593,
        -0.09910325706005096,
        -0.012061159126460552,
        -0.12383390218019485,
        0.16819146275520325,
        0.004553146660327911,
        -0.21624484658241272,
        -0.014619988389313221,
        -0.0629548728466034,
        0.011506130918860435,
        -0.03894971311092377,
        0.17612726986408234,
        0.07602214813232422,
        0.19224385917186737,
        -0.05445467680692673,
        -0.21025624871253967,
        -0.2363131195306778,
        -0.16335232555866241,
        0.1460687518119812,
        -0.009349789470434189,
        -0.05284344404935837,
        -0.17481449246406555,
        0.05737125128507614,
        0.051249001175165176,
        0.17621856927871704,
        0.04759867489337921,
        0.13635952770709991,
        0.11634716391563416,
        0.24876268208026886,
        7.49494880437851E-4,
        -0.1262827217578888,
        -0.011603311635553837,
        -0.12045376747846603,
        -0.27486956119537354,
        0.021732298657298088,
        -0.13892565667629242
      ],
      [
        0.10424179583787918,
        0.18457692861557007,
        -0.0785784050822258,
        0.12480228394269943,
        0.2347748875617981,
        0.07368950545787811,
        0.1491430401802063,
        -0.1198432520031929,
        0.05504914000630379,
        0.15304388105869293,
        5.030603497289121E-4,
        0.05003545805811882,
        0.03566155955195427,
        0.303577184677124,
        -0.05986440181732178,
        -0.021926216781139374,
        -0.1632065773010254,
        0.08245197683572769,
        -0.13527195155620575,
        0.09313616156578064,
        -0.24310746788978577,
        -0.10249669849872589,
        0.05146024748682976,
        -0.13741640746593475,
        -0.0996437817811966,
        -0.1617816984653473,
        0.026355234906077385,
        0.13362057507038116,
        -0.08934012800455093,
        0.2156175822019577,
        -0.10816802084445953,
        -0.17143751680850983,
        -0.2694292664527893,
        0.13890552520751953,
        -0.06767608225345612,
        0.25406041741371155,
        -0.05782398581504822,
        -0.09194177389144897
      ],
      [
        -0.0042113494127988815,
        0.010800127871334553,
        0.1460351198911667,
        -0.13301068544387817,
        0.2553147077560425,
        -0.030367081984877586,
        0.07198145240545273,
        0.009781424887478352,
        0.2465347945690155,
        0.0246786717325449,
        -0.0335405170917511,
        0.04192277789115906,
        -0.011133146472275257,
        0.00833824835717678,
        -0.0269464161247015,
        0.05514896288514137,
        -0.037585653364658356,
        0.011311840265989304,
        0.04611628130078316,
        0.013437611982226372,
        0.10837016254663467,
        0.3055118918418884,
        0.1985231190919876,
        -0.16031067073345184,
        -0.06844215840101242,
        0.04074724018573761,
        -0.010654227808117867,
        -0.04217653349041939,
        -0.1705762892961502,
        -0.3309769630432129,
        -0.045997973531484604,
        0.10412274301052094,
        -0.015984615311026573,
        -0.006878699641674757,
        -0.039128419011831284,
        0.029176384210586548,
        -0.02035936713218689,
        -0.037908826023340225
      ],
      [
        0.14958423376083374,
        0.2474234253168106,
        0.020101502537727356,
        0.011691668070852757,
        0.06479517370462418,
        -0.07035935670137405,
        -0.1309679001569748,
        0.023655997589230537,
        -0.024907151237130165,
        0.04906703904271126,
        -0.011799552477896214,
        -0.060875605791807175,
        -0.12466418743133545,
        0.22064942121505737,
        0.008954851888120174,
        -0.05043398588895798,
        0.1192966103553772,
        0.10529955476522446,
        0.1850457638502121,
        -0.13089531660079956,
        -0.05801447480916977,
        0.19359152019023895,
        0.03848813846707344,
        0.10958782583475113,
        0.023644927889108658,
        -9.19677950150799E-6,
        -0.12203472852706909,
        0.21192342042922974,
        -0.0030700895003974438,
        -0.05596676468849182,
        0.21385768055915833,
        0.12095462530851364,
        0.027972275391221046,
        0.06314179301261902,
        0.11230514943599701,
        0.18639156222343445,
        0.0065867481753230095,
        -0.18484777212142944
      ],
      [
        0.06983423233032227,
        -0.09091920405626297,
        0.1629881113767624,
        -0.21335020661354065,
        0.06923849135637283,
        0.06788884848356247,
        0.20494601130485535,
        -0.06684064865112305,
        -0.00200336379930377,
        -0.01678428426384926,
        0.23023663461208344,
        -0.17210733890533447,
        -0.14880913496017456,
        -0.09895069897174835,
        -0.057402338832616806,
        0.0699797049164772,
        -0.21237756311893463,
        -0.14134785532951355,
        0.125454381108284,
        -0.06382329016923904,
        0.17780344188213348,
        -0.03367404639720917,
        -0.08020547032356262,
        -0.0390261635184288,
        0.14254027605056763,
        -0.04188694432377815,
        -0.03784005716443062,
        -0.1316363662481308,
        0.0736556127667427,
        0.014818629249930382,
        0.21004809439182281,
        0.045050036162137985,
        -0.0747697576880455,
        0.11000356823205948,
        0.3140871226787567,
        -0.014495384879410267,
        -0.13697481155395508,
        -0.10498879104852676
      ],
      [
        -0.10423383861780167,
        -0.04392858222126961,
        0.4275299310684204,
        0.019875390455126762,
        0.10772307217121124,
        0.03638245537877083,
        -0.03348734229803085,
        0.00913260132074356,
        0.0717996284365654,
        0.005192771088331938,
        -0.04277931526303291,
        -0.020806794986128807,
        0.04375743493437767,
        0.025082536041736603,
        -0.06900464743375778,
        0.013919519260525703,
        0.050743892788887024,
        0.050217464566230774,
        -0.050212036818265915,
        -0.016331948339939117,
        -0.024036241695284843,
        0.006065414287149906,
        -0.11542080342769623,
        0.12055973708629608,
        -0.014789342880249023,
        -0.0722663551568985,
        -0.08887436985969543,
        -0.08712685853242874,
        0.07077301293611526,
        -7.496418547816575E-4,
        0.035194601863622665,
        -0.0371822714805603,
        0.13647085428237915,
        -0.036182701587677,
        -0.00887374859303236,
        -0.013311630114912987,
        0.008173358626663685,
        -0.005959896370768547
      ],
      [
        0.05645820125937462,
        -0.06964901089668274,
        -0.016560092568397522,
        -0.06721902638673782,
        0.014507990330457687,
        0.034224677830934525,
        -0.02714003250002861,
        0.051596105098724365,
        0.2998770773410797,
        -0.07764389365911484,
        -0.06328418105840683,
        0.03529394418001175,
        0.04138364642858505,
        -0.012029326520860195,
        0.054954830557107925,
        0.04868777096271515,
        0.13154087960720062,
        -0.038827087730169296,
        -0.05144708231091499,
        0.1010509505867958,
        -0.13633286952972412,
        0.06342367827892303,
        -0.19513598084449768,
        0.15896034240722656,
        -0.012222740799188614,
        -0.08569521456956863,
        -0.17996324598789215,
        0.006804170552641153,
        0.02478782646358013,
        0.15627829730510712,
        0.0638069212436676,
        0.13437801599502563,
        -0.00980653241276741,
        0.031659405678510666,
        0.1264677494764328,
        -0.12331647425889969,
        -0.09129108488559723,
        0.06112967059016228
      ],
      [
        -0.026160279288887978,
        -0.15024206042289734,
        -0.2630115747451782,
        -0.0015184240182861686,
        -0.1876576691865921,
        0.2022264003753662,
        0.17527927458286285,
        -0.040562454611063004,
        0.014734853990375996,
        0.07883180677890778,
        0.04879996180534363,
        0.021862264722585678,
        0.09034891426563263,
        -0.07175789773464203,
        0.10513380914926529,
        -0.06051865965127945,
        0.016580991446971893,
        0.13383063673973083,
        0.06588773429393768,
        -0.061155397444963455,
        0.024333283305168152,
        -0.028649138286709785,
        0.03804754093289375,
        0.2669900357723236,
        -0.19478052854537964,
        -0.14031343162059784,
        -0.17417390644550323,
        -0.15163779258728027,
        0.04584338515996933,
        -0.07947741448879242,
        -0.014120172709226608,
        -0.19296197593212128,
        -0.13521239161491394,
        -0.00816241092979908,
        0.040539681911468506,
        -0.029045846313238144,
        0.018460175022482872,
        0.11071942001581192
      ],
      [
        -0.021956253796815872,
        -0.0999365821480751,
        -0.10894367843866348,
        -0.042843978852033615,
        -0.20042844116687775,
        -0.22569231688976288,
        -0.08771243691444397,
        0.017466239631175995,
        -0.03701702132821083,
        0.041599370539188385,
        -0.01852709800004959,
        0.14196240901947021,
        -0.21617655456066132,
        -0.20330947637557983,
        0.003101506270468235,
        0.1991107314825058,
        -0.1257004737854004,
        -0.12048665434122086,
        0.11175372451543808,
        0.10351859033107758,
        0.047708652913570404,
        -0.024103224277496338,
        -0.1368662267923355,
        0.02524561434984207,
        0.22908340394496918,
        0.025066467002034187,
        -0.05689958110451698,
        -0.03909561410546303,
        0.12434637546539307,
        0.15938222408294678,
        9.682271629571915E-4,
        -0.0018545439234003425,
        -0.16673025488853455,
        0.10903748869895935,
        -0.007920617237687111,
        -0.048246338963508606,
        0.05216767638921738,
        -0.1027589663863182
      ],
      [
        0.012472442351281643,
        -0.029947031289339066,
        -0.03957164287567139,
        -0.13839009404182434,
        -0.028080547228455544,
        0.08663824945688248,
        -0.006979558151215315,
        -0.028261259198188782,
        -0.053441695868968964,
        0.21526505053043365,
        0.07605765759944916,
        -0.10553616285324097,
        0.16023246943950653,
        0.08110356330871582,
        -0.2861172556877136,
        -0.016682138666510582,
        0.1342741847038269,
        -0.041828569024801254,
        0.22575896978378296,
        -0.22066614031791687,
        0.18402829766273499,
        0.10909388959407806,
        -0.011213112622499466,
        0.1082015261054039,
        0.13090063631534576,
        -0.06739379465579987,
        -0.22931374609470367,
        -0.06852858513593674,
        0.0030566174536943436,
        -0.18618308007717133,
        0.10037381201982498,
        -0.016200145706534386,
        0.07693280279636383,
        -0.23576010763645172,
        0.12951429188251495,
        0.10428740084171295,
        -0.050926677882671356,
        0.09280440211296082
      ],
      [
        0.019129859283566475,
        -0.1514100283384323,
        0.21960602700710297,
        -0.04879440367221832,
        0.06358431279659271,
        0.21624335646629333,
        -0.13213272392749786,
        -0.15145012736320496,
        -0.05293213576078415,
        -0.015143330208957195,
        0.17693454027175903,
        -0.08477983623743057,
        -0.15454721450805664,
        0.06568519026041031,
        0.2079867422580719,
        0.1220880001783371,
        -0.12428848445415497,
        -0.16351839900016785,
        -0.2591218054294586,
        0.013912809081375599,
        -0.1406601518392563,
        -0.08424551784992218,
        -0.22242975234985352,
        0.06103227660059929,
        0.04895225539803505,
        0.07859040796756744,
        0.0742393210530281,
        -0.10427503287792206,
        -0.04234172776341438,
        -0.06749419122934341,
        0.006089416798204184,
        -0.09827224910259247,
        -0.23054473102092743,
        0.0502522736787796,
        0.08675257116556168,
        -0.052726130932569504,
        -0.4249684512615204,
        -0.07947759330272675
      ],
      [
        -0.015797985717654228,
        -0.1734519749879837,
        0.24102051556110382,
        -0.052332378923892975,
        0.04617738723754883,
        -0.002637147204950452,
        -0.09226900339126587,
        -0.07822869718074799,
        -0.10878634452819824,
        0.05954643711447716,
        -0.1344224214553833,
        0.07615493983030319,
        0.08943509310483932,
        0.0045310030691325665,
        0.058182571083307266,
        -0.17254352569580078,
        -0.0644145980477333,
        -0.07537289708852768,
        -0.08828572928905487,
        -0.008304751478135586,
        0.024561947211623192,
        0.0784297063946724,
        0.12129203230142593,
        -0.09363901615142822,
        -0.12033732235431671,
        0.05777581408619881,
        0.09956113249063492,
        0.20141692459583282,
        -0.05838349834084511,
        0.0010334120597690344,
        -0.15238602459430695,
        0.0014952784404158592,
        0.11352923512458801,
        0.006371188443154097,
        -0.25603124499320984,
        -0.17895366251468658,
        -0.04541174694895744,
        -0.0379193015396595
      ],
      [
        0.11327068507671356,
        -0.07260085642337799,
        -0.11963659524917603,
        -0.002449991414323449,
        0.012999135069549084,
        -0.05557429790496826,
        -0.10962507128715515,
        0.20214881002902985,
        -0.08829528093338013,
        -0.13135552406311035,
        -0.009104395285248756,
        0.19768181443214417,
        0.20093175768852234,
        0.031248046085238457,
        -0.03683836758136749,
        -0.26284417510032654,
        0.029117673635482788,
        -0.2769359350204468,
        -0.13248774409294128,
        0.07479549199342728,
        -0.10648327320814133,
        0.11586879193782806,
        0.19034132361412048,
        -0.0253308042883873,
        0.2189384400844574,
        0.013380536809563637,
        -0.07787980139255524,
        -0.010058791376650333,
        0.13610389828681946,
        0.19453659653663635,
        0.13613781332969666,
        -0.03413328900933266,
        -0.2543180286884308,
        -0.09547559916973114,
        -0.018236448988318443,
        0.06051727756857872,
        0.0044781798496842384,
        0.09734167158603668
      ],
      [
        -0.08048386871814728,
        -0.04004419222474098,
        0.09635957330465317,
        -0.2211645245552063,
        -0.12134464085102081,
        -0.17187580466270447,
        -0.07649613916873932,
        0.050618670880794525,
        0.14685691893100739,
        -0.03814868628978729,
        -0.04115695133805275,
        0.16724622249603271,
        0.007357780355960131,
        -0.23176881670951843,
        0.001398473628796637,
        0.12483219057321548,
        -0.25657394528388977,
        3.6253276630304754E-4,
        -0.0760355070233345,
        -0.3159622848033905,
        -0.026731377467513084,
        0.11113590002059937,
        -0.1085214838385582,
        -0.07987362891435623,
        -0.006391193717718124,
        0.10381399095058441,
        0.20215333998203278,
        -0.12483372539281845,
        0.07401253283023834,
        -0.29943373799324036,
        0.04973391070961952,
        -0.01946834847331047,
        -0.050216108560562134,
        0.060351356863975525,
        -0.07566776871681213,
        0.20661680400371552,
        0.033408503979444504,
        0.26646092534065247
      ],
      [
        -0.009366859681904316,
        0.12170376628637314,
        0.0625469908118248,
        0.12593325972557068,
        0.19757677614688873,
        0.022703275084495544,
        -0.019075576215982437,
        0.055525053292512894,
        -0.01733558066189289,
        7.796442368999124E-4,
        -0.03371733799576759,
        0.038341134786605835,
        -0.015085654333233833,
        -0.004688464570790529,
        0.03619970381259918,
        0.022509951144456863,
        0.026635119691491127,
        0.015259223990142345,
        -0.03181615471839905,
        0.028217671439051628,
        0.20756489038467407,
        0.059148453176021576,
        -0.25803685188293457,
        0.052370835095644,
        -0.46042880415916443,
        -0.1877712607383728,
        0.011043128557503223,
        -6.577132153324783E-4,
        0.016417857259511948,
        -0.01656394638121128,
        0.08110864460468292,
        -0.05658895894885063,
        0.033534690737724304,
        0.01616300269961357,
        0.1254824548959732,
        0.04409690201282501,
        0.03540118411183357,
        0.15207596123218536
      ],
      [
        -0.07098506391048431,
        0.1461445838212967,
        0.005973224062472582,
        -0.12545450031757355,
        -0.16953587532043457,
        0.03736265003681183,
        -0.14604519307613373,
        0.16413863003253937,
        -0.005984226707369089,
        -0.16072700917720795,
        -0.05549885705113411,
        0.004076723009347916,
        0.05014827847480774,
        -0.15995553135871887,
        0.17837601900100708,
        -0.09391465038061142,
        0.02334420010447502,
        0.07708907872438431,
        0.11798694729804993,
        0.08020605891942978,
        -0.17688485980033875,
        -0.06875917315483093,
        -0.1791725903749466,
        0.13884319365024567,
        0.024571994319558144,
        0.0050782314501702785,
        -0.09396754205226898,
        -0.1718238890171051,
        -0.08644720166921616,
        -0.0683121606707573,
        0.20949070155620575,
        -0.042004041373729706,
        -0.10212420672178268,
        0.20208777487277985,
        0.0013117289636284113,
        0.038397714495658875,
        0.17648650705814362,
        0.06781327724456787
      ],
      [
        -0.11775150895118713,
        -0.14827583730220795,
        0.0326056107878685,
        0.04863753542304039,
        0.0634094774723053,
        0.2040780931711197,
        0.19495606422424316,
        0.04102107509970665,
        0.15978577733039856,
        0.05821229889988899,
        0.196954146027565,
        0.3659130036830902,
        0.16678090393543243,
        -0.02465374954044819,
        0.02117922715842724,
        0.02821752242743969,
        -0.1554131656885147,
        0.14544691145420074,
        -0.04679618030786514,
        0.18853695690631866,
        -0.09445653855800629,
        0.22758711874485016,
        0.03798062726855278,
        0.09322084486484528,
        -0.044440336525440216,
        0.03921915590763092,
        -0.1724434792995453,
        0.11024882644414902,
        0.14001093804836273,
        0.07125307619571686,
        -0.029899485409259796,
        0.032230522483587265,
        -0.16626118123531342,
        -0.09661350399255753,
        0.08471091091632843,
        0.02256651408970356,
        0.26048019528388977,
        0.1331692785024643
      ],
      [
        0.2537532150745392,
        -0.1316600739955902,
        -0.12875212728977203,
        -0.038889672607183456,
        0.0679984986782074,
        -0.07328299432992935,
        -0.21585169434547424,
        0.31078431010246277,
        -0.01933113858103752,
        0.018944066017866135,
        0.16441616415977478,
        0.06921777874231339,
        -0.1883612424135208,
        0.0368642583489418,
        -0.049151673913002014,
        -0.016596972942352295,
        -0.05955427885055542,
        -0.059432145208120346,
        0.10131210088729858,
        -0.058423470705747604,
        0.15755121409893036,
        -0.11299408972263336,
        -0.10776982456445694,
        -0.11894949525594711,
        0.3058395981788635,
        0.0806664302945137,
        -0.2544897794723511,
        -0.009293681010603905,
        -0.1794750690460205,
        -0.164537712931633,
        0.010239342227578163,
        -0.10599323362112045,
        0.00210538855753839,
        -0.03154950216412544,
        -0.008722406812012196,
        -0.2786405384540558,
        -0.013823382556438446,
        -0.1696358472108841
      ],
      [
        -0.10846833139657974,
        0.13731560111045837,
        -0.2699611783027649,
        -0.048249874264001846,
        -0.014067881740629673,
        -0.03924144431948662,
        0.015208931639790535,
        -0.03640015050768852,
        -0.11506305634975433,
        -0.008593618869781494,
        0.25632646679878235,
        0.025346903130412102,
        -0.07913191616535187,
        0.05727604776620865,
        0.12246828526258469,
        -0.17001385986804962,
        0.07414651662111282,
        0.12088032066822052,
        -0.1026945635676384,
        -0.035738177597522736,
        0.03488923981785774,
        -0.11591818183660507,
        0.03062780760228634,
        0.05777830258011818,
        -0.1965215504169464,
        -0.06376297026872635,
        -0.22750592231750488,
        -0.059576403349637985,
        -0.00983036682009697,
        0.045573774725198746,
        0.13828416168689728,
        0.041002411395311356,
        0.0681949034333229,
        -0.03550373390316963,
        -0.07423179596662521,
        -0.2690684497356415,
        -0.2381889820098877,
        -0.14052969217300415
      ],
      [
        0.21270769834518433,
        -0.11175777018070221,
        -0.011605679988861084,
        -0.16576175391674042,
        0.0643109679222107,
        -0.1545431911945343,
        -0.032359980046749115,
        0.12472940981388092,
        0.12428977340459824,
        0.12241964042186737,
        0.08778981119394302,
        -0.05608527362346649,
        -0.06367719918489456,
        0.05748527869582176,
        -0.1476801335811615,
        0.2876514792442322,
        0.003833930939435959,
        0.11743107438087463,
        0.0766548290848732,
        -0.011071572080254555,
        0.07685396075248718,
        0.030746350064873695,
        0.0400565080344677,
        0.024252265691757202,
        0.06423087418079376,
        -0.1583556979894638,
        0.2679406702518463,
        0.08236128091812134,
        0.207664355635643,
        -0.08965831249952316,
        0.3445705473423004,
        0.03875930234789848,
        -0.02380431815981865,
        0.15323682129383087,
        0.1280568242073059,
        0.002135242335498333,
        -0.0937243103981018,
        -0.05563308298587799
      ],
      [
        0.1647038459777832,
        0.03639727458357811,
        0.050425101071596146,
        0.09377025067806244,
        -0.02409333921968937,
        0.020216288045048714,
        0.10825342684984207,
        -0.1833118349313736,
        -0.0660640150308609,
        -0.06781753152608871,
        0.1539008915424347,
        0.09822200983762741,
        -0.029224619269371033,
        0.007493820507079363,
        -0.12603864073753357,
        0.10408791154623032,
        -0.12769673764705658,
        -0.12408208101987839,
        -0.15924637019634247,
        0.10088381171226501,
        -0.03424602746963501,
        -0.18097791075706482,
        0.18262611329555511,
        -0.0871758982539177,
        -0.049173690378665924,
        0.030069654807448387,
        0.14968562126159668,
        0.20175494253635406,
        0.08801699429750443,
        0.06063055619597435,
        -0.07437629997730255,
        -0.23410093784332275,
        -0.07663296908140182,
        0.2643134891986847,
        0.10748712718486786,
        0.11347490549087524,
        -0.12846875190734863,
        0.064642034471035
      ],
      [
        0.11580311506986618,
        0.007256106473505497,
        -0.023303784430027008,
        0.04711809754371643,
        0.12139130383729935,
        -0.13770680129528046,
        -0.10980109125375748,
        -0.18173861503601074,
        0.22924597561359406,
        -0.013744650408625603,
        0.08591806143522263,
        0.10528533160686493,
        0.014866176061332226,
        0.16223926842212677,
        -0.16111858189105988,
        -0.03926398977637291,
        -0.05794969201087952,
        0.10887207835912704,
        0.03010491654276848,
        -0.165314719080925,
        0.26481711864471436,
        -0.16169974207878113,
        0.1228657141327858,
        0.005694397259503603,
        -0.2924625277519226,
        -0.046282507479190826,
        0.028569698333740234,
        0.14195923507213593,
        -0.06958779692649841,
        0.20711740851402283,
        0.24070435762405396,
        0.12696866691112518,
        -0.019062628969550133,
        0.12897300720214844,
        -0.07280042767524719,
        0.10232396423816681,
        0.06290128827095032,
        -0.07408329099416733
      ],
      [
        -0.09990308433771133,
        -0.06033584102988243,
        0.1721692532300949,
        -0.0038302475586533546,
        0.06891629099845886,
        -0.035369910299777985,
        0.10390973836183548,
        0.06584180146455765,
        0.12836506962776184,
        -0.11314225941896439,
        0.11912012845277786,
        0.20787540078163147,
        -0.06224527209997177,
        -0.2580486834049225,
        0.013163793832063675,
        0.19089564681053162,
        0.07113667577505112,
        -0.2722494304180145,
        -0.30245912075042725,
        0.18733997642993927,
        0.09955152124166489,
        0.02843673899769783,
        0.02924199588596821,
        -0.10416948050260544,
        -0.1206216812133789,
        0.040617045015096664,
        0.17411112785339355,
        -0.058584075421094894,
        -0.06054205447435379,
        0.19767658412456512,
        -0.031079333275556564,
        -0.1589505523443222,
        -0.12502829730510712,
        -0.062358755618333817,
        -0.15279953181743622,
        -0.27106600999832153,
        -0.1095447689294815,
        -0.012112775817513466
      ],
      [
        -0.18588748574256897,
        -0.004849275574088097,
        -0.12254849076271057,
        -0.04898769408464432,
        0.29160967469215393,
        -0.058742355555295944,
        -0.1594943255186081,
        0.10495641827583313,
        -0.16718803346157074,
        -0.06279207020998001,
        -0.015655677765607834,
        0.019835276529192924,
        0.1235513836145401,
        -0.06247365102171898,
        0.02061983197927475,
        -0.0699009895324707,
        0.028639739379286766,
        0.13769787549972534,
        0.02252539061009884,
        -0.11834978312253952,
        0.030488841235637665,
        -0.125177800655365,
        -0.05181877687573433,
        0.02334286831319332,
        0.013834006153047085,
        0.3017895817756653,
        0.07866303622722626,
        0.021343519911170006,
        0.14911477267742157,
        -0.05834035947918892,
        0.028152985498309135,
        0.16360940039157867,
        -0.15093892812728882,
        0.13854359090328217,
        0.1313558667898178,
        0.00577850965783,
        0.010252176783978939,
        0.0654524490237236
      ],
      [
        0.06128944084048271,
        0.1434110552072525,
        -0.26832786202430725,
        -0.1890222728252411,
        0.16882674396038055,
        0.18811097741127014,
        0.09394911676645279,
        0.14792484045028687,
        0.2014361172914505,
        0.020201170817017555,
        0.030010176822543144,
        -0.30449193716049194,
        -0.05224728211760521,
        -1.9781631999649107E-4,
        -0.14858058094978333,
        -0.0581195242702961,
        -0.11389611661434174,
        -0.04675188660621643,
        0.08453738689422607,
        -0.02479836344718933,
        -0.02545991726219654,
        -0.04858967661857605,
        0.06937981396913528,
        0.11169183254241943,
        -0.1487581431865692,
        0.12598568201065063,
        -0.2967985272407532,
        -0.19906897842884064,
        -0.1423160284757614,
        -0.1285780668258667,
        0.15841282904148102,
        0.10301394015550613,
        -0.03859839588403702,
        -0.1510811746120453,
        -0.011068157851696014,
        0.1575058549642563,
        -0.10622374713420868,
        -0.07059850543737411
      ],
      [
        0.2589706480503082,
        0.0551631785929203,
        0.043544553220272064,
        0.10501962900161743,
        0.05984005331993103,
        -0.05271482095122337,
        -0.12726624310016632,
        -0.15250392258167267,
        -0.1826961487531662,
        -0.06192326918244362,
        -0.03925471007823944,
        -0.10617484152317047,
        0.11316074430942535,
        -0.06483688950538635,
        0.11616452038288116,
        0.021527273580431938,
        0.10967586934566498,
        0.04591876640915871,
        0.11362778395414352,
        0.07604485005140305,
        -0.13373105227947235,
        -0.04995608329772949,
        -0.091268390417099,
        -0.036512259393930435,
        -0.061190810054540634,
        0.19685445725917816,
        -0.2570706903934479,
        0.2872740924358368,
        -0.05774456262588501,
        0.06740453839302063,
        -0.022804269567131996,
        0.006662196479737759,
        -0.0029716172721236944,
        -0.15818624198436737,
        -0.2863090932369232,
        -0.009953985922038555,
        -0.028432853519916534,
        -0.0359271839261055
      ],
      [
        0.14686273038387299,
        -0.0521099828183651,
        -0.14147517085075378,
        -0.20638571679592133,
        0.2069484442472458,
        0.087430439889431,
        0.07288732379674911,
        -0.14185526967048645,
        -0.024714289233088493,
        0.014924466609954834,
        0.07040854543447495,
        -0.02761169523000717,
        -0.003709852695465088,
        0.006802938412874937,
        0.046659376472234726,
        -0.08828916400671005,
        0.2608778178691864,
        -0.12473905831575394,
        -0.20499834418296814,
        0.3076575994491577,
        0.1680891215801239,
        0.05718052387237549,
        -0.19610361754894257,
        0.10682412981987,
        0.014811364933848381,
        0.053698521107435226,
        0.11492984741926193,
        -0.014754211530089378,
        0.14224554598331451,
        -0.017827093601226807,
        -0.10041224211454391,
        0.040007494390010834,
        0.10884882509708405,
        -0.06066417694091797,
        -0.11060541868209839,
        -0.08826547861099243,
        -0.06618627905845642,
        -0.057539984583854675
      ],
      [
        -0.1582430899143219,
        0.271646112203598,
        0.07767824083566666,
        0.007896624505519867,
        -0.1700625717639923,
        0.04311104863882065,
        0.11158760637044907,
        -0.07038401812314987,
        -0.07727675884962082,
        -0.06575917452573776,
        0.013242903165519238,
        0.15250854194164276,
        -0.061157599091529846,
        0.03889220207929611,
        -0.08337225764989853,
        -0.07160747051239014,
        -0.10850156843662262,
        -0.12685464322566986,
        -0.19504547119140625,
        0.11470876634120941,
        0.04911094531416893,
        -0.12920430302619934,
        -0.17248359322547913,
        -0.09758125990629196,
        0.03767254948616028,
        -0.17541638016700745,
        0.09126347303390503,
        -0.09360259771347046,
        0.013810159638524055,
        0.11524449288845062,
        0.010114285163581371,
        -0.18987056612968445,
        0.15772713720798492,
        0.045317117124795914,
        -0.14643611013889313,
        -0.11526177078485489,
        -0.22693683207035065,
        -0.06643534451723099
      ]
    ],
    [
      [
        0.004311837255954742,
        -0.001492299954406917,
        0.004247293341904879,
        -0.0019347004126757383,
        0.028770633041858673,
        0.002084233332425356,
        -0.003026180202141404,
        0.03781130164861679,
        0.020567787811160088,
        0.011474065482616425,
        -0.0012336820363998413,
        0.00427325488999486,
        -9.409815538674593E-4,
        0.014337176457047462,
        0.0013340760488063097,
        0.003490285947918892,
        -0.0429060161113739,
        -0.006806120276451111,
        0.004020280204713345,
        0.009235749021172523,
        0.00238544843159616,
        0.002645468572154641,
        -0.0057507846504449844,
        0.005517445970326662,
        0.00260006170719862,
        0.014168617315590382,
        0.005771778058260679,
        0.004080962855368853,
        0.011352166533470154,
        -0.009585203602910042
      ]
    ]
  ],
  "biasByLayerAndNeuron": [
    [
      0.028075233101844788,
      -0.01506021898239851,
      -0.016117984429001808,
      -0.01636376976966858,
      -0.09372998774051666,
      8.807468111626804E-4,
      -0.003670761361718178,
      0.014634001068770885,
      -0.07103385031223297,
      0.01984231173992157,
      0.0218849778175354,
      -0.022538956254720688,
      -0.014504242688417435,
      -0.06702949851751328,
      0.005986532662063837,
      -0.00192686403170228,
      -0.16891776025295258,
      -5.84850029554218E-4,
      0.03176800534129143,
      -0.08947037905454636,
      -0.008575194515287876,
      -0.18835224211215973,
      -0.2860388159751892,
      0.07893610745668411,
      -0.04936740919947624,
      -0.13462969660758972,
      0.009626488201320171,
      -0.07212407886981964,
      -0.0070194061845541,
      0.06227542832493782
    ],
    [
      0.0187336765229702
    ]
  ],
  "meansForInput": [
    0.424172043800354,
    0.12153850495815277,
    0.6022059917449951,
    0.5078089833259583,
    0.42061635851860046,
    0.2353789061307907,
    0.4953427016735077,
    0.11770331859588623,
    0.41445887088775635,
    0.24585311114788055,
    0.4976660907268524,
    0.13054713606834412,
    0.31658461689949036,
    0.24021483957767487,
    0.4942154884338379,
    0.0960029885172844,
    0.30268749594688416,
    0.23524096608161926,
    0.4838177263736725,
    0.07961450517177582,
    0.0,
    0.0,
    0.0,
    0.0,
    0.3592311143875122,
    0.2154962569475174,
    0.03502592071890831,
    0.27979880571365356,
    0.15382660925388336,
    0.03505026176571846,
    0.050578635185956955,
    0.9662191271781921,
    0.05040951073169708,
    0.0876661166548729,
    0.24079661071300507,
    0.3881591558456421,
    0.5873241424560547,
    0.8169155120849609
  ],
  "stdForInput": [
    0.23024995625019073,
    0.23098492622375488,
    0.295979768037796,
    0.30074477195739746,
    0.3098801374435425,
    0.1831800639629364,
    0.31644880771636963,
    0.15917912125587463,
    0.29413360357284546,
    0.17630623281002045,
    0.3141716718673706,
    0.1632181704044342,
    0.18942460417747498,
    0.16939356923103333,
    0.3087058663368225,
    0.14649003744125366,
    0.1699618101119995,
    0.16329790651798248,
    0.30252131819725037,
    0.13126863539218903,
    9.999999747378752E-6,
    9.999999747378752E-6,
    9.999999747378752E-6,
    9.999999747378752E-6,
    0.4797767996788025,
    0.3578697144985199,
    0.1607375144958496,
    0.44889912009239197,
    0.2942928671836853,
    0.08205173164606094,
    0.13156817853450775,
    0.14038336277008057,
    0.06215228885412216,
    0.16201220452785492,
    0.27813807129859924,
    0.3234007656574249,
    0.32522931694984436,
    0.2384522557258606
  ]
}